<?xml version="1.0"?>
<opencv_storage>
<HOG_SVM type_id="opencv-object-detector-hog">
  <winSize>
    80 128</winSize>
  <blockSize>
    16 16</blockSize>
  <blockStride>
    8 8</blockStride>
  <cellSize>
    8 8</cellSize>
  <nbins>9</nbins>
  <derivAperture>1</derivAperture>
  <winSigma>4.</winSigma>
  <histogramNormType>0</histogramNormType>
  <L2HysThreshold>2.0000000000000001e-01</L2HysThreshold>
  <gammaCorrection>1</gammaCorrection>
  <nlevels>64</nlevels>
  <signedGradient>0</signedGradient>
  <SVMDetector>
    2.03271443e-03 -1.72449406e-02 6.12390861e-02 4.93555963e-02
    2.87607573e-02 7.07099289e-02 1.59706324e-02 -4.99391276e-03
    -1.77282537e-03 3.55731649e-03 -1.79430936e-02 8.15338164e-04
    1.10785523e-03 -7.64460862e-02 2.83152685e-02 4.36200015e-03
    -4.02742624e-03 8.17914214e-03 -2.00946592e-02 -3.05706412e-02
    2.53415368e-02 1.88256204e-02 -2.95642577e-02 5.70172854e-02
    3.80949639e-02 5.71419019e-03 -7.39925634e-03 -1.32267894e-02
    -2.23335642e-02 4.33105015e-04 1.63997933e-02 -9.63856056e-02
    -1.49173671e-02 4.93467133e-03 -7.69677432e-03 6.60629384e-03
    3.40154283e-02 1.00356182e-02 1.32113518e-02 3.93843725e-02
    -1.79450922e-02 2.14059874e-02 -1.23492889e-02 -1.65553726e-02
    2.97601186e-02 3.49711850e-02 1.11606729e-03 -2.86413748e-02
    -1.57298986e-02 -1.58587359e-02 -4.66977172e-02 -6.17883205e-02
    -1.23236375e-02 5.20288870e-02 3.85344401e-02 2.13566460e-02
    2.16043796e-02 3.30153555e-02 -3.61230318e-03 1.82044152e-02
    7.47267343e-03 -9.78395436e-03 1.94415804e-02 2.91438513e-02
    -1.43558327e-02 -1.68917831e-02 -2.91131809e-03 -4.12118714e-03
    -1.23246934e-03 -4.81987707e-02 -3.89907323e-02 3.79239745e-03
    2.88081039e-02 -1.00245709e-02 5.70430048e-03 2.73490287e-02
    4.11342606e-02 -1.02692423e-03 -3.01641729e-02 9.06756427e-03
    7.08151609e-02 -2.72493856e-03 -5.67373354e-03 1.06432976e-03
    -3.16800997e-02 2.33182479e-02 1.34658301e-02 3.80886067e-03
    3.11554107e-03 -5.81979891e-03 1.12290867e-02 -1.76359958e-03
    1.15382960e-02 4.33711670e-02 5.34031279e-02 5.27498834e-02
    -2.87133250e-02 -1.08517287e-02 3.38678667e-03 8.36302713e-03
    -2.22331900e-02 2.61193812e-02 7.53985438e-03 1.21315327e-02
    3.27538997e-02 4.96559311e-03 -8.84117035e-05 -1.24854650e-02
    -2.62592407e-03 1.70177761e-02 3.06566730e-02 6.66246982e-03
    3.32278982e-02 9.31788329e-03 1.21141011e-02 -2.30193418e-02
    -4.23502102e-02 1.64412451e-03 2.59653665e-02 1.26893008e-02
    2.02644188e-02 5.66160120e-02 3.79529148e-02 1.24388738e-02
    -1.67099871e-02 -6.86383620e-03 8.95501673e-03 4.27169204e-02
    6.89461306e-02 4.21316139e-02 1.35350612e-03 3.38335373e-02
    3.82077731e-02 -1.75590664e-02 -3.36500145e-02 2.84103211e-02
    5.35041243e-02 5.51341474e-02 2.14250125e-02 6.13671839e-02
    5.53491898e-02 5.06108664e-02 -7.08024995e-03 -1.57691948e-02
    -2.38318536e-02 -2.52603851e-02 -1.98497679e-02 -1.32447388e-02
    9.42993071e-03 1.84731055e-02 2.24842317e-03 -4.86835884e-03
    8.34906381e-03 -4.45269942e-02 -2.78699677e-02 -1.79512817e-02
    1.59433633e-02 3.06783579e-02 3.71022895e-02 -2.75910683e-02
    -7.18337111e-03 -2.42533945e-02 -2.57592020e-03 1.75580829e-02
    4.85832384e-03 -9.00553539e-03 -7.92613812e-03 4.59340699e-02
    2.31308024e-03 -1.45879854e-02 -1.29650338e-02 1.17777903e-02
    1.02555137e-02 2.64667440e-02 3.41886245e-02 8.30902439e-03
    2.35466696e-02 -1.62727926e-02 9.58333910e-03 -3.18580978e-02
    -9.61704366e-03 6.95283944e-03 -1.94107741e-02 1.87979043e-02
    -4.89499755e-02 -3.72812850e-03 -4.24334183e-02 1.31177846e-02
    9.28696617e-03 -1.02754971e-02 3.75480801e-02 -3.79932323e-03
    -1.23593612e-02 2.68034567e-03 2.17814483e-02 -5.72617278e-02
    -5.36039099e-03 -2.39521638e-02 -1.45397037e-02 9.32693016e-03
    -8.88380595e-03 5.46545815e-03 -6.14798516e-02 -1.09156854e-02
    -2.11802516e-02 -7.30584050e-03 -3.88939753e-02 -6.61441460e-02
    1.18330689e-02 -3.06421276e-02 -3.27037014e-02 2.69403737e-02
    1.33674536e-02 2.76375166e-03 3.15298252e-02 -4.86619957e-02
    -1.98415369e-02 4.69189463e-03 -3.50280963e-02 -1.75926462e-02
    -4.45264857e-03 -1.92566123e-02 -6.56568408e-02 -1.06229400e-02
    -1.45016108e-02 -1.33230980e-03 1.38974739e-02 -6.61265804e-03
    7.84824193e-02 6.89654946e-02 4.64154296e-02 -3.00694332e-02
    3.39022052e-04 -1.04385065e-02 -2.46696901e-02 1.71271770e-03
    -4.40998860e-02 -3.67111759e-03 -3.21939774e-02 -4.19368483e-02
    -5.78487702e-02 2.78716069e-02 1.50964805e-03 1.09548960e-02
    -3.96107743e-03 -2.66598035e-02 4.45095822e-02 5.20242117e-02
    7.45804142e-03 -4.82760668e-02 2.21371627e-03 4.95878123e-02
    -1.49707654e-02 -1.66661087e-02 -1.12609118e-02 3.51523496e-02
    7.24719558e-03 6.68610260e-03 -3.04069221e-02 -2.70928536e-02
    -5.41077042e-03 6.36722101e-03 -3.80764753e-02 -4.97824624e-02
    3.97497825e-02 2.82913707e-02 -2.66599245e-02 -5.99789135e-02
    -1.78194847e-02 1.60448123e-02 2.12536827e-02 -1.41065754e-02
    -2.61243675e-02 -2.94536352e-03 -4.09748964e-02 -1.12833055e-02
    -4.53692637e-02 1.76954586e-02 2.96829902e-02 1.16016401e-03
    -3.07547022e-03 -3.14312093e-02 7.89400376e-03 -2.74984334e-02
    -3.19489948e-02 -4.43654284e-02 -2.43228488e-02 5.83916251e-03
    3.23765539e-02 -2.78583653e-02 -5.14968671e-02 2.88757719e-02
    2.42464598e-02 1.04752975e-02 -2.77827457e-02 5.00160619e-04
    3.42687219e-02 -2.44990177e-03 -4.17747684e-02 -5.20917736e-02
    -1.02301640e-02 -1.36017092e-02 1.43058235e-02 -4.35344409e-03
    4.35469905e-04 -1.94833651e-02 2.01840494e-02 1.68171842e-02
    8.63177818e-04 1.73415635e-02 1.48678627e-02 2.82566603e-02
    9.40229394e-04 -5.77258877e-03 3.12841758e-02 4.50226665e-03
    1.33914622e-02 1.59463752e-02 1.68426819e-02 -1.30149340e-02
    -2.09560385e-03 9.81936883e-03 1.06202196e-02 -1.45048182e-03
    -2.95153749e-03 -3.96647006e-02 -4.32668328e-02 8.34941771e-03
    4.37700301e-02 2.10848693e-02 6.64197281e-03 -2.18327958e-02
    -2.10768040e-02 -1.83987636e-02 -7.16439933e-02 -8.28454085e-03
    6.44085035e-02 6.76251128e-02 2.39169225e-02 7.09294621e-03
    -3.40318233e-02 -2.25151237e-02 8.02771002e-03 -6.33792207e-03
    3.34834051e-03 2.05466002e-02 1.68447308e-02 3.62512618e-02
    9.78345424e-03 1.32332006e-02 8.13433062e-03 5.50547056e-03
    -4.01050635e-02 1.35929184e-03 1.07497394e-01 2.90327463e-02
    4.73556295e-02 2.50467937e-02 -1.77390855e-02 -7.33885588e-03
    -4.77286568e-03 -7.69601464e-02 1.12531194e-02 8.03576112e-02
    4.00091670e-02 1.29548879e-02 -6.64992433e-04 2.53074220e-04
    2.16379352e-02 -2.63546389e-02 -5.60489222e-02 1.73774846e-02
    2.54685935e-02 -3.60446163e-02 1.35121942e-02 -1.94317959e-02
    8.21394846e-03 -2.11247019e-02 3.50786336e-02 -1.63379163e-02
    2.60537211e-02 8.60299841e-02 1.91742666e-02 2.07112674e-02
    2.93914601e-03 1.01392036e-02 4.45211530e-02 1.81131139e-02
    -2.32602712e-02 4.33217585e-02 3.91972698e-02 2.38383189e-02
    1.47975395e-02 -3.12228408e-03 1.77496474e-03 2.42377128e-02
    -9.01487307e-04 -1.97816286e-02 1.39874825e-02 3.64003219e-02
    -3.03897094e-02 2.20628455e-03 6.96489634e-03 2.03517247e-02
    -2.54385211e-02 -4.75842413e-03 -2.46112645e-02 -2.15794388e-02
    5.78105152e-02 -1.83069967e-02 -2.45047957e-02 -4.11980078e-02
    2.35087122e-03 -1.83750428e-02 3.19826119e-02 -2.91003641e-02
    2.50348616e-02 1.74352098e-02 -5.47330501e-03 -5.44598047e-03
    7.66255381e-03 1.68009326e-02 4.73663909e-03 2.75512170e-02
    -5.05408049e-02 -4.24901247e-02 1.45237939e-02 -9.53675155e-03
    1.99201852e-02 1.30152255e-02 -2.38082628e-03 3.16420570e-03
    3.78752537e-02 5.75199910e-03 7.93821923e-03 3.84720676e-02
    -4.41939123e-02 -3.34198847e-02 -4.56019789e-02 1.11521203e-02
    3.90526094e-02 3.70110497e-02 1.96409971e-02 2.51688883e-02
    8.25121924e-02 -4.07595150e-02 -6.87424913e-02 -7.74817616e-02
    -2.11524721e-02 4.45435718e-02 5.16510904e-02 1.22691318e-03
    -3.84669355e-03 5.14259078e-02 -4.64021154e-02 5.95767312e-02
    1.91956032e-02 9.37240385e-03 7.04523688e-03 3.26264128e-02
    -3.65709275e-04 -1.36448108e-02 1.73240248e-02 -4.39007170e-02
    -1.11783659e-02 -5.05584106e-02 -1.91772524e-02 6.39802963e-03
    4.50445339e-02 4.26340662e-02 -4.88239713e-03 7.36517981e-02
    -2.54722480e-02 -4.92226183e-02 -2.76445504e-02 -5.72560867e-03
    1.80191100e-02 4.22107056e-03 1.51632736e-02 -2.63422215e-03
    -1.48657123e-02 -3.11565250e-02 5.80086187e-03 3.49708647e-03
    7.17398664e-03 -7.99908303e-03 1.96859408e-02 2.03616377e-02
    1.01798493e-02 2.33693775e-02 -2.56402716e-02 7.47989677e-03
    1.11212926e-02 1.67497946e-03 -1.46398321e-02 -3.19052231e-03
    -2.19948012e-02 -2.74109729e-02 1.59288924e-02 9.30409040e-03
    4.38522082e-03 1.40739745e-02 2.25476716e-02 -6.36236556e-03
    -8.36726185e-03 4.08343738e-03 5.04827611e-02 1.96620729e-02
    -3.66572700e-02 -3.33720893e-02 -1.81109610e-03 -2.58127670e-03
    -1.47266909e-02 -3.17813866e-02 3.58991534e-03 4.97909449e-02
    7.46924710e-03 -1.89792812e-02 6.46821335e-02 8.45313072e-03
    -4.75304015e-03 -3.83467041e-02 1.07764034e-02 -2.00212672e-02
    3.66699952e-03 2.79102810e-02 -1.13930330e-02 -2.46579517e-02
    9.38639045e-03 3.63255409e-03 1.18541894e-02 -2.52162404e-02
    1.11381384e-03 4.06202413e-02 8.19700863e-03 -3.00568133e-03
    3.56513150e-02 4.91493382e-04 -2.83552073e-02 -1.93225816e-02
    -4.48038206e-02 -2.82807425e-02 2.81199422e-02 2.02730652e-02
    2.39852574e-02 8.59412625e-02 5.50708920e-02 2.46354472e-02
    -3.98472100e-02 -3.42757851e-02 -1.08640082e-02 2.53196713e-02
    1.06112910e-02 -1.47697143e-02 7.57406140e-03 3.57581787e-02
    9.74890124e-03 -2.31356882e-02 -4.61404324e-02 -1.74212980e-03
    5.47396801e-02 1.46723771e-02 1.23019023e-02 1.03804432e-01
    3.61268856e-02 -3.04309614e-02 -5.37533909e-02 -3.48292179e-02
    -1.20977843e-02 2.74544805e-02 -4.62318910e-03 -5.38742244e-02
    6.81306468e-03 8.54361430e-03 2.22834037e-03 -2.70344038e-02
    7.55983032e-03 2.18692683e-02 4.61856276e-02 3.93258408e-02
    1.91845503e-02 8.37146770e-03 4.99515282e-03 -1.26270168e-02
    1.68772191e-02 5.31459600e-02 1.16167939e-03 -2.59402469e-02
    -2.81773391e-03 2.62933187e-02 -4.85298410e-03 -1.43472487e-02
    -1.27961552e-02 2.86650844e-02 2.97348574e-02 -1.64146681e-04
    1.35971243e-02 3.80678363e-02 -3.62539217e-02 6.50018081e-03
    -2.36431900e-02 -1.03402473e-02 1.62894540e-02 4.74512726e-02
    -7.65907625e-03 -5.59954606e-02 -4.36201598e-03 -3.04299686e-02
    -5.96636906e-02 -3.40575427e-02 -1.05632572e-02 3.45552526e-02
    6.01882860e-03 -3.28914225e-02 -2.99250372e-02 5.94166368e-02
    4.86935936e-02 5.84596768e-02 2.08710320e-02 1.70110948e-02
    8.32970161e-03 -3.21486546e-03 -5.09025417e-02 -6.70285290e-03
    5.50764203e-02 1.61256362e-02 3.11190616e-02 1.88847054e-02
    1.71129145e-02 4.57429653e-03 2.72624809e-02 -2.19583269e-02
    -1.41795222e-02 3.23558524e-02 2.70158015e-02 -8.12932476e-03
    -7.23902311e-04 8.68699979e-03 2.31902841e-02 -4.34883963e-03
    -4.44768108e-02 -1.17661338e-02 3.43912132e-02 1.95682887e-02
    -2.05634348e-02 2.19980776e-02 -1.22644706e-02 -1.26444390e-02
    -2.41749398e-02 -2.44798306e-02 3.80123556e-02 2.73743141e-02
    -3.42160873e-02 1.42739471e-02 5.10947332e-02 9.00718477e-03
    -3.06342784e-02 -9.48463008e-03 1.79570746e-02 8.03411659e-03
    1.82025868e-03 1.99670941e-02 1.24754217e-02 4.81578484e-02
    -1.07024536e-02 -2.44593956e-02 2.27661361e-03 4.72721504e-03
    1.53815690e-02 4.62542847e-02 7.89441075e-03 2.85578016e-02
    1.04386937e-02 -2.25461274e-02 -2.64183972e-02 5.91981895e-02
    4.61603440e-02 2.51501915e-03 -1.62209570e-02 4.74474318e-02
    4.33514863e-02 1.76772401e-02 1.03877168e-02 4.09034044e-02
    -9.90666728e-03 1.45545555e-03 -3.35860997e-02 -1.74579341e-02
    -4.41184938e-02 2.98074819e-02 3.08166873e-02 -3.42085492e-03
    1.17364796e-02 -2.08592098e-02 4.99671372e-03 -2.32607685e-02
    1.98473465e-02 -2.74197720e-02 3.99122536e-02 -1.16411280e-02
    5.41576708e-04 -1.64526440e-02 1.04965726e-02 2.27217810e-04
    -4.91810776e-02 -1.39726559e-02 -4.11577821e-02 2.19666194e-02
    3.91122922e-02 3.32183875e-02 4.33423184e-02 -5.99787431e-03
    4.29882109e-03 1.62345674e-02 5.55180758e-02 -1.57018639e-02
    4.31502014e-02 1.27172777e-02 2.20509842e-02 -1.93869118e-02
    -4.37617935e-02 -9.40713752e-03 -1.93061531e-02 -2.12651268e-02
    -3.58271785e-02 8.62531736e-03 -2.07261350e-02 2.01147310e-02
    -1.59197617e-02 -5.43129407e-02 -9.46388021e-03 -3.69176865e-02
    -3.92827503e-02 3.69084403e-02 -2.08120756e-02 -4.38260138e-02
    1.28448103e-02 -2.22815704e-02 -3.36196497e-02 3.25346664e-02
    1.72617082e-02 3.94407995e-02 -3.98360752e-02 1.20937256e-02
    1.16038872e-02 3.69714499e-02 -2.91233119e-02 -9.24212672e-03
    1.51814315e-02 -2.45684069e-02 -1.03247957e-02 5.61346300e-02
    2.12471951e-02 -8.71171430e-03 2.80135144e-02 -4.50746249e-03
    -6.70152251e-03 -4.63505089e-03 -4.46411520e-02 -3.74921337e-02
    -2.91365925e-02 -5.72893284e-02 -5.91301695e-02 1.37423994e-02
    -1.91981392e-03 1.85084585e-02 -1.18431738e-02 -2.49535274e-02
    3.31796296e-02 1.14399977e-02 3.97568336e-03 -5.51414303e-02
    3.20186429e-02 2.23027244e-02 -3.09101935e-03 3.39212976e-02
    -4.69033420e-02 -3.14460099e-02 -8.00958462e-03 -1.06559517e-02
    -2.67498046e-02 2.29340908e-03 -1.06538609e-02 2.67108623e-02
    3.10624111e-02 1.24107650e-03 1.83425285e-02 -5.78402821e-03
    2.34776288e-02 -1.94652136e-02 1.20877614e-02 2.81051565e-02
    2.67831865e-03 -2.07559541e-02 -2.53922604e-02 1.64274394e-03
    -3.03782821e-02 1.85695831e-02 -3.12370807e-02 2.77643912e-02
    2.41272282e-02 -9.06407088e-03 -1.18925469e-02 -1.55191934e-02
    4.04914841e-02 -1.16713885e-02 3.93661996e-03 4.34046378e-03
    -7.67697673e-03 -9.11416835e-04 -1.69755723e-02 -2.64713410e-02
    -2.83496417e-02 7.22186361e-03 -5.96013758e-03 2.64192373e-02
    3.57525703e-03 3.31716798e-02 4.31022383e-02 -2.11850908e-02
    -4.80513386e-02 -2.58598384e-02 3.96879166e-02 -5.36248507e-03
    -5.07581607e-02 2.00885236e-02 6.77883485e-03 2.91745570e-02
    -4.87298239e-03 1.84442438e-02 -3.00795748e-03 3.23532112e-02
    -4.86107310e-04 1.13800960e-02 -1.32728238e-02 -4.25576456e-02
    -1.34765822e-02 -1.82753485e-02 -7.51321483e-03 -6.31540269e-03
    -2.87707499e-03 -1.18246013e-02 -1.04142250e-02 -1.35728801e-02
    -6.81374548e-03 -1.83705939e-03 3.81269492e-02 5.26769226e-03
    -2.34564580e-02 2.51720324e-02 2.19918452e-02 -1.75343808e-02
    1.06626889e-02 -1.90955624e-02 9.18660127e-03 1.30236074e-02
    1.87353808e-02 -1.93348043e-02 1.39776822e-02 -2.35211759e-04
    1.72338728e-02 -3.09373643e-02 -4.53786515e-02 -4.01581749e-02
    -1.51099134e-02 -2.27398146e-02 -7.74061121e-03 9.02679469e-03
    1.25804748e-02 3.87791209e-02 -8.26891605e-03 -7.72382598e-03
    2.40691844e-02 6.11609826e-03 -2.13577636e-02 -1.06399106e-02
    5.20981997e-02 -3.32411728e-03 3.99696380e-02 5.02270414e-03
    -1.96058098e-02 1.95929445e-02 1.11449519e-02 -9.67282150e-03
    1.09887244e-02 2.36771423e-02 5.37326224e-02 6.50021881e-02
    -2.12352667e-02 -2.27168184e-02 -9.81713273e-03 -7.45599717e-03
    -2.90418435e-02 -1.83803458e-02 3.48358527e-02 1.55251361e-02
    4.15635444e-02 -1.00467959e-03 -9.90537647e-03 8.04449338e-03
    1.52966995e-02 -1.64795630e-02 1.96574535e-02 3.58592793e-02
    -3.98275629e-02 -8.09802860e-03 -1.91994235e-02 -2.21772329e-03
    4.54386696e-02 -4.02840041e-03 5.99527080e-03 1.97180528e-02
    4.01915573e-02 -8.23222380e-03 -4.57931729e-03 -2.02933438e-02
    -8.97397567e-03 1.80926658e-02 -6.81039039e-03 -3.06864567e-02
    9.22851451e-03 2.76574846e-02 -1.74748246e-02 3.26975286e-02
    7.04325084e-03 2.16009039e-02 3.26856449e-02 -1.74715221e-02
    -3.15629393e-02 -2.80136000e-02 5.03974035e-02 -8.84378795e-04
    2.93841138e-02 -2.21379921e-02 2.65683569e-02 1.52439410e-02
    1.18217608e-02 2.37154216e-02 4.26359773e-02 2.93154307e-02
    -1.17016193e-02 -2.48773787e-02 1.90052495e-03 3.08504421e-02
    6.11963356e-03 1.82361063e-02 -1.43307336e-02 -1.89641751e-02
    2.06698524e-03 -9.78984218e-03 -9.00975987e-03 -1.21180015e-02
    -1.98162012e-02 -1.12538543e-02 1.23216324e-02 2.45110597e-02
    2.50271428e-02 1.44463880e-02 7.07618892e-05 -4.98625217e-03
    3.54428939e-03 5.12623489e-02 3.06546669e-02 1.67901851e-02
    -4.80227638e-04 -9.17579606e-03 5.72440354e-03 3.44249886e-03
    -1.53993228e-02 -3.07868980e-02 5.87819237e-03 1.89957246e-02
    4.57607061e-02 7.15086050e-03 -1.21113481e-02 2.16285493e-02
    -3.04562766e-02 2.55703982e-02 -7.43564032e-03 -1.20400377e-02
    1.65423204e-03 9.21904016e-03 2.80611441e-02 -2.19634827e-03
    3.25955898e-02 -5.04311249e-02 -2.66001560e-02 -5.45904785e-02
    -3.63395065e-02 -2.01787911e-02 1.57974027e-02 1.56120807e-02
    -1.84798315e-02 2.76248138e-02 3.34576680e-03 1.67428423e-03
    3.37881083e-03 -9.45178419e-03 1.75548326e-02 -3.43425642e-03
    3.34167853e-02 -1.00578107e-02 4.88836551e-03 -5.78846149e-02
    -4.71974835e-02 -2.54754554e-02 -3.40698399e-02 -1.94090046e-02
    -2.99425027e-03 2.76479106e-02 3.29224057e-02 3.81218940e-02
    -3.70006151e-02 -1.69891876e-03 -1.18035339e-02 -2.28731856e-02
    -4.36440185e-02 -1.52144209e-02 -3.14678228e-03 8.00270028e-03
    3.19954976e-02 -2.38053128e-03 3.63740814e-03 1.67685561e-02
    1.21910740e-02 -2.84083337e-02 -1.67217944e-02 5.70178078e-03
    1.05282152e-03 1.43850793e-03 -1.16347186e-02 4.34462167e-03
    2.03201342e-02 -2.21377378e-03 -2.57990062e-02 3.73183680e-03
    7.90485833e-03 5.52777462e-02 4.04332913e-02 -1.81248710e-02
    2.61516292e-02 2.22431682e-02 1.35647813e-02 -1.14800502e-02
    -3.20121944e-02 -7.72969751e-03 2.58144215e-02 1.02933263e-02
    -1.72112510e-02 -2.41399240e-02 -9.33927111e-03 6.88090362e-03
    -1.49570648e-02 -5.00506051e-02 -9.48193762e-03 8.51404294e-03
    -5.27330041e-02 -2.77392026e-02 -8.15262087e-04 3.59677635e-02
    2.61595799e-03 -7.14336522e-03 1.14914589e-03 2.67091412e-02
    4.63795587e-02 1.05258692e-02 -4.44356091e-02 -3.45932692e-03
    -1.53822475e-03 1.59391407e-02 -3.10002058e-03 9.49711353e-03
    3.87811586e-02 -9.71573684e-03 -7.29507506e-02 -3.79293300e-02
    -7.61890924e-03 2.80040707e-02 1.20219626e-02 -1.28592700e-02
    -5.71242273e-02 -5.56438090e-03 6.53701574e-02 1.52712064e-02
    4.20831889e-02 8.32404047e-02 5.35664447e-02 5.25869336e-03
    -4.66698185e-02 -4.88650538e-02 -1.43906157e-02 3.15685533e-02
    -1.12789022e-02 -1.09345820e-02 4.36678194e-02 3.15384120e-02
    5.15561178e-02 -1.82859469e-02 -4.98752668e-02 -2.99921185e-02
    3.28312181e-02 -1.70366280e-02 -6.57763658e-03 9.92405973e-03
    -1.44322086e-02 -1.75351137e-03 -6.04922958e-02 -6.71256185e-02
    -3.54226604e-02 2.78370716e-02 7.53440196e-03 2.70847377e-05
    -7.21415551e-03 1.11790868e-02 1.07124019e-02 -5.33522256e-02
    -1.09034814e-02 1.02508878e-02 1.88035462e-02 1.32610667e-02
    -2.89751701e-02 -9.51793604e-03 -3.84140527e-03 2.23927572e-02
    1.30567942e-02 2.37776041e-02 1.05297370e-02 -2.40020733e-02
    1.58421304e-02 9.04424861e-03 -1.61918011e-02 -2.91173309e-02
    -1.21071488e-02 -6.81293802e-03 -1.64292678e-02 1.23053687e-02
    1.14598880e-02 -1.29635865e-02 1.98032688e-02 -1.76855624e-02
    -8.94505344e-03 5.41097019e-03 -2.17062812e-02 3.05699259e-02
    4.55376087e-03 -5.44463620e-02 8.61976470e-04 5.21953814e-02
    -8.44363216e-03 -7.18241632e-02 -3.48891541e-02 1.58916656e-02
    2.20488273e-02 -3.33391987e-02 -1.24140233e-02 2.82504484e-02
    2.37157997e-02 2.55019125e-02 1.31970253e-02 9.46631841e-03
    -5.31212240e-03 1.04151797e-02 -2.20913831e-02 1.28334910e-02
    2.95069423e-02 -4.75946348e-04 1.00183217e-02 5.45766652e-02
    5.51756192e-03 -1.09084705e-02 3.24019045e-02 -1.66582223e-02
    -4.64459956e-02 1.73491780e-02 5.02643958e-02 3.01660877e-02
    -2.42230501e-02 -1.85066294e-02 2.91491556e-03 -1.92902144e-02
    -2.07430776e-03 5.43517210e-02 1.80860721e-02 5.94309671e-03
    5.60870580e-02 6.64994493e-02 -9.38567624e-04 -4.89854487e-03
    -4.89717675e-03 -9.87946428e-03 1.32498536e-02 -1.17798401e-02
    -3.35636698e-02 2.41515189e-02 3.22269052e-02 -6.98554050e-03
    -2.73767896e-02 2.58578118e-02 -3.09258956e-03 -2.30131652e-02
    -3.16080302e-02 5.47853038e-02 5.23143485e-02 2.14754380e-02
    2.04057829e-03 1.70571767e-02 -1.19938375e-02 2.35531796e-02
    9.56590101e-02 -2.80901212e-02 -3.11931428e-02 4.32357527e-02
    4.05304357e-02 -2.72712018e-02 -2.98107229e-02 8.41277011e-04
    8.19207449e-03 5.44543825e-02 -1.06111420e-02 4.21818048e-02
    6.72894865e-02 3.36626619e-02 4.09195293e-03 -1.16335265e-02
    -7.49347825e-03 -2.85716690e-02 -4.84874509e-02 -5.08996360e-02
    -5.52056953e-02 -6.00777892e-03 2.06762142e-02 3.67993563e-02
    3.22516337e-02 -4.89040203e-02 -3.90244485e-03 1.10759530e-02
    7.00138742e-04 -3.00296042e-02 3.74168553e-03 1.03851166e-02
    6.65948391e-02 9.76126455e-03 -2.65087723e-03 -1.28573831e-02
    -6.53405394e-03 -7.06857815e-02 -2.80778725e-02 -7.45566841e-03
    3.23331286e-03 3.97392847e-02 1.17899086e-02 -1.19279642e-02
    1.73632018e-02 2.04349961e-02 -4.41422835e-02 1.77202674e-04
    2.92772911e-02 1.40769547e-02 5.44110239e-02 3.75963375e-02
    -6.67436644e-02 1.37337167e-02 1.40951024e-02 -7.32600642e-03
    -1.46329207e-02 -1.76517572e-02 4.03923541e-03 3.61310653e-02
    -1.53101515e-02 -4.29255106e-02 3.47261014e-03 -5.16834483e-02
    1.22914072e-02 2.48192046e-02 -3.77195366e-02 6.91604149e-03
    7.42883747e-03 -1.79833136e-02 -4.97894809e-02 2.25736350e-02
    1.10731758e-02 -1.06796231e-02 -2.45611579e-03 3.29441018e-02
    4.10513356e-02 2.86762044e-02 4.60252678e-03 -5.06424531e-02
    -1.35894045e-02 -2.99605299e-02 -5.46960440e-03 1.88072827e-02
    1.03974901e-02 6.40641898e-02 -3.35162709e-04 7.91928265e-04
    -2.44186893e-02 1.79924108e-02 -2.41134074e-02 -3.86258215e-03
    -1.97473411e-02 -1.26620876e-02 1.45533285e-03 1.72294024e-02
    -3.24080922e-02 6.93581859e-03 2.55726632e-02 -4.87417169e-03
    4.29934226e-02 -3.52268778e-02 4.57091369e-02 1.73013825e-02
    3.04982383e-02 2.42336355e-02 -1.71337109e-02 -1.96920987e-03
    -1.21748922e-02 -1.55263799e-04 -2.17208769e-02 -9.05427057e-03
    5.74291833e-02 1.40233394e-02 -1.59581169e-03 1.16212619e-02
    -1.51757535e-03 -2.64542643e-02 5.71051873e-02 1.71988253e-02
    3.09451483e-02 3.66749913e-02 2.87774932e-02 -1.75631940e-02
    1.71912313e-02 -7.58030871e-03 -4.00530882e-02 -8.18248186e-03
    -5.68930432e-02 -5.24219917e-03 1.16893901e-02 3.83255258e-02
    3.48628908e-02 1.35991424e-02 -2.60238592e-02 -1.77438166e-02
    -2.58365343e-03 -2.12541334e-02 -1.15356231e-02 2.73204446e-02
    2.59181280e-02 6.48020804e-02 2.59615239e-02 1.03670303e-02
    -4.66067940e-02 2.55059935e-02 -4.91424017e-02 -3.84082347e-02
    -1.51152639e-02 -2.26928876e-03 -9.86651331e-03 3.57020758e-02
    1.39693739e-02 -4.94632451e-03 -3.87740647e-03 -7.72910146e-03
    8.49006884e-03 3.05909868e-02 7.37418653e-03 3.22554968e-02
    3.07442830e-03 -1.43945441e-02 -1.84421223e-02 -2.95407651e-03
    -1.70041714e-02 1.65474638e-02 1.63333938e-02 -1.55891255e-02
    8.33093468e-03 1.36699891e-02 3.23736318e-03 -1.89803932e-02
    -7.74405198e-03 -7.22037803e-04 5.76642202e-03 -1.31518152e-02
    -3.92641947e-02 -2.65542008e-02 1.61130838e-02 -1.53053878e-03
    1.03286821e-02 -2.39163302e-02 -2.65869871e-02 4.18892056e-02
    3.49853039e-02 -1.11541094e-03 8.57092813e-03 1.03280311e-02
    2.51598004e-03 -1.47605287e-02 -2.16042772e-02 1.15158893e-02
    3.53429914e-02 9.73277260e-03 -2.09571868e-02 1.18033420e-02
    2.66914833e-02 8.33524950e-03 1.34118097e-02 8.28085002e-03
    1.34987328e-02 -3.67819914e-03 -2.47420389e-02 -2.55339500e-02
    1.18685057e-02 2.73082242e-03 -2.89439373e-02 -1.40204765e-02
    -6.30958844e-03 -7.64472689e-03 -1.84541512e-02 -1.91686749e-02
    -1.96275394e-02 4.41452162e-03 2.58926619e-02 3.02251074e-02
    1.30596235e-02 9.39139072e-03 9.54991486e-03 2.60058008e-02
    8.94094072e-03 -9.04513616e-03 4.16240841e-02 1.28611445e-03
    1.65092479e-02 8.17428902e-03 1.68704949e-02 -2.88532078e-02
    -2.18623262e-02 7.94405024e-03 -1.97098218e-02 -1.05372285e-02
    -1.65371764e-02 -3.37085724e-02 1.78076364e-02 -5.11900801e-03
    -2.57433448e-02 -6.03911933e-03 -4.19931486e-03 4.15938033e-04
    1.03813512e-02 -8.83941445e-03 -2.72998549e-02 -1.38316676e-02
    1.44304130e-02 5.83731569e-02 -1.04738958e-03 -2.86452752e-02
    -3.53430794e-03 -2.13883747e-03 1.46798082e-02 2.52809245e-02
    4.40307036e-02 2.30532158e-02 -5.87980561e-02 -3.05746123e-02
    -6.29012939e-04 3.08659440e-03 -1.46545167e-03 -1.51125935e-03
    -1.34149250e-02 9.86870099e-03 2.68761124e-02 6.03516027e-03
    -2.51717046e-02 -9.48440563e-03 1.82665058e-03 6.41139671e-02
    1.02957878e-02 2.29620803e-02 -8.68524797e-03 -3.00680324e-02
    4.51249443e-02 -9.64040664e-05 -2.33953749e-03 2.79330350e-02
    1.52637074e-02 8.69729847e-04 -3.72612849e-04 -2.67986823e-02
    -4.88408729e-02 -1.71127841e-02 -4.77022082e-02 -3.20800096e-02
    1.15195895e-02 1.27641093e-02 2.84295883e-02 9.96798556e-03
    -5.47711924e-03 7.69156264e-03 1.50493439e-02 -1.93870217e-02
    -4.69608093e-03 2.68932804e-02 5.55370897e-02 -1.73452850e-02
    1.69568527e-02 3.99766676e-03 -2.49595586e-02 7.89557397e-03
    -3.56740132e-02 -4.69996892e-02 -3.00489385e-02 -1.42132938e-02
    2.07887180e-02 -4.02351469e-03 9.92955826e-03 2.58786771e-02
    2.34663673e-03 -4.80401423e-03 -1.02790855e-02 1.17277885e-02
    3.44772860e-02 1.58214588e-02 7.12700980e-03 1.39357448e-02
    -1.32122012e-02 -4.86737490e-02 -3.28556709e-02 -4.28154552e-03
    7.07510253e-03 3.47601785e-03 5.52698178e-03 -3.38908430e-04
    1.45574911e-02 1.00637339e-02 1.26686292e-02 2.50976142e-02
    -5.23759658e-03 2.17213877e-03 2.77352594e-02 -2.11812910e-02
    -1.30601944e-02 -8.89762025e-03 -4.45964821e-02 -6.43660054e-02
    -1.19172325e-02 -5.88234002e-03 1.88049674e-02 6.17134478e-03
    -2.21781246e-02 9.11608804e-03 2.61278879e-02 -5.00260899e-03
    -3.64141874e-02 -2.83976346e-02 1.43416319e-02 2.78613549e-02
    -1.95751246e-02 -1.30973449e-02 -2.10168352e-03 4.89852354e-02
    3.72853056e-02 -3.47905345e-02 2.60611810e-02 2.41120569e-02
    3.59587669e-02 -1.64610555e-03 -2.80909836e-02 -1.28637962e-02
    2.66846139e-02 2.91744452e-02 -1.62638370e-02 -1.92604843e-03
    2.02387124e-02 1.53180975e-02 -2.08308194e-02 -1.73805899e-03
    -2.31694393e-02 1.89574645e-03 2.53318697e-02 -3.65436412e-02
    2.00617369e-02 -2.76242592e-03 -1.76964048e-02 -3.62488255e-02
    -3.47627583e-03 6.10563485e-03 4.84004468e-02 3.86829525e-02
    -4.53115217e-02 1.68628003e-02 -4.50848229e-03 2.06580455e-03
    6.58796728e-03 -1.05378730e-02 4.73409705e-03 3.51718930e-03
    -3.97051014e-02 -3.99459228e-02 9.77005623e-03 5.01176249e-03
    1.24331375e-04 -3.24896611e-02 4.09168415e-02 -8.00603942e-04
    1.34079754e-02 -2.88747274e-03 -3.96580175e-02 3.03643290e-02
    8.80480569e-04 -1.38130998e-02 -2.00453661e-02 4.74274941e-02
    2.48386897e-02 2.48868624e-03 -6.34847507e-02 -2.33400203e-02
    1.92289278e-02 -2.02007815e-02 -1.28674526e-02 -2.60461606e-02
    -2.18394976e-02 -1.27794128e-02 -3.87120666e-03 -2.35756487e-02
    6.25585625e-03 7.87377078e-03 3.54759768e-02 2.92618871e-02
    -3.98313627e-02 -3.23268995e-02 1.44040305e-02 4.33305912e-02
    -6.13410585e-03 5.35572879e-03 3.61231226e-03 5.23152947e-02
    2.46684253e-02 -4.57880460e-02 -5.47411405e-02 3.16989534e-02
    2.16026455e-02 -1.94513910e-02 1.08104646e-02 2.12803278e-02
    1.67103093e-02 -6.14235038e-03 -7.55930543e-02 -6.68331534e-02
    3.17917503e-02 1.46207036e-02 7.04588415e-03 -1.28499689e-02
    -2.41340008e-02 2.20392626e-02 5.95976040e-03 -9.43766311e-02
    -6.62789633e-03 7.93756917e-03 -2.01868601e-02 -2.12188810e-02
    1.64156146e-02 -2.68251281e-02 8.93271435e-03 2.56696735e-02
    1.26152241e-03 2.74646021e-02 5.39564528e-03 -7.04014078e-02
    -2.37813443e-02 1.69651192e-02 -1.67442579e-02 -5.24254404e-02
    -1.42808410e-03 1.53882699e-02 3.46700265e-03 1.36060352e-02
    -1.57177504e-02 2.69012116e-02 -9.32317879e-03 -2.78041437e-02
    -3.35524492e-02 2.38101594e-02 -2.02963855e-02 2.66618244e-02
    -1.74748991e-02 -3.84199880e-02 1.76756531e-02 2.14889459e-03
    -2.89624240e-02 -6.61393255e-02 -4.12266888e-03 1.80015713e-02
    2.66211596e-03 -2.63329130e-02 -6.86088949e-02 -2.03716736e-02
    3.64341661e-02 4.32358980e-02 3.22257238e-03 -3.96959670e-03
    -5.54763991e-03 1.03708068e-02 -9.33896750e-03 1.65278725e-02
    2.61516008e-03 3.20332535e-02 5.71615845e-02 4.36427221e-02
    -1.71842817e-02 8.63641966e-03 1.41092818e-02 -4.97921295e-02
    -5.25222979e-02 5.46807377e-03 8.22226144e-03 3.03450506e-02
    6.75768498e-03 3.23012960e-03 2.37764679e-02 1.96156725e-02
    -6.34074397e-03 3.03706862e-02 7.59756342e-02 7.56618604e-02
    3.78718786e-02 4.20627408e-02 3.47181782e-03 2.47686077e-02
    -2.57846955e-02 -2.13677157e-02 3.23790275e-02 -2.83296946e-02
    -1.23355221e-02 2.09511351e-02 2.73928791e-02 -4.19093743e-02
    -3.14945355e-02 -1.28102098e-02 -3.68556415e-04 1.64374877e-02
    -1.60556962e-03 3.48533764e-02 2.24685892e-02 5.07836081e-02
    -1.03570055e-03 1.22393351e-02 -1.93994702e-03 1.25304963e-02
    6.50958121e-02 9.17885527e-02 8.26866180e-02 -5.11746854e-03
    -2.68928837e-02 -7.39964694e-02 -3.19468006e-02 1.52094094e-02
    1.05085026e-03 4.76215929e-02 6.03440963e-02 4.81765121e-02
    7.06260186e-03 1.83742102e-02 -6.38656667e-04 1.15829492e-02
    -1.38446502e-03 6.58626342e-03 -1.97669789e-02 -6.42039180e-02
    -5.76749332e-02 -1.96051802e-02 2.52458025e-02 4.00215387e-02
    4.31825779e-02 -7.11549772e-03 2.51408201e-02 -1.58220548e-02
    -3.74376513e-02 -3.31269912e-02 -2.61210604e-03 -1.45330233e-02
    -6.07115566e-04 1.49175217e-02 3.10272779e-02 3.70626785e-02
    -1.46114212e-02 -4.46496382e-02 -8.77440497e-02 -2.79571190e-02
    3.34296003e-02 4.88227680e-02 4.75957543e-02 2.22504698e-02
    4.40127924e-02 1.54405395e-02 -1.95422042e-02 -7.41253048e-02
    -2.45253346e-03 2.47935113e-02 -2.69563636e-03 6.37280149e-03
    -3.02381013e-02 3.27309780e-02 1.22729782e-02 -1.00103477e-02
    -2.04674378e-02 -3.29113659e-03 1.58292111e-02 -4.61838627e-03
    1.21684643e-02 -1.03508006e-03 9.11722891e-03 1.30807675e-04
    -2.76725157e-03 -1.86174717e-02 2.56782658e-02 5.53708486e-02
    6.22911146e-03 3.39044514e-03 -2.11050585e-02 3.07233930e-02
    2.47161672e-03 5.13100484e-03 -3.28646488e-02 9.14511838e-05
    2.31412575e-02 2.19327044e-02 6.55387389e-03 -9.31900647e-03
    2.60639265e-02 1.28294639e-02 -2.90746451e-03 -2.55952198e-02
    1.08059291e-02 1.99134201e-02 8.04877747e-03 1.48774451e-02
    1.63070839e-02 -1.41161475e-02 -1.10549722e-02 -1.26589206e-03
    -1.23350713e-02 3.18621378e-03 5.09406365e-02 3.53627242e-02
    2.89582629e-02 1.52162751e-02 -1.39649808e-02 -3.74344140e-02
    2.14441512e-02 1.92562398e-03 1.20073138e-02 2.80943271e-02
    7.09579512e-02 7.45449681e-03 -6.53093169e-03 -1.02408696e-03
    -6.11674646e-03 -5.93033712e-03 -2.53319591e-02 1.27415964e-02
    3.20032500e-02 2.95398477e-02 2.05505593e-03 9.15807113e-03
    1.65060386e-02 -4.32886146e-02 2.13788263e-02 1.55034848e-02
    3.81640606e-02 2.55366042e-02 3.75948697e-02 -7.51698669e-03
    1.82095561e-02 1.09813670e-02 -4.86895740e-02 2.72910167e-02
    -2.90351212e-02 -1.71114672e-02 -3.32755293e-03 2.58483272e-02
    2.31768508e-02 3.14537883e-02 -6.74305297e-03 -1.56797003e-02
    1.00164162e-02 9.86131281e-03 1.32476082e-02 9.88751557e-03
    -3.14146886e-03 1.58208460e-02 5.16706845e-03 6.80280942e-03
    -5.92379086e-02 2.77848961e-03 -1.10220760e-02 1.92956184e-03
    -7.14621448e-04 3.81783694e-02 2.40743086e-02 2.96452213e-02
    -2.52163690e-03 -2.65404452e-02 3.04741878e-03 1.86740402e-02
    2.65137441e-02 1.73345525e-02 2.47014482e-02 2.02055927e-02
    1.80705190e-02 -3.75817157e-02 -5.96633181e-03 -8.91565462e-04
    -1.02354707e-02 1.53584220e-02 4.43449803e-02 1.34916103e-03
    9.05152410e-03 7.25256233e-03 -3.34921293e-02 -3.46256532e-02
    6.35930803e-03 2.90894378e-02 3.52407768e-02 3.80101129e-02
    -1.90368090e-02 3.80856544e-03 -1.60915297e-04 -2.29504500e-02
    -1.42516606e-02 9.27813351e-03 7.91435130e-03 -6.42948225e-03
    2.25774758e-02 1.90172624e-02 -5.62380347e-03 -3.55182439e-02
    -5.97619601e-02 -3.46186273e-02 1.86393224e-02 6.14084769e-03
    2.52942313e-02 6.27639471e-03 -4.47020568e-02 -3.52975652e-02
    3.12082516e-03 -9.30786319e-03 -3.03219800e-04 -2.33687777e-02
    -2.53800936e-02 2.55675074e-02 2.48293988e-02 1.14720585e-02
    3.25125717e-02 6.08056830e-03 3.16252862e-03 -4.44342662e-03
    2.35268325e-02 1.03261461e-03 -1.85721517e-02 1.41318692e-02
    -2.82616764e-02 -7.75819761e-04 -1.37723498e-02 -1.67030431e-02
    -2.16444656e-02 -2.24678703e-02 -2.62817051e-02 3.75361107e-02
    2.48745438e-02 -3.04860286e-02 6.87805563e-03 -2.09544948e-03
    -2.11409722e-02 -6.71584830e-02 1.71563420e-02 8.41922592e-03
    -7.38768140e-03 -1.28651587e-02 -4.30461243e-02 3.54880001e-03
    1.33171640e-02 1.16198882e-02 2.17023809e-02 6.77017774e-03
    -5.31120133e-03 -2.06387527e-02 2.41058711e-02 1.32042496e-02
    1.70132965e-02 -3.83993350e-02 -5.32096811e-02 1.66798104e-02
    6.74311630e-03 5.04094325e-02 -1.28048277e-02 -1.03171384e-02
    1.45004513e-02 1.09909568e-02 4.24806587e-02 -2.65458506e-02
    -5.16129360e-02 2.50949292e-03 2.79260352e-02 -8.36678408e-03
    -9.60021466e-03 -3.05901337e-02 2.60489378e-02 3.83521477e-03
    -6.48615137e-02 -2.43912358e-02 -2.86619198e-02 4.48256470e-02
    -2.50191186e-02 -3.29697020e-02 -3.41610052e-02 1.27828382e-02
    3.17430799e-03 -2.06117462e-02 6.41240831e-03 5.12521109e-03
    1.77497175e-02 -4.93666828e-02 -5.07275239e-02 1.72496848e-02
    3.45617048e-02 -2.08264366e-02 -7.40587339e-03 4.68736095e-03
    -2.68876227e-03 2.26170123e-02 -3.66283134e-02 -5.52481301e-02
    -1.88169889e-02 -1.82441100e-02 3.20635475e-02 5.39318705e-03
    1.68744307e-02 -2.50804778e-02 -3.26178893e-02 -6.22470900e-02
    -6.61757886e-02 -1.28667569e-03 5.14180064e-02 1.36134699e-02
    -8.55508074e-03 8.79734010e-03 -1.20610232e-02 -3.34784798e-02
    -5.39137684e-02 -5.56089506e-02 8.39794893e-03 1.40642431e-02
    1.08404960e-02 -4.08121245e-03 3.69775631e-02 1.07792858e-02
    5.46798408e-02 2.01239381e-02 -1.83100905e-02 -3.29129677e-03
    1.39534315e-02 -8.87509808e-03 -3.54474178e-04 -5.30163851e-03
    -5.48300669e-02 -3.86885069e-02 -7.50634400e-03 -3.49246562e-02
    -2.40421966e-02 -1.11232726e-02 2.72348393e-02 -2.19856165e-02
    4.52810526e-02 1.47482976e-02 1.15966620e-02 2.66018184e-03
    -2.78802644e-02 2.52970699e-02 4.84080240e-02 -1.56014897e-02
    -4.84519005e-02 -1.85002033e-02 -3.92632708e-02 -2.72883046e-02
    7.11824745e-03 -2.67536659e-02 3.16958711e-03 2.17215586e-02
    -4.73321695e-03 1.39352065e-02 1.28145050e-03 -2.00030282e-02
    2.56012217e-03 -8.43730103e-03 -3.45962122e-02 -3.55208516e-02
    -1.78780090e-02 1.59348929e-04 1.37370592e-02 2.84130648e-02
    3.22112851e-02 -2.22308282e-02 5.11284685e-03 -1.72988325e-02
    -3.76940854e-02 -3.26701775e-02 4.41050110e-03 -5.10885054e-03
    9.73178819e-03 -1.15948319e-02 8.14844912e-04 1.08138239e-02
    -1.59699041e-02 -9.14374739e-03 5.21180080e-03 8.72010656e-04
    1.08706029e-02 7.59094115e-03 1.05792908e-02 -5.63063957e-02
    -2.19051931e-02 -3.30060087e-02 -4.07787710e-02 -2.38933973e-02
    2.90842280e-02 2.70738602e-02 1.08906664e-02 -1.21441055e-02
    -2.00169198e-02 7.68690277e-03 -2.61175316e-02 -5.73706180e-02
    -3.65308225e-02 2.89134998e-02 3.33176330e-02 8.26959126e-03
    -2.53020376e-02 -2.61004511e-02 5.98781463e-03 -2.38440447e-02
    -4.18743789e-02 -3.78711745e-02 -3.75719927e-03 1.71496794e-02
    5.33357356e-03 -1.80110652e-02 -2.33718958e-02 2.88251992e-02
    -1.69245712e-02 -5.82611561e-02 -3.77493426e-02 2.68528815e-02
    4.04843874e-02 2.62935385e-02 -1.63737331e-02 -1.95637103e-02
    2.86545884e-02 -9.16118268e-03 -1.63918734e-02 -1.56107750e-02
    -3.98989022e-02 2.08640657e-02 1.23774679e-02 -8.10411666e-03
    7.17809703e-03 3.63741256e-02 2.74166167e-02 1.39668491e-02
    -6.11868277e-02 -2.06390675e-02 3.66728753e-02 2.08082292e-02
    6.66636741e-03 -2.07996257e-02 -1.37344487e-02 2.93398499e-02
    3.86210941e-02 -1.70728676e-02 -4.86069620e-02 -2.64422465e-02
    1.72261856e-02 2.60939635e-02 3.03297434e-02 3.48480903e-02
    4.53755148e-02 2.21380917e-03 -6.95215985e-02 -2.10955814e-02
    4.09476981e-02 4.70944904e-02 3.94376963e-02 -2.66963169e-02
    -3.14527676e-02 -2.28056870e-03 -9.29278415e-03 -4.24412265e-02
    1.05769644e-02 2.61505041e-02 -1.03568770e-02 -6.34046784e-03
    -4.12777299e-03 -2.35054921e-02 -1.25852535e-02 -4.24696691e-03
    -9.06152464e-03 3.51914875e-02 -1.01923812e-02 -3.15070413e-02
    1.10901278e-02 1.24600446e-02 2.93803979e-02 -2.81049814e-02
    -5.01589254e-02 2.66159624e-02 4.81706462e-04 2.24081166e-02
    1.75291356e-02 -1.24942902e-02 -4.76654284e-02 -4.01158333e-02
    -6.23058043e-02 -4.19000201e-02 -1.35472873e-02 3.40886489e-02
    -1.44131330e-03 1.53586604e-02 5.74150346e-02 -1.08027803e-02
    2.45676201e-04 -2.35552490e-02 -4.21621986e-02 3.75685375e-03
    1.48999924e-02 -5.05360737e-02 -4.70150188e-02 8.01857095e-03
    -2.19382774e-02 3.06660049e-02 7.11545534e-03 -2.37838998e-02
    2.58900840e-02 2.99245510e-02 -3.16378810e-02 2.18632780e-02
    4.68196534e-02 4.48540272e-03 -5.07122232e-03 3.53260264e-02
    1.87108684e-02 5.52040748e-02 5.83806261e-02 -1.04585402e-02
    4.17559259e-02 5.73504157e-02 -3.11997515e-04 9.84368753e-03
    7.88673479e-03 -8.58057383e-03 7.31062330e-03 2.54627783e-02
    -7.62009015e-03 7.83271566e-02 6.61983863e-02 2.82463208e-02
    -3.39669641e-03 1.01995757e-02 1.90786482e-03 3.98663953e-02
    -4.73202672e-03 -2.33362224e-02 2.68161409e-02 2.73763537e-02
    9.67395771e-03 2.07912526e-03 6.02248218e-03 -1.93800647e-02
    4.00185324e-02 2.23500910e-03 -3.17004807e-02 9.63547174e-03
    3.49808000e-02 2.61366442e-02 2.30911691e-02 5.56385471e-03
    1.14863040e-02 2.84881927e-02 -2.18205433e-02 -3.74683901e-03
    4.46503311e-02 2.78744400e-02 3.13470438e-02 4.94925957e-03
    -2.35001240e-02 -6.28911927e-02 -2.13542618e-02 1.50126470e-02
    4.29784954e-02 6.58646375e-02 6.63000047e-02 7.42397159e-02
    3.81154828e-02 6.74207648e-03 -1.36399446e-02 -2.76430193e-02
    1.71039160e-02 6.82906993e-03 -2.27255262e-02 -2.89903171e-02
    -4.17586863e-02 2.27735806e-02 3.13136540e-02 3.70329544e-02
    4.08145525e-02 4.82904492e-03 3.59729566e-02 -2.34615970e-02
    -2.27459911e-02 -2.02691182e-02 1.44854672e-02 3.08373738e-02
    4.06610928e-02 1.06633063e-02 2.81045530e-02 6.16992079e-02
    3.35143739e-03 -3.47883761e-04 -3.22994441e-02 -1.27919549e-02
    4.13503032e-03 2.12240517e-02 8.68281163e-03 3.76379490e-02
    6.44835383e-02 -1.34388348e-02 -1.25151351e-02 -5.96820600e-02
    -1.36266006e-02 -2.02854932e-03 1.39184259e-02 -9.19244718e-03
    -4.45762202e-02 -1.75785962e-02 -2.55484991e-02 -1.48118492e-02
    1.03613250e-02 2.59665810e-02 3.25989425e-02 4.43424992e-02
    -1.45991081e-02 -1.87604092e-02 -5.38800750e-03 -1.47812376e-02
    -2.14351937e-02 -1.61180031e-02 3.03158467e-03 2.14039255e-02
    4.45868783e-02 -1.20885922e-02 2.54191784e-03 4.69093025e-02
    1.64398123e-02 1.14779752e-02 -1.02917282e-02 6.32620323e-03
    1.24876574e-02 -1.12084989e-02 -2.51212697e-02 -1.36161773e-02
    2.54206602e-02 1.45348813e-02 -1.56797655e-02 3.64306197e-02
    2.49900166e-02 3.40270884e-02 2.01048935e-03 -4.41955440e-02
    -2.34427284e-02 -9.89744253e-03 -1.42945955e-02 4.88552265e-03
    1.55031681e-02 3.43764499e-02 2.21014284e-02 5.17204069e-02
    -7.67975766e-03 1.88304838e-02 2.39616968e-02 -3.06576975e-02
    1.77459549e-02 2.60276403e-02 4.29044403e-02 3.00332718e-02
    3.06141824e-02 -5.71631943e-04 -1.60516743e-02 1.10979956e-02
    3.04975687e-03 -2.74783205e-02 2.94270609e-02 4.02928852e-02
    4.97602038e-02 2.19437908e-02 -1.78653784e-02 1.24160666e-02
    -3.07957223e-03 -5.35815395e-03 4.07048427e-02 1.85316615e-03
    2.54714172e-02 1.40787503e-02 7.96390474e-02 -4.84394189e-03
    1.06556537e-02 1.17155742e-02 -4.50751372e-02 -4.48331004e-03
    2.69494113e-03 -1.87476445e-02 -9.47324000e-03 5.01080602e-02
    4.16557193e-02 1.74131226e-02 1.29100808e-03 -2.75328886e-02
    -2.43013818e-02 3.36398333e-02 4.07303087e-02 1.21357050e-02
    3.16359438e-02 2.23695822e-02 -2.17797793e-02 5.60300006e-03
    -3.31403874e-02 8.64778925e-03 4.55443049e-04 1.12726237e-03
    -2.35583894e-02 7.08289519e-02 2.96915472e-02 1.25734287e-03
    1.09079788e-02 -1.75789613e-02 1.59499445e-03 2.40473058e-02
    8.00580718e-03 -2.37500239e-02 4.07999605e-02 1.06082382e-02
    9.56240017e-03 2.67507192e-02 2.73023006e-02 1.21328281e-03
    3.91705446e-02 1.48104839e-02 1.52085992e-02 2.38403920e-02
    2.36834195e-02 -3.50336614e-03 -1.20021077e-02 1.92064922e-02
    -1.14401793e-02 1.64603796e-02 1.40274996e-02 -2.35994700e-02
    -3.59159820e-02 -1.72869377e-02 -3.84902116e-04 6.78871339e-03
    -2.79425960e-02 -2.95361225e-02 2.00865250e-02 5.82132768e-03
    -2.55494844e-02 2.38960274e-02 1.62074994e-02 6.90111099e-03
    -2.27386672e-02 -2.51694024e-02 -4.98844571e-02 -1.35653105e-03
    1.59941819e-02 -3.60924198e-04 -1.79576222e-02 5.47205471e-03
    1.20235635e-02 8.26182682e-03 1.57518461e-02 -3.89721580e-02
    -1.28375050e-02 3.56407873e-02 1.19815916e-02 -4.06544469e-02
    2.84042116e-03 4.63174935e-03 -1.57684460e-02 -2.66983695e-02
    -4.25748667e-03 1.22368364e-02 -8.62294715e-03 -1.83271989e-02
    -6.45895526e-02 -1.00836232e-02 1.77519228e-02 1.68082081e-02
    1.60903241e-02 -2.16753110e-02 -1.98988076e-02 8.42987001e-02
    1.40984859e-02 -2.22413018e-02 1.49063868e-02 -4.89531830e-03
    -2.05356209e-03 1.15824193e-02 2.00633835e-02 3.98639813e-02
    1.31938225e-02 6.95703039e-03 -3.58035155e-02 -2.05254322e-03
    5.65634444e-02 -1.97128188e-02 -1.52057707e-02 2.34788265e-02
    3.74641903e-02 -2.95804609e-02 -2.18963008e-02 -4.51734811e-02
    5.33028468e-02 2.01408379e-02 -4.17320430e-02 8.39019078e-04
    7.80894700e-03 6.77218214e-02 -4.32179905e-02 -6.84662908e-03
    -4.33232896e-02 2.11690757e-02 4.90201451e-02 6.80154841e-03
    2.01299824e-02 3.02001741e-02 7.84003809e-02 -1.54637080e-02
    -3.07338946e-02 -6.66204840e-02 4.12160605e-02 4.62060012e-02
    -1.59970578e-02 2.18168534e-02 1.19692925e-02 3.03229056e-02
    -5.61909154e-02 -4.86208051e-02 -6.13371953e-02 3.84850912e-02
    3.28084528e-02 -1.26137063e-02 9.99653339e-03 -6.61257841e-03
    -7.86922034e-03 -7.18256086e-02 -3.07277180e-02 -1.91496294e-02
    2.03010999e-02 1.81914736e-02 -8.77138693e-03 6.84643118e-03
    -2.98856031e-02 -8.68589990e-03 -4.56107929e-02 -1.97127499e-02
    -4.36575804e-03 1.14221117e-02 2.36779172e-02 -5.98896644e-04
    5.02669476e-02 2.58595496e-02 -1.07437186e-03 -3.77045907e-02
    -3.81147601e-02 -1.52075086e-02 1.44675272e-02 -1.13091953e-02
    2.01407000e-02 1.50741069e-02 -1.87261291e-02 -6.97200187e-03
    -1.24771670e-02 -3.81039046e-02 -1.64975356e-02 -1.70207582e-02
    4.20167260e-02 1.18144322e-02 2.94272956e-02 -3.10883243e-02
    1.95061846e-03 -2.66661793e-02 1.83237868e-03 3.99666503e-02
    4.67421040e-02 -6.01608865e-03 -1.10586900e-02 8.01835861e-03
    -5.34460470e-02 -8.87689814e-02 -3.97451259e-02 1.90453250e-02
    2.44484320e-02 7.90358521e-03 1.10656861e-02 2.23912764e-02
    8.53575766e-03 -3.16487327e-02 -5.85860014e-03 -2.03742832e-03
    -2.17299331e-02 -1.08672418e-02 5.53291896e-03 -1.46851344e-02
    1.91255833e-03 -7.81653915e-03 -6.03003278e-02 -4.71999124e-02
    -5.84532022e-02 -1.39446389e-02 -1.49866799e-02 6.08725287e-03
    -8.03912431e-03 -1.91799589e-02 5.09815179e-02 -1.04613872e-02
    -4.23523411e-02 -1.43458201e-02 -2.02815272e-02 -1.01474710e-02
    7.83663336e-03 2.49873362e-02 -2.52068732e-02 5.94417681e-04
    -1.24435388e-02 -5.18471375e-02 -5.30124456e-02 -4.46229875e-02
    -2.81728134e-02 1.24610392e-02 1.82416681e-02 1.21872127e-02
    1.21377017e-02 -7.30400847e-04 -3.99217308e-02 1.05946362e-02
    -5.00677293e-03 -1.79838203e-02 -2.63813883e-04 4.55003679e-02
    -1.40727712e-02 -4.93512431e-04 2.12347880e-03 -3.56481448e-02
    -2.23735366e-02 -3.90572883e-02 -3.23622003e-02 9.58180893e-03
    1.46844154e-02 1.09061813e-02 3.14763114e-02 5.30463271e-03
    -5.09832874e-02 -1.37345269e-02 -3.18613425e-02 -4.69623022e-02
    -3.86293754e-02 1.58051681e-02 1.56766418e-02 1.03279501e-02
    -1.57995094e-02 -3.43201347e-02 6.09223768e-02 -4.27909894e-03
    -1.69192981e-02 -3.41511257e-02 1.74080338e-02 -1.39272679e-02
    2.89857294e-02 3.75923440e-02 -5.75686544e-02 -1.06923571e-02
    -3.94584564e-03 -1.92873329e-02 -2.08118185e-02 -9.78310406e-03
    1.83622222e-02 1.23289712e-02 4.65118140e-02 2.59621767e-03
    6.71902671e-02 -4.64405835e-04 -3.41873579e-02 -9.28636920e-03
    -3.37859094e-02 -4.79678363e-02 -6.48088055e-03 -1.19664404e-03
    3.60900685e-02 2.80302130e-02 6.59556314e-02 9.15900711e-03
    -4.59899902e-02 -1.67326983e-02 1.67870652e-02 5.41393459e-02
    7.20224285e-04 -6.63063442e-03 -8.99809599e-03 3.91693749e-02
    1.47014195e-02 -2.43792795e-02 -1.53916180e-02 -2.51019970e-02
    -3.77409789e-03 -2.85937618e-02 -2.10470427e-02 5.48272440e-03
    2.46436037e-02 -4.71454524e-02 -3.79113182e-02 -2.03031413e-02
    4.18604650e-02 5.31627201e-02 -7.20318407e-03 -1.25429537e-02
    2.33545457e-03 8.66707228e-03 -4.54368778e-02 -6.20405860e-02
    -2.33547366e-03 1.53757129e-02 2.24096403e-02 -1.60503164e-02
    -4.02209684e-02 -7.14043602e-02 -3.47849876e-02 -2.06672866e-02
    -4.53022774e-03 4.00140397e-02 -2.19309311e-02 1.81751233e-02
    4.69572395e-02 2.44520651e-03 -2.39414033e-02 -2.59756818e-02
    -3.46631184e-02 1.51791349e-02 -6.19693846e-03 -1.11767976e-02
    1.92876216e-02 7.48968311e-03 -4.85306047e-02 -1.85826421e-02
    -8.67774885e-04 -1.02852667e-02 -2.92004757e-02 4.71637025e-02
    -2.45875940e-02 -6.15386851e-03 2.00558882e-02 -6.03677100e-03
    -2.55118627e-02 -1.36348950e-02 -2.46045571e-02 1.64463799e-02
    4.40717749e-02 -4.45690826e-02 -7.35839736e-03 -7.32614659e-03
    -1.04239108e-02 2.33534109e-02 2.45449319e-02 -9.47213825e-03
    3.29442546e-02 3.17079462e-02 -4.73709032e-02 2.62472462e-02
    8.67148582e-03 9.63913091e-03 -1.06924986e-02 1.62141211e-02
    6.78618765e-03 3.20543796e-02 6.57024160e-02 -3.73547990e-03
    -7.11550657e-03 -3.75030702e-03 6.68579666e-03 2.67586987e-02
    -1.45300440e-02 -1.52334329e-02 2.93347482e-02 2.54821628e-02
    3.87243810e-03 6.56764582e-02 3.40649933e-02 3.11934743e-02
    1.88809913e-03 1.71351321e-02 1.07785324e-02 1.23747671e-02
    5.70955127e-03 -1.92978105e-03 1.61209423e-02 9.94904619e-03
    -8.66863597e-03 -3.70909530e-03 -1.15734618e-02 -2.30930392e-02
    1.78083293e-02 -4.39375825e-03 2.12346818e-02 8.53294600e-03
    2.82432046e-02 4.27009277e-02 2.50474215e-02 1.49296988e-02
    3.58809577e-03 1.19705405e-02 2.33988408e-02 -8.71105213e-03
    5.04482426e-02 6.82464689e-02 -9.94338072e-04 -3.78666893e-02
    -3.92396338e-02 -2.88012177e-02 1.44189512e-02 -1.64095487e-03
    -2.62932535e-02 2.52137310e-03 6.86616376e-02 1.69885736e-02
    2.80480068e-02 -1.45263346e-02 -2.97270734e-02 2.61268467e-02
    9.11606569e-03 2.48047989e-02 -2.64196680e-03 5.23019535e-03
    -5.48056839e-03 8.59275926e-03 3.63376364e-02 6.77836239e-02
    3.49998362e-02 -7.78624928e-03 4.98879235e-03 -6.04816130e-04
    5.48439845e-03 -5.81651442e-02 -2.54914854e-02 2.83307489e-02
    1.90324057e-02 5.02475537e-03 1.12114633e-02 2.73411651e-03
    -1.09291291e-02 1.09224226e-02 1.16233369e-02 2.03817021e-02
    5.06352521e-02 5.86938038e-02 3.82517017e-02 1.70892011e-03
    1.29238684e-02 -2.59651598e-02 -5.97702246e-03 -2.92077344e-02
    -4.36892360e-02 8.62565823e-03 -3.21146548e-02 -3.99051048e-02
    -7.38265878e-03 1.96318198e-02 1.56604648e-02 4.26026806e-02
    -3.60059203e-03 -1.46078635e-02 2.56476291e-02 -2.11402727e-03
    -1.81423407e-02 2.96640582e-02 3.84044945e-02 5.55106904e-03
    -1.16354285e-03 2.99255494e-02 -3.10958945e-03 5.03371395e-02
    5.44989258e-02 1.17245025e-03 -1.42740430e-02 1.18573876e-02
    -2.81375484e-03 2.77328063e-02 -3.50552052e-02 -8.33544135e-02
    -3.91344987e-02 -5.88555597e-02 -6.33066893e-02 -1.03282770e-02
    -1.05588678e-02 -1.32124750e-02 -1.74690951e-02 -8.51168856e-03
    -1.44642834e-02 1.76344661e-03 1.55597960e-03 -3.99222858e-02
    1.47521738e-02 4.49293926e-02 -3.05463630e-03 -3.81895937e-02
    7.88415223e-03 -9.04068258e-03 3.36357020e-02 5.61894998e-02
    1.38970907e-03 3.66059737e-03 -4.91698831e-03 -2.18477231e-02
    1.47716254e-02 -7.84098916e-03 2.12921090e-02 3.20821889e-02
    7.38810748e-02 3.64747341e-03 2.17297740e-04 -1.42902602e-02
    -1.27398707e-02 -4.60901298e-02 -2.94955191e-03 -1.57675352e-02
    -3.17881964e-02 1.54245123e-02 -3.46846692e-02 -3.89965065e-03
    -2.09324490e-02 -1.16687908e-03 -3.24595012e-02 -1.73320342e-02
    -2.19707508e-02 -9.28833243e-03 1.93109661e-02 -2.00187080e-02
    -2.19137818e-02 -1.82964926e-04 -7.97190517e-03 2.94484776e-02
    3.08802426e-02 2.92933416e-02 1.36831740e-03 7.02657402e-02
    2.00967882e-02 1.56537630e-02 2.44934782e-02 -3.63549241e-03
    3.35538648e-02 2.81219669e-02 2.55946349e-03 -2.95328852e-02
    3.27260233e-02 2.84789894e-02 1.61196161e-02 4.41273488e-03
    -1.24664567e-02 -2.65253522e-02 7.86636607e-04 4.11894359e-03
    -1.68786589e-02 9.29532200e-03 2.48699971e-02 2.46714931e-02
    -1.60546657e-02 -4.05216441e-02 1.95914693e-03 2.83450522e-02
    -9.50203091e-03 -2.97493506e-02 1.63517576e-02 2.09211763e-02
    -8.68589059e-03 1.90969538e-02 -1.95835140e-02 -7.75475800e-03
    -6.67240191e-03 -4.26517706e-03 -1.32241091e-02 4.20391336e-02
    6.34478452e-03 1.03797321e-03 -1.36760175e-02 -1.69862192e-02
    -3.97011191e-02 6.15935866e-03 1.85562745e-02 2.39210073e-02
    2.11374126e-02 4.22432721e-02 1.00073153e-02 -1.04185473e-03
    -7.79425306e-03 1.73723362e-02 -1.26961758e-02 -1.27578042e-02
    3.66737018e-03 4.30585351e-03 6.19118800e-04 -1.13765197e-02
    -2.25094110e-02 2.36893632e-03 7.40218908e-03 4.21907846e-03
    2.93105673e-02 2.73449421e-02 -1.76744834e-02 2.49131210e-02
    -4.29770118e-03 7.67164747e-04 -4.72314516e-03 -1.52884861e-02
    -4.57155751e-04 3.31605934e-02 -1.76665769e-03 5.24746021e-03
    3.18810865e-02 -3.84426564e-02 -2.48429533e-02 1.42537253e-02
    1.05439837e-03 4.95571196e-02 9.00808908e-03 -1.66099034e-02
    -1.84093451e-03 1.68164894e-02 2.57627480e-02 2.67111361e-02
    -8.94818734e-03 -1.73700508e-02 -3.68057564e-02 4.37239092e-03
    -2.80130580e-02 3.10628000e-03 2.76130512e-02 -1.64112039e-02
    1.44822272e-02 -4.47546458e-03 -2.76332162e-02 -1.50569621e-02
    2.12183557e-02 -3.21117602e-02 -1.17760396e-03 -7.68711837e-03
    2.11324897e-02 1.00289527e-02 4.95887175e-02 1.03624137e-02
    5.69088310e-02 -4.99964133e-03 -9.71581880e-03 -1.26600582e-02
    4.58282270e-02 4.66255508e-02 -2.76530074e-04 3.76912840e-02
    -1.29933469e-02 2.38864273e-02 -2.83296332e-02 -9.14879050e-03
    -3.33807953e-02 5.52764274e-02 1.18134273e-02 1.66631546e-02
    3.41707990e-02 1.46887172e-02 4.69735563e-02 -5.27290441e-03
    -2.44580302e-02 4.52785008e-03 1.31479912e-02 1.27640297e-03
    4.94420202e-03 2.68675517e-02 -6.02540700e-03 -1.96478013e-02
    -5.31678125e-02 -4.41889204e-02 -2.65075900e-02 1.26485219e-02
    3.17920670e-02 2.82895053e-03 5.78340702e-02 -6.81236433e-03
    2.81304270e-02 -1.27878413e-02 -1.53794754e-02 2.96525145e-03
    4.80080843e-02 -2.28495188e-02 -3.08930525e-03 7.88316596e-03
    -1.96716152e-02 4.88151647e-02 7.32043339e-03 -2.60714013e-02
    1.30641437e-03 8.92309123e-04 -1.61391161e-02 -1.25440182e-02
    2.13515125e-02 -3.43123451e-02 -1.41196819e-02 -1.92264393e-02
    -2.93714292e-02 8.50062724e-03 2.69735288e-02 -2.90671159e-02
    -1.84608381e-02 -2.69156173e-02 -3.70084420e-02 1.54731970e-03
    -3.20972572e-03 -3.68589163e-02 -1.82774477e-02 -1.74333192e-02
    -1.43567112e-03 3.38163879e-03 1.27807092e-02 -2.30372120e-02
    9.79823340e-03 -1.23799099e-02 -3.36753093e-02 -5.42296236e-03
    -2.10240763e-02 2.87666656e-02 5.79278963e-03 -7.20396172e-03
    -5.45582920e-02 -4.00293097e-02 -4.78165522e-02 -5.62359625e-03
    4.32867138e-03 1.47839878e-02 1.67412441e-02 2.02711187e-02
    4.31034639e-02 -2.83529679e-03 -2.39745434e-02 -1.99554004e-02
    -1.14654750e-02 -1.49146924e-02 -2.19549760e-02 -1.99201629e-02
    1.83912646e-02 3.38266566e-02 -2.68165078e-02 -3.12002189e-02
    -7.79700652e-02 -4.13758028e-03 -1.05075827e-02 -3.71468887e-02
    2.30086339e-03 -1.31380893e-02 -6.48592412e-03 -1.19417366e-02
    -2.25894023e-02 -8.79567378e-05 -1.25116678e-02 -1.26332731e-03
    2.39915755e-02 2.92149615e-02 -2.17043050e-02 -2.48077717e-02
    -2.30706334e-02 -5.07545173e-02 -3.86718102e-02 -2.67318916e-02
    -1.87367499e-02 3.07032629e-03 -2.46358085e-02 1.85283180e-02
    3.09438966e-02 -3.78741510e-02 -2.91103832e-02 -2.52146702e-02
    -1.71574093e-02 1.67839392e-03 -2.36523952e-02 1.49791269e-02
    -8.97147041e-03 -1.65084004e-02 -3.66865806e-02 -6.68083429e-02
    -1.30845979e-02 -2.40118075e-02 -1.65432377e-03 1.64117676e-03
    1.25409504e-02 4.94072214e-03 3.31424996e-02 2.63032336e-02
    -2.14032866e-02 -1.73110999e-02 -4.83655091e-03 -1.08687729e-02
    1.25362482e-02 -8.22232664e-03 1.43157912e-03 1.32247312e-02
    2.57321596e-02 2.18874197e-02 5.11328503e-02 5.68745285e-03
    -1.88935958e-02 -1.38565451e-02 7.53918756e-03 -4.16845642e-03
    -3.55297909e-03 1.13908956e-02 -7.07194954e-02 2.43905298e-02
    4.57940987e-05 -1.81993376e-02 4.76099038e-03 -9.23812483e-03
    -4.56251530e-03 -3.65434662e-02 -1.39434161e-02 6.54387474e-03
    7.10541606e-02 -4.13667457e-03 -2.07886584e-02 -1.42493863e-02
    -2.91430149e-02 -6.88217022e-03 -7.15754367e-03 -3.17149162e-02
    -2.14744844e-02 -1.16679473e-02 -1.70721002e-02 -4.50053848e-02
    -2.62981001e-02 -3.48622315e-02 2.80768555e-02 5.20683266e-02
    5.53467264e-03 8.07322189e-03 4.69375029e-02 4.68776450e-02
    1.78659577e-02 -4.18733209e-02 -1.55126071e-02 -2.11573653e-02
    2.28061043e-02 -2.29938375e-03 -2.95569319e-02 -2.95892991e-02
    -9.13269294e-04 -1.59824714e-02 -1.48120224e-02 -1.67480484e-02
    -1.87945142e-02 2.51198877e-02 2.45211255e-02 5.47328684e-03
    3.10971215e-03 3.74874882e-02 -5.09750238e-03 -5.50650544e-02
    -3.73126492e-02 -8.02194048e-03 3.51063497e-02 -2.59989197e-03
    -5.71171045e-02 -2.73722652e-02 7.60521134e-03 3.42109660e-03
    -3.48323248e-02 3.96616533e-02 -6.20291568e-03 1.36532532e-02
    2.09636725e-02 -2.23209709e-02 -1.16012543e-02 -1.63909569e-02
    -1.44715225e-02 2.00438835e-02 -1.92728937e-02 -4.38149720e-02
    2.11018734e-02 -3.07240877e-02 -7.17739016e-02 -2.77527086e-02
    -5.24541317e-03 -2.95882765e-02 -3.63693908e-02 5.70410341e-02
    8.17941502e-03 3.06900125e-02 3.04080490e-02 -2.09119301e-02
    4.96890768e-03 -8.32158048e-03 -3.12323272e-02 2.74797585e-02
    4.58929129e-02 -6.84572430e-03 -1.20484475e-02 1.44736608e-02
    2.63188803e-03 2.70296596e-02 -7.67675345e-04 -8.15696269e-03
    2.25641541e-02 3.30761410e-02 9.86242201e-03 4.35762256e-02
    1.19579006e-02 8.71459488e-03 2.58119386e-02 3.73816937e-02
    2.17518732e-02 2.82099238e-03 2.52505075e-02 1.10176420e-02
    -8.49932712e-03 2.29061656e-02 -1.29972873e-02 1.94032583e-02
    -3.89114879e-02 -4.17126790e-02 -6.61467575e-03 4.04464975e-02
    1.64953638e-02 4.70630825e-02 2.40853280e-02 1.34468218e-02
    1.08636012e-02 2.63557397e-02 -5.54590207e-03 8.79330374e-03
    1.09471083e-02 -1.10953841e-02 6.67476729e-02 5.32848239e-02
    -1.98503528e-02 8.67129955e-03 1.58140324e-02 -6.24013226e-03
    2.37126742e-02 -9.92562994e-03 -2.14083865e-02 -8.78055021e-03
    5.96474335e-02 1.38059147e-02 2.85161845e-02 2.06144503e-03
    -1.68234259e-02 2.63736043e-02 2.09116209e-02 1.51151400e-02
    6.18187003e-02 2.35653985e-02 -2.96360962e-02 7.65131041e-03
    1.13585005e-02 -9.87821911e-03 8.81528668e-03 -2.03319709e-03
    2.68545141e-03 -5.26903663e-03 2.85678580e-02 -1.19257662e-02
    1.50238080e-02 -1.53233027e-02 -3.00223418e-02 1.23372804e-02
    -5.57803921e-03 2.46145166e-02 -2.31546871e-02 5.58352889e-03
    -1.47093805e-02 1.12414584e-02 6.82453290e-02 6.95151910e-02
    4.66778167e-02 7.20798504e-03 1.99637841e-02 -2.17121653e-02
    1.16079841e-02 -3.25102545e-02 -3.07090543e-02 8.04532412e-03
    4.62599826e-04 5.16926986e-04 1.48527445e-02 4.16059196e-02
    -2.95389201e-02 6.07232377e-03 -3.59361432e-02 -1.57007761e-02
    2.84189899e-02 3.77349034e-02 2.02851947e-02 -4.40944778e-03
    -1.26350885e-02 -3.25540900e-02 -1.03477957e-02 -4.28880192e-02
    -1.46165388e-02 1.50769558e-02 5.23523334e-03 -1.34619055e-02
    -3.20215672e-02 -1.42699794e-03 2.97860475e-03 5.43246120e-02
    3.53652239e-03 -3.59461568e-02 4.71717864e-03 -1.65925063e-02
    -4.88969013e-02 -1.72724165e-02 6.67268271e-03 -2.33730068e-03
    7.00572738e-03 -2.34436039e-02 -5.55115985e-03 1.30611565e-02
    1.34050287e-02 -2.17737891e-02 -3.09456084e-02 -3.38367447e-02
    -5.65383099e-02 4.55867546e-03 -2.52004303e-02 -1.77020617e-02
    1.04168048e-02 1.40148178e-02 -2.03879103e-02 -4.92348615e-03
    -9.61185899e-03 -3.85603085e-02 1.01076774e-02 -6.38096631e-02
    -4.84931283e-02 -1.91574506e-02 -1.47965821e-02 1.46287521e-02
    8.73447955e-03 -1.02884481e-02 3.25018391e-02 1.55688850e-02
    -7.09145050e-03 -3.22785601e-02 -1.12605635e-02 3.85423079e-02
    -1.59841646e-02 -1.52113847e-02 -8.43202788e-03 2.61694249e-02
    7.60111492e-03 3.61415707e-02 -1.96323227e-02 3.83972563e-02
    3.31456922e-02 -4.13390025e-02 -1.35419248e-02 3.09165567e-03
    6.95923995e-03 -1.26428704e-03 -5.30521236e-02 -4.89574820e-02
    4.57844138e-03 2.48313099e-02 3.54550555e-02 -3.84278595e-02
    -1.23069119e-02 -3.36231068e-02 1.54506024e-02 -4.53689927e-03
    -2.98752002e-02 -7.78476568e-03 1.58951283e-02 -1.76521149e-02
    -2.51525454e-02 1.87513232e-02 1.24399841e-03 1.75923593e-02
    4.47886027e-02 2.19580233e-02 3.22238952e-02 6.15057722e-02
    -6.39961753e-03 1.19503564e-03 -1.12353927e-02 -1.30207669e-02
    2.96236649e-02 3.05706169e-02 6.21431414e-03 9.55006387e-03
    7.48847499e-02 2.52089985e-02 -3.96743491e-02 1.62846979e-03
    -1.44403055e-02 3.38798501e-02 2.77959462e-03 1.79827698e-02
    -8.10426567e-03 2.00491361e-02 -4.91953753e-02 1.33668829e-03
    6.09225407e-03 -2.13312916e-03 1.23137226e-02 -8.64877831e-03
    -5.58120711e-03 9.03004967e-03 3.73669453e-02 -2.32653804e-02
    -1.50347874e-02 -3.18553522e-02 -7.86417723e-03 1.45896170e-02
    -1.92404911e-02 -1.41010126e-02 -1.88377555e-02 -9.13811475e-03
    -5.12321014e-03 -2.55654138e-02 -3.26418853e-03 1.82917640e-02
    2.41161510e-02 5.90803586e-02 7.53367618e-02 2.57271752e-02
    -2.37942059e-02 1.22803813e-02 4.63664113e-03 -1.39882611e-02
    -3.34713347e-02 -3.06095257e-02 -2.50017475e-02 -6.56997189e-02
    -2.73622628e-02 1.19917272e-02 1.39797209e-02 3.57001642e-04
    -1.10504022e-02 -1.11976499e-02 4.28591063e-03 3.69487330e-02
    2.20002998e-02 -4.19230275e-02 -1.48952976e-02 4.26898850e-03
    -3.76032898e-03 4.87352610e-02 1.31994812e-02 -2.82560401e-02
    2.15618182e-02 5.43891601e-02 1.43760797e-02 9.50730126e-03
    3.22709829e-02 -1.39450468e-02 2.60487441e-02 2.39039958e-02
    -2.84245145e-02 -2.65598278e-02 3.59792374e-02 1.90812885e-03
    1.04997214e-02 -1.25837354e-02 8.41751404e-04 -9.09133232e-04
    -3.05882096e-02 -2.62902584e-02 1.23089617e-02 3.47997695e-02
    -2.25787926e-02 -1.93956587e-03 1.41497897e-02 2.44247746e-02
    2.33698338e-02 -4.21501836e-03 -3.57820131e-02 -1.33311776e-02
    -3.51715507e-03 -5.19693643e-03 -1.32178133e-02 8.91086739e-03
    -4.44479566e-03 3.60552855e-02 4.88931835e-02 -6.91317441e-03
    1.08733382e-02 -1.37454709e-02 -1.32535556e-02 1.62550788e-02
    -1.44814989e-02 -1.17209777e-02 7.55858468e-03 4.56826687e-02
    1.59397367e-02 -8.55771126e-04 -1.82460584e-02 -9.59602278e-03
    2.95278616e-02 3.85221839e-02 2.68777590e-02 4.60800603e-02
    4.07960042e-02 -5.74552128e-03 -6.24223053e-03 -2.96822581e-02
    -1.25752781e-02 -1.85841806e-02 -4.42303484e-03 1.33202691e-02
    1.24983573e-02 3.55940647e-02 2.10301224e-02 1.55252079e-02
    1.58911590e-02 -1.97923905e-03 2.93930434e-03 3.40054221e-02
    -2.06321869e-02 3.04244272e-02 7.12356269e-02 3.18074375e-02
    3.34171206e-02 -9.70632583e-03 1.74606673e-03 4.13479358e-02
    4.45030183e-02 -2.59625446e-02 1.07952545e-03 -1.73864793e-02
    -2.56811809e-02 2.52532586e-02 1.35307701e-03 -2.45927032e-02
    -2.54296378e-04 -3.55165899e-02 3.57577242e-02 2.22126618e-02
    3.77328391e-03 -4.65185149e-03 2.42186729e-02 -8.12472217e-03
    -2.44201161e-02 1.12312920e-02 4.62332405e-02 -1.99265368e-02
    -2.55027730e-02 -8.84786919e-02 -6.88145757e-02 1.70368869e-02
    -2.83714533e-02 -6.37419745e-02 -4.72944677e-02 -3.77880484e-02
    4.14380282e-02 3.01211998e-02 2.30172165e-02 -1.54608628e-02
    -1.56146633e-02 -3.15977633e-02 -1.20567549e-02 -3.26630659e-03
    -2.14818958e-02 -2.03933176e-02 -1.11969560e-02 1.80071760e-02
    -1.51652042e-02 -1.50652565e-02 -4.11382206e-02 1.55091286e-02
    1.63692888e-02 -1.94991194e-02 2.85756327e-02 -1.62859336e-02
    -4.73460294e-02 -3.86249833e-02 -3.92710418e-02 -3.25648636e-02
    -5.30842990e-02 -2.89526321e-02 -8.45691469e-03 -1.97574254e-02
    -5.24188168e-02 -2.34289747e-03 -1.16698360e-02 -5.27770370e-02
    -2.77362559e-02 -2.26450972e-02 -8.83786287e-03 6.77462143e-04
    -1.55314812e-02 -8.03931151e-03 4.43612896e-02 -6.41338825e-02
    8.48200079e-03 -2.92443525e-04 -1.90795623e-02 1.78994276e-02
    6.33020885e-03 1.48527604e-02 -9.76865063e-04 -2.08504554e-02
    -3.33892778e-02 -4.43290882e-02 5.95928309e-03 -4.77996329e-03
    6.50297804e-03 1.45215541e-02 -3.01151909e-02 -4.15190980e-02
    -3.33716837e-03 -5.40835746e-02 -1.65421329e-02 -1.02689140e-03
    -4.80680075e-03 4.60981429e-02 1.79714896e-02 -2.47929282e-02
    -3.26718353e-02 -5.46784513e-02 -5.18189035e-02 -5.90123832e-02
    -2.04452891e-02 -1.86247993e-02 -2.14212518e-02 -3.42769139e-02
    2.98786648e-02 2.04327628e-02 3.40621993e-02 3.61765809e-02
    -4.53811586e-02 8.89211148e-03 -2.07040384e-02 -2.71724109e-02
    9.66290012e-03 8.90820380e-03 -1.04472891e-03 -2.52197087e-02
    8.14288668e-03 4.57176892e-03 5.95209785e-02 -3.71486247e-02
    -2.65874919e-02 -7.78958946e-03 2.77934186e-02 1.50434580e-02
    -1.41211276e-04 -2.29273979e-02 -6.22050427e-02 -1.11527676e-02
    -8.82682949e-03 -4.49918881e-02 -3.40912379e-02 -2.38783080e-02
    -2.36818995e-02 -2.19879951e-02 -5.61342575e-02 -6.41495883e-02
    1.71518903e-02 -7.55339069e-03 -6.95631560e-03 -3.88765968e-02
    -3.77283618e-02 -3.35127451e-02 1.87592153e-02 2.33491994e-02
    1.32102147e-02 -1.23375542e-02 1.41525420e-03 -4.64347610e-03
    -4.06827293e-02 -2.88427733e-02 -2.13616192e-02 3.04218326e-02
    2.35177465e-02 2.68279556e-02 -5.97660989e-03 1.98129136e-02
    -1.72220524e-02 -5.05577214e-02 -3.08193695e-02 -2.62494106e-02
    -1.07078934e-02 -8.33703019e-03 2.42321361e-02 3.45165394e-02
    4.06088531e-02 -4.61681979e-04 -5.31943478e-02 -2.70846616e-02
    -2.80882549e-02 -1.19811865e-02 -2.36851699e-03 1.84046626e-02
    1.43815959e-02 6.73783571e-02 -1.59585886e-02 -5.37927672e-02
    1.60469189e-02 1.93004720e-02 1.13752307e-02 -5.38768247e-02
    -7.74669349e-02 9.41404549e-04 1.11957202e-02 -2.29004472e-02
    -2.96110734e-02 8.22806805e-02 5.69203030e-03 1.33503145e-02
    -2.62117689e-03 -4.20979299e-02 3.96366864e-02 3.11135482e-02
    -1.59690976e-02 3.58554870e-02 1.40429288e-02 -4.16899612e-03
    -2.82686055e-02 -4.55409139e-02 -6.24257885e-02 9.09811759e-04
    2.06380505e-02 -1.25472993e-02 -1.09687243e-02 7.98159018e-02
    -1.36568509e-02 -2.35307366e-02 -2.07332801e-02 -5.12988865e-02
    1.18343241e-03 -1.01159932e-02 -2.62254030e-02 3.17237638e-02
    6.62806928e-02 -9.15347133e-03 -1.11418640e-05 2.77052373e-02
    2.20852927e-03 3.95503715e-02 -1.08244298e-02 -1.08651360e-02
    3.15467827e-02 4.18902524e-02 1.11078322e-02 2.82873660e-02
    3.27054523e-02 2.59103235e-02 3.78976502e-02 2.38788202e-02
    -8.37035012e-03 1.65261357e-04 6.86775446e-02 -1.65729094e-02
    9.83112492e-03 2.34925952e-02 -3.70020308e-02 2.61783022e-02
    -1.60475299e-02 -1.64593421e-02 1.53862815e-02 4.19322513e-02
    -8.66790861e-03 1.07060717e-02 4.08327542e-02 -1.04189469e-02
    3.62067074e-02 2.43219938e-02 -2.03664955e-02 -1.72338765e-02
    4.40954557e-03 2.38246396e-02 5.21974489e-02 4.56046462e-02
    2.13252585e-02 4.45577763e-02 4.24908251e-02 7.06454739e-03
    1.79664712e-04 -2.66094953e-02 2.44101677e-02 3.98930795e-02
    5.45178987e-02 4.31576855e-02 2.87670027e-02 2.06962582e-02
    7.66235404e-03 -8.09501763e-03 7.54291005e-03 1.63247436e-02
    1.34341456e-02 1.50401201e-02 -3.70070636e-02 2.50409879e-02
    1.49064511e-02 -4.47060689e-02 -1.92663763e-02 -4.50312383e-02
    -4.69406229e-03 3.08712083e-03 2.64661964e-02 -1.37432832e-02
    7.59915588e-03 -9.55818105e-04 -5.72098903e-02 -6.36638850e-02
    -2.61340626e-02 2.47478634e-02 3.04933917e-02 6.73672184e-02
    8.73056240e-03 1.24379825e-02 4.65403311e-02 2.84956545e-02
    -2.81511014e-03 -6.69996813e-02 1.17968477e-03 2.79382933e-02
    5.17579466e-02 -2.19767867e-03 -1.74826086e-02 2.76847128e-02
    3.18646505e-02 -4.14022543e-02 -4.18924764e-02 1.04908403e-02
    1.53043838e-02 4.75900769e-02 1.41508970e-02 -1.16496934e-02
    8.64240807e-03 -1.01791723e-02 -3.87705751e-02 -4.53121550e-02
    -2.58195847e-02 -3.87552055e-03 2.32914221e-02 -2.97754398e-03
    -5.44778630e-02 -2.63023074e-03 -7.42804166e-03 -4.29588482e-02
    -3.37502435e-02 -6.98863645e-04 -1.70918237e-02 3.64810936e-02
    2.50194538e-02 -1.25257997e-02 4.29085530e-02 3.80812027e-02
    -5.12923636e-02 6.54346496e-03 4.14992590e-03 -8.32749438e-03
    5.06606624e-02 2.00962555e-02 -1.48845352e-02 8.71201046e-03
    5.39446948e-03 -9.82216466e-03 -7.43002957e-03 -1.11172190e-02
    -3.68087105e-02 -1.10372081e-02 -4.65723686e-02 -4.11134325e-02
    8.12019873e-03 -3.10524181e-03 -3.05725448e-02 -4.26875474e-03
    -3.09293475e-02 -5.42497486e-02 2.07644310e-02 1.64180901e-02
    -3.41584790e-04 2.09747418e-03 -1.38966891e-03 -1.79285277e-03
    -3.53612602e-02 2.42697541e-03 1.27952211e-02 2.40515321e-02
    -4.18248549e-02 -3.66540216e-02 -6.45872205e-04 2.36233361e-02
    -7.99145375e-04 -5.51059879e-02 -3.21936049e-02 -2.53661498e-02
    1.38883535e-02 -7.55597278e-02 6.19056774e-03 -5.08057559e-03
    4.96140830e-02 -2.13121735e-02 -1.59123428e-02 1.00419009e-02
    -2.57105622e-02 6.72071567e-03 -7.72355869e-03 -1.51032414e-02
    -2.16635559e-02 -1.30842533e-03 -2.90772095e-02 -3.53541784e-02
    1.32865906e-02 -3.51453647e-02 1.59501508e-02 -3.42680067e-02
    3.92551906e-02 -1.44122951e-02 1.32307112e-02 -3.76203656e-02
    -3.87510397e-02 -1.42313251e-02 -3.26158106e-02 4.42399345e-02
    -2.05682945e-02 1.94791704e-02 -5.37308306e-03 4.71386313e-02
    -1.79967266e-02 1.91367455e-02 6.31866232e-03 1.36865932e-03
    4.62757349e-02 7.97132030e-03 -9.24179330e-03 2.77142823e-02
    5.08939177e-02 1.54269971e-02 -2.43003778e-02 -2.34930906e-02
    -6.40380159e-02 4.71430309e-02 -7.13299541e-03 -1.61603652e-02
    -3.67738679e-02 1.83886886e-02 -1.17271040e-02 2.30247378e-02
    -5.16681094e-03 -1.40875373e-02 5.21662980e-02 1.07331551e-03
    -7.48870149e-02 -1.70728136e-02 2.18695235e-02 1.10606058e-03
    -1.44384746e-02 -1.95565205e-02 -1.56486984e-02 9.34911892e-03
    -3.55631486e-03 -4.72006202e-02 -1.53497083e-03 3.24037671e-02
    2.48242579e-02 -2.35075224e-02 1.02206888e-02 3.18302627e-04
    2.51922589e-02 6.54135048e-02 1.96670759e-02 -2.73531787e-02
    2.60771089e-03 1.78198777e-02 6.94545312e-03 3.68630397e-03
    -4.51450050e-02 -6.33270713e-03 -2.40117870e-02 -6.27542660e-02
    -1.05755208e-02 1.92147288e-02 9.58425982e-04 2.12001484e-02
    -1.54824918e-02 -4.39564288e-02 1.49425566e-02 8.72110948e-03
    1.31900683e-02 -2.46302527e-03 -1.13718724e-03 -1.28188357e-03
    -1.15032578e-02 9.11219860e-04 -7.72050628e-03 -1.73916668e-02
    4.54425924e-02 1.85170453e-02 -3.94196399e-02 -7.44358543e-03
    1.98956151e-02 2.05909796e-02 -1.14419023e-02 -2.65700202e-02
    -2.94329748e-02 -5.11263311e-03 3.58164252e-04 4.21967031e-03
    2.24115793e-02 2.22644694e-02 2.69322935e-02 -1.25768716e-02
    -2.35797893e-02 -8.78978427e-03 8.69125407e-03 -6.83811028e-03
    -4.49779853e-02 -2.00421009e-02 1.85967237e-02 4.78923973e-03
    -2.46541426e-02 -3.90350036e-02 7.55146518e-03 -3.56502458e-02
    -8.95316189e-04 -1.16193835e-02 4.84873280e-02 3.67700011e-02
    -8.10864940e-03 7.75405625e-03 3.42823528e-02 4.36489135e-02
    4.07137610e-02 -1.99053530e-02 1.99169107e-02 3.11519764e-03
    -2.13496331e-02 3.29663511e-03 2.63052769e-02 3.98205034e-02
    3.59758846e-02 6.18720315e-02 2.09294967e-02 -2.09583361e-02
    -1.91814080e-02 -7.30472384e-03 9.43996571e-03 1.76348481e-02
    3.46968435e-02 4.28402834e-02 3.28764431e-02 -1.90708395e-02
    -7.76069146e-03 2.80131362e-02 3.01838340e-03 -4.47279261e-03
    -3.45542491e-03 -7.67257810e-03 3.33648585e-02 2.99669243e-02
    -6.46711886e-03 -5.27216420e-02 -1.82374232e-02 -3.69536579e-02
    3.15541700e-02 2.57361438e-02 -1.46191996e-02 -1.60320755e-02
    8.05369988e-02 2.06272979e-03 -1.08724339e-02 3.54195833e-02
    1.68618970e-02 -1.68002937e-02 1.45790447e-03 -5.71179725e-02
    -5.45984246e-02 6.02480285e-02 -1.41138546e-02 -1.64607242e-02
    1.38863258e-03 -4.58704382e-02 5.97039936e-03 3.65528613e-02
    -3.43663665e-03 -6.36605313e-03 4.64452244e-02 -1.10650547e-02
    -2.78450064e-02 1.56863742e-02 -3.36275734e-02 -1.19643332e-02
    2.62394408e-03 -4.96048015e-03 -5.15796095e-02 -6.17324188e-03
    -2.89041661e-02 -1.02172978e-02 2.12844592e-02 -4.06549387e-02
    1.49581861e-03 -4.63906815e-03 -4.12505716e-02 -5.45354038e-02
    8.64443369e-03 -1.49310129e-02 -1.86012704e-02 7.08441995e-03
    -2.81709116e-02 -1.90378800e-02 -4.60136496e-03 8.55753664e-03
    -2.45858785e-02 -2.30781008e-02 -1.34703806e-02 1.80193279e-02
    1.51150189e-02 -2.54293997e-02 1.34452994e-05 -1.34402858e-02
    -1.78170726e-02 -3.29700932e-02 -2.41375342e-02 1.14334216e-02
    -7.03042559e-03 3.41965556e-02 2.40274370e-02 -4.35829833e-02
    -3.40115875e-02 -1.30041444e-03 -4.42759916e-02 -3.18632275e-02
    -2.86386199e-02 -3.68285365e-02 1.29140662e-02 -2.48090308e-02
    -6.30604774e-02 -1.77172590e-02 3.09855286e-02 -8.22829083e-03
    1.24468782e-03 -6.80631865e-03 1.26175419e-03 3.93840261e-02
    -2.66248621e-02 -2.12758984e-02 -2.13600229e-02 -9.48160421e-03
    2.45411466e-05 -2.60820594e-02 -2.16561719e-03 -8.78923014e-03
    -1.14524085e-02 -1.65735502e-02 -5.89472428e-02 -3.44245508e-02
    1.69610586e-02 4.99692454e-04 -2.42316853e-02 3.03777726e-03
    -2.21867841e-02 2.40296591e-02 -3.27400789e-02 -3.28933857e-02
    -7.11443499e-02 -1.71479676e-02 -1.11978576e-02 -2.21271701e-02
    9.86872613e-03 -1.25720131e-03 -1.61995273e-02 -1.29368715e-02
    -1.03606586e-03 -2.31711357e-03 1.08776791e-02 2.34106872e-02
    -1.72333606e-02 -8.47571529e-03 -2.33147666e-02 -2.88190916e-02
    -1.46478070e-02 -1.72528587e-02 -3.85745429e-02 1.28349103e-02
    -2.30544526e-02 -4.09558155e-02 1.25582255e-02 1.02702519e-02
    -7.91412871e-03 -1.96474772e-02 -2.40614470e-02 -5.55771813e-02
    1.23310154e-02 5.60224149e-03 5.04731550e-04 1.93159226e-02
    1.49416402e-02 4.80753696e-03 -1.78813878e-02 -2.57594530e-02
    -4.34861481e-02 -1.07914032e-02 -1.72398649e-02 -2.68947780e-02
    4.08627465e-02 6.00448437e-03 -8.12093075e-03 -4.31839749e-02
    -1.06705306e-02 -1.85292698e-02 -1.82749163e-02 -2.55592261e-03
    3.51350494e-02 5.64384162e-02 5.18283956e-02 -2.16789804e-02
    -4.12982628e-02 -2.22372636e-02 -4.07891572e-02 -1.10551645e-03
    1.55355986e-02 -8.86267330e-03 2.69801784e-02 9.84317735e-02
    1.12145618e-02 -1.73076056e-02 2.40981411e-02 -3.63868568e-03
    -2.45288890e-02 -1.18286246e-02 -8.31900071e-03 1.89156737e-03
    -1.36883808e-02 -4.33392227e-02 -3.63369659e-02 4.62119188e-03
    -2.45723110e-02 -3.57696638e-02 -1.76269840e-03 -6.38143718e-02
    1.49300778e-02 4.50341403e-02 1.67848018e-03 -2.72980314e-02
    7.92239234e-03 -2.79760081e-02 -2.28524152e-02 2.75892136e-03
    -4.53674458e-02 2.55277893e-03 5.17760105e-02 7.40160653e-03
    2.39085760e-02 5.84740080e-02 -2.60323435e-02 -3.04055046e-02
    2.94733141e-02 -2.26652827e-02 2.56989188e-02 -2.24173926e-02
    -3.37076886e-03 6.61635026e-02 7.00798002e-04 -3.76599394e-02
    -3.93062234e-02 2.20201444e-02 -3.71871702e-02 -2.46776938e-02
    4.19120159e-04 3.10275666e-02 5.00558782e-03 1.18798567e-02
    -5.07376902e-02 -3.16574164e-02 -7.00862519e-03 -2.45732311e-02
    1.39302267e-02 -2.58741193e-02 -1.94024667e-02 2.57157516e-02
    4.66887280e-02 -2.64305994e-02 6.38429075e-03 4.51640934e-02
    5.63007686e-03 7.88978040e-02 3.81946415e-02 3.28112990e-02
    3.67097333e-02 3.93977724e-02 -2.73346491e-02 5.55723906e-03
    5.61557710e-02 2.32848935e-02 9.20881182e-02 7.22384006e-02
    2.21949276e-02 1.73978414e-02 8.11865926e-03 -2.05963887e-02
    -2.69090128e-03 3.77692804e-02 1.49022946e-02 9.89012569e-02
    -1.01795048e-02 -6.97964132e-02 -3.77941616e-02 -1.09908851e-02
    -2.24943291e-02 1.91998528e-03 1.79231577e-02 -1.17300553e-02
    5.66376038e-02 2.64690444e-02 -4.84573841e-02 -2.66014915e-02
    2.44679041e-02 3.60304606e-03 1.00886635e-02 4.11338322e-02
    2.88527505e-03 5.92853390e-02 5.38357347e-02 1.26555795e-02
    4.50855820e-03 5.61465649e-03 3.08113219e-03 4.75640845e-04
    4.60437611e-02 1.26364175e-02 1.55550167e-02 2.14365963e-02
    9.68529936e-03 -2.15682629e-02 1.27535604e-03 -2.08066683e-03
    -3.41471867e-03 1.39972698e-02 -2.55727749e-02 2.09891442e-02
    7.12511456e-03 -3.96495499e-02 -1.74333286e-02 1.14670889e-02
    -2.44750679e-02 -5.02211861e-02 2.62387395e-02 -2.73814611e-02
    4.64706542e-03 -3.01567707e-02 -3.65996473e-02 -9.07462277e-03
    4.12995368e-03 3.08172330e-02 2.14485340e-02 3.61577347e-02
    1.40344398e-02 8.14806297e-03 2.58123912e-02 5.18682273e-03
    -1.70282356e-03 1.00163464e-02 9.34328360e-04 1.62382908e-02
    3.22569832e-02 -1.03028575e-02 -7.18112197e-03 5.32701537e-02
    2.79188864e-02 1.13866723e-03 1.01227807e-02 1.54876793e-02
    -1.61326192e-02 -1.94768800e-04 -3.59953567e-02 -1.69332698e-02
    -3.48105878e-02 -2.84383539e-02 6.62411423e-03 -9.93170030e-03
    -2.57477816e-02 -2.12321449e-02 1.73369925e-02 -7.08926469e-02
    -3.74340173e-03 2.16528308e-02 -1.58154797e-02 -1.70813091e-02
    3.11769508e-02 -8.04773811e-03 -4.55957279e-02 -2.83030939e-04
    -1.34257488e-02 -1.59323458e-02 4.30668592e-02 3.05448077e-03
    -1.59595590e-02 3.36588733e-02 3.29065183e-03 -3.53797041e-02
    3.92349288e-02 7.26656988e-02 1.79844871e-02 2.18780506e-02
    1.76477674e-02 -2.55223061e-03 4.63747010e-02 -4.26453985e-02
    -6.83259517e-02 1.02607962e-02 -6.60748705e-02 -4.45552133e-02
    -3.51888523e-03 3.49433161e-04 1.38718551e-02 4.35751714e-02
    -1.41973365e-02 -6.15971461e-02 3.70114967e-02 3.52121820e-03
    1.05214806e-03 2.19318923e-02 3.90720963e-02 2.54847631e-02
    -8.70044623e-03 4.13051946e-03 -3.16006020e-02 4.07041656e-03
    1.45291789e-02 -7.97706482e-04 4.70470823e-03 2.81096511e-02
    -1.38378339e-02 -3.34142670e-02 4.50797891e-03 -3.55421826e-02
    2.41534263e-02 4.04793471e-02 3.81842330e-02 -8.62975232e-03
    2.99176313e-02 -2.78826281e-02 -1.38276033e-02 -1.23400951e-03
    -3.16616334e-02 -4.55647270e-04 -4.09393646e-02 -3.57964337e-02
    9.99056385e-04 5.89522272e-02 3.40312207e-03 -5.39224334e-02
    -4.05905321e-02 -4.37136814e-02 1.33099593e-02 -3.02714687e-02
    -1.93314962e-02 -1.56380481e-03 4.88804169e-02 -1.20579246e-02
    -2.53795013e-02 -9.18673072e-03 -2.97891945e-02 5.42665161e-02
    4.90020663e-02 1.28864683e-02 -1.16026606e-02 3.32473591e-02
    -2.53839400e-02 -1.47690428e-02 1.60403233e-02 -1.47976400e-02
    7.79937804e-02 1.20540736e-02 -2.56150104e-02 3.48954042e-03
    2.83284634e-02 -1.68676991e-02 -2.81585678e-02 -5.91039136e-02
    -6.76759407e-02 2.70811841e-02 8.93768296e-03 -4.57794778e-03
    9.55581199e-03 4.38736901e-02 2.62931269e-03 -2.50291191e-02
    -3.30883414e-02 -4.26009931e-02 4.10825461e-02 -1.68023016e-02
    -1.09144365e-02 -1.64834559e-02 3.84220406e-02 -3.02151944e-02
    -2.00316105e-02 2.85490695e-02 -1.58345141e-02 4.59625125e-02
    1.42813567e-02 -1.90267283e-02 1.53655577e-02 5.07899448e-02
    -5.96074015e-03 9.11286101e-03 2.90619154e-02 -9.38363466e-03
    5.49411513e-02 4.09765206e-02 4.24652733e-02 2.74493936e-02
    6.38700575e-02 1.23332143e-02 -3.43974270e-02 -2.25062165e-02
    -4.18338627e-02 1.17577901e-02 -1.38667338e-02 -1.28726903e-02
    -3.63500440e-03 1.96618680e-02 -1.41911041e-02 -3.39983962e-02
    -1.31256832e-02 -6.43074661e-02 8.29037353e-02 4.91731688e-02
    2.67883334e-02 -3.32421549e-02 4.36544642e-02 -5.20107162e-04
    2.18521841e-02 -2.26930575e-03 -3.47836092e-02 2.63648685e-02
    4.81954925e-02 -6.02711923e-04 -1.25254747e-02 1.84802003e-02
    5.68670081e-03 1.58396456e-03 -3.86961885e-02 -4.24991660e-02
    1.76456608e-02 2.34680977e-02 -1.73421379e-03 -1.88706862e-03
    3.12606655e-02 2.77894344e-02 -1.23983212e-02 -4.14315565e-03
    -4.29532118e-02 2.44238097e-02 4.48154733e-02 -1.51361935e-02
    -7.89122581e-02 -8.91661551e-03 1.28700945e-03 -1.02030765e-03
    -2.03965623e-02 -2.18252391e-02 9.34505165e-02 7.27066472e-02
    6.94580190e-03 -3.96079384e-02 -1.80638228e-02 2.14947928e-02
    1.88886598e-02 -9.42580216e-03 -1.22023858e-02 2.41148248e-02
    4.54740599e-02 -1.75337717e-02 -2.00446346e-03 1.31317135e-02
    2.36139428e-02 -4.62623453e-03 -2.86859479e-02 -3.58078070e-02
    -3.92579054e-03 1.73168387e-02 8.20622407e-03 -1.49388285e-02
    -6.02553925e-03 4.52875718e-03 1.56186400e-02 -1.79658588e-02
    -2.16306113e-02 7.51855373e-02 9.44084302e-02 -3.32651287e-02
    -2.88480725e-02 3.56745208e-03 1.19100949e-02 -3.53804082e-02
    -2.00115461e-02 -5.50170764e-02 5.08051179e-02 5.55796511e-02
    3.30315791e-02 -2.00184919e-02 -1.54052200e-02 1.76829081e-02
    -2.21600030e-02 1.52013358e-02 -1.50783127e-02 -2.66782660e-02
    1.07039465e-02 -2.39767507e-03 -1.56666432e-02 -3.74032534e-03
    -2.29633842e-02 3.15774014e-05 4.00981633e-03 1.67651717e-02
    -2.07374338e-02 -1.61799602e-02 -1.93653759e-02 -1.78366825e-02
    2.16990896e-02 -7.09194504e-03 -4.82130051e-03 3.00587174e-02
    -1.31820478e-02 1.81572158e-02 2.26575397e-02 6.49552606e-03
    -2.82502901e-02 -1.77755561e-02 1.72850415e-02 -2.20945980e-02
    4.12204349e-03 -6.25274424e-03 -2.96629667e-02 -2.03618617e-03
    -4.98083793e-03 -4.25854996e-02 -5.85199194e-03 -1.14503624e-02
    -1.33671053e-02 -2.01092847e-02 2.05742568e-02 2.27784812e-02
    3.11540384e-02 1.76013708e-02 -2.35092305e-02 2.00740639e-02
    -1.82827818e-04 -3.96917462e-02 -2.17414089e-02 2.50497367e-02
    -1.07434085e-02 -1.72520187e-02 -2.07180455e-02 -4.50453423e-02
    -9.88985877e-03 -3.29173692e-02 2.73000868e-03 1.58912782e-02
    3.13521959e-02 2.36469787e-02 3.07605490e-02 1.21816741e-02
    -4.83116768e-02 -3.90800908e-02 -1.70080513e-02 -2.22017169e-02
    3.03496402e-02 6.02391250e-02 -6.44471822e-03 -2.61286125e-02
    -2.55473405e-02 -5.28953783e-02 -5.63372038e-02 -4.32687551e-02
    -4.58958298e-02 -2.35413983e-02 2.78005265e-02 1.10360533e-02
    -1.58537403e-02 -1.18430862e-02 -2.58338749e-02 5.46806958e-04
    -2.78714206e-03 -3.43850181e-02 -5.53436913e-02 -2.97864508e-02
    -8.09958484e-03 -6.59678429e-02 3.39189693e-02 -1.92662317e-03
    -8.62508919e-03 -1.72183886e-02 -2.46390775e-02 2.16143560e-02
    5.20834439e-02 3.03853508e-02 -7.13616796e-03 -2.46115122e-02
    -2.30259262e-02 3.26578575e-03 -7.82572012e-03 -4.41612937e-02
    -5.18600792e-02 -3.57771702e-02 1.25544257e-02 -6.12511300e-02
    2.46372968e-02 -1.16262492e-03 -4.38198866e-03 -1.54290535e-02
    -3.33030298e-02 -3.56008187e-02 4.34182025e-03 -2.38834857e-03
    -8.46650731e-03 1.86133739e-02 6.53218850e-03 -7.48519646e-03
    -5.02131656e-02 -3.89565751e-02 -1.77102815e-02 3.40309590e-02
    -7.26136938e-03 -6.24998892e-03 -5.82853332e-03 -5.35826012e-03
    -1.97556708e-02 -7.92499781e-02 -3.82484831e-02 -5.23843095e-02
    -1.04793832e-02 -1.37981270e-02 -5.92733081e-03 2.77803000e-03
    -1.05121557e-03 3.44901974e-03 -1.35491826e-02 -8.40053260e-02
    -5.19073419e-02 3.11120953e-02 2.42343936e-02 -1.13058824e-03
    -3.42874080e-02 -3.90031673e-02 -3.00707780e-02 -5.52539602e-02
    -4.14239347e-01</SVMDetector></HOG_SVM>
</opencv_storage>
