<?xml version="1.0"?>
<opencv_storage>
<HOG_SVM type_id="opencv-object-detector-hog">
  <winSize>
    80 128</winSize>
  <blockSize>
    16 16</blockSize>
  <blockStride>
    8 8</blockStride>
  <cellSize>
    8 8</cellSize>
  <nbins>9</nbins>
  <derivAperture>1</derivAperture>
  <winSigma>4.</winSigma>
  <histogramNormType>0</histogramNormType>
  <L2HysThreshold>2.0000000000000001e-01</L2HysThreshold>
  <gammaCorrection>1</gammaCorrection>
  <nlevels>64</nlevels>
  <signedGradient>0</signedGradient>
  <SVMDetector>
    2.63474113e-03 -1.11767584e-02 6.22048080e-02 4.10124063e-02
    3.13962214e-02 5.97641170e-02 1.67769976e-02 -1.05156861e-02
    -1.08226687e-02 3.14077013e-03 -1.48757417e-02 -3.38470563e-03
    1.86949852e-03 -7.76386783e-02 3.20314467e-02 1.23319030e-02
    2.38184538e-03 3.61396722e-03 -1.21896528e-02 -1.60643123e-02
    3.40467580e-02 9.95120313e-03 -3.49736698e-02 5.15144579e-02
    3.23647708e-02 4.67956858e-03 -1.79960094e-02 -1.51835764e-02
    -1.37437489e-02 5.27709955e-03 9.92453936e-03 -9.46872085e-02
    -8.13392363e-03 1.18438350e-02 2.15260196e-03 -1.19020855e-02
    3.91526222e-02 1.63219031e-02 1.33341132e-02 3.71460579e-02
    -2.47817840e-02 3.38013656e-02 -4.48665069e-03 -1.40838297e-02
    2.94885486e-02 3.26590724e-02 -1.00293942e-03 -2.59597562e-02
    -1.42770689e-02 -1.88040435e-02 -3.27274352e-02 -6.56144917e-02
    -1.28912078e-02 5.23608774e-02 4.79560010e-02 3.13795544e-02
    2.52557881e-02 2.93901693e-02 -6.80629397e-03 2.16436945e-02
    5.41911321e-03 -1.03099737e-02 2.29549082e-03 2.51606032e-02
    -1.30088609e-02 -1.77437384e-02 -6.87627681e-03 -1.42181180e-02
    -1.28905403e-05 -4.66136262e-02 -4.18862849e-02 3.49498237e-04
    2.52619032e-02 -1.51186716e-02 1.85946953e-02 3.94795612e-02
    5.13369404e-02 -1.75054837e-03 -3.99545878e-02 2.59524793e-03
    7.47264996e-02 -4.16310737e-03 -3.97647126e-03 -3.18334834e-03
    -3.84245478e-02 1.41501119e-02 1.06010353e-02 4.04798845e-03
    9.47082415e-03 -6.92016771e-03 8.10239371e-03 -1.03322268e-02
    1.26682613e-02 4.65337113e-02 4.84748147e-02 5.14913201e-02
    -3.39332037e-02 -1.80841312e-02 5.61395474e-03 4.52518201e-04
    -2.53288541e-02 2.38379724e-02 6.73944596e-03 9.57041141e-03
    2.95353215e-02 4.06776229e-03 -6.11461606e-03 -2.29122527e-02
    -9.23796929e-03 1.71682984e-02 2.47784536e-02 9.24696401e-03
    2.71256752e-02 2.53152079e-03 1.70651115e-02 -1.50949452e-02
    -4.90175635e-02 -3.46358120e-03 2.72284318e-02 2.11706385e-02
    2.67334115e-02 5.06858043e-02 2.42533758e-02 6.51803380e-03
    -2.28364319e-02 -7.13512953e-03 7.66328711e-04 3.42475213e-02
    7.40017742e-02 4.35938090e-02 1.67611595e-02 3.53785418e-02
    4.10092883e-02 -1.58801433e-02 -4.12666984e-02 2.62001101e-02
    4.32371646e-02 6.01601116e-02 2.18352135e-02 7.02938735e-02
    5.55457324e-02 5.01321554e-02 -7.23275915e-03 -1.30277956e-02
    -2.88423840e-02 -2.72649452e-02 -1.90319456e-02 -8.09464604e-03
    7.38092605e-03 1.00425761e-02 -6.05595252e-03 -8.57623573e-03
    1.05391378e-02 -4.85387482e-02 -2.97882780e-02 -2.80130636e-02
    1.79650616e-02 2.45290212e-02 2.66695563e-02 -4.04769890e-02
    -1.40166543e-02 -2.00640224e-02 -1.03505999e-02 1.02931093e-02
    9.06309142e-05 -7.87780341e-03 2.52160477e-04 5.02107553e-02
    7.72557687e-03 3.43311299e-03 -5.09505579e-03 6.79104635e-03
    6.90937508e-03 1.44643718e-02 3.90235148e-02 -5.92008838e-03
    1.13630872e-02 -2.16844771e-02 1.12607963e-02 -3.06312349e-02
    -1.02585200e-02 4.00151778e-03 -1.36857023e-02 1.92493722e-02
    -4.33952436e-02 -1.07942591e-03 -3.71174403e-02 1.43398680e-02
    1.79721471e-02 -1.25947483e-02 2.78009418e-02 1.80252784e-04
    -1.59459487e-02 -3.93630192e-03 2.20101085e-02 -6.24776445e-02
    1.09696772e-03 -1.82069745e-02 -1.36534441e-02 9.87314153e-03
    -5.15322760e-03 7.40630040e-03 -5.05404733e-02 -5.76421758e-03
    -1.45373754e-02 -7.17509957e-03 -3.41304988e-02 -5.59329726e-02
    1.16802482e-02 -2.63611712e-02 -3.01964562e-02 2.64108591e-02
    1.72444377e-02 3.74063780e-03 2.82466523e-02 -5.00168167e-02
    -1.90826859e-02 2.64687138e-03 -2.56614257e-02 -2.00677626e-02
    -3.42858629e-03 -1.59152746e-02 -7.04946294e-02 -8.71233642e-03
    -1.18520185e-02 -7.46039092e-04 9.45653953e-03 -9.78519165e-05
    7.94743970e-02 6.69589192e-02 4.51985262e-02 -4.19973284e-02
    -3.28911177e-04 -1.33245522e-02 -1.36461370e-02 4.32450371e-03
    -3.50445025e-02 -1.25233624e-02 -2.16552205e-02 -3.38043123e-02
    -5.31052053e-02 2.72387955e-02 5.69209550e-03 1.41675714e-02
    -9.92982090e-03 -2.64771208e-02 4.66455445e-02 5.28004542e-02
    1.23749562e-02 -3.97978723e-02 1.08925197e-02 4.69971560e-02
    -1.61865745e-02 -2.23199576e-02 -1.81575269e-02 1.91917531e-02
    7.29801366e-03 1.57623850e-02 -4.56872918e-02 -2.27344483e-02
    -3.72287206e-04 4.04409552e-03 -3.84471826e-02 -5.42488620e-02
    2.68505421e-02 2.68572085e-02 -1.24264415e-02 -6.05123490e-02
    -9.36844479e-03 1.78582892e-02 2.36991327e-02 -2.54734904e-02
    -3.58552560e-02 2.91798450e-03 -4.03394699e-02 -3.79529689e-03
    -4.22752127e-02 2.22668275e-02 2.80295759e-02 1.27178233e-03
    2.19692185e-04 -3.92259769e-02 8.55141785e-03 -4.97134402e-03
    -2.35563405e-02 -4.12488133e-02 -1.89819261e-02 7.88427610e-03
    2.03227084e-02 -1.88312791e-02 -5.53321131e-02 1.31601291e-02
    3.05863414e-02 1.48670068e-02 -1.12591181e-02 2.54526152e-03
    1.94950346e-02 -5.44502540e-03 -3.99033092e-02 -5.33359461e-02
    -2.20385361e-02 -1.54392570e-02 9.03676171e-03 1.49834314e-02
    1.45943742e-03 -2.34489981e-02 1.85175966e-02 1.96454693e-02
    -1.10317569e-03 1.16823604e-02 2.42528152e-02 2.35094242e-02
    5.34857390e-03 -2.39757169e-03 2.07644049e-02 6.21883897e-03
    1.79370549e-02 1.87974982e-02 6.01314008e-03 -1.34510901e-02
    -1.61805062e-03 1.95031334e-02 1.44317746e-02 -6.80808676e-04
    -2.65860511e-03 -4.13831137e-02 -4.44909260e-02 7.87142478e-03
    3.19580473e-02 1.56103922e-02 1.84633639e-02 -1.55427558e-02
    -2.17662565e-02 -1.37666799e-02 -7.24198520e-02 -1.29848709e-02
    7.17123002e-02 7.07399696e-02 2.53188536e-02 3.23856575e-03
    -3.29798758e-02 -2.38790605e-02 -2.47848709e-03 -2.43006833e-03
    1.11213708e-02 2.22664215e-02 1.07794432e-02 5.16280271e-02
    2.64274534e-02 1.50728114e-02 7.45623372e-03 -1.87777216e-03
    -3.95120122e-02 1.35641033e-02 1.05709285e-01 3.96788940e-02
    4.98453379e-02 2.69980989e-02 -1.57580674e-02 -2.01055948e-02
    -7.71939289e-04 -7.91379437e-02 1.37417288e-02 8.30858424e-02
    2.44915336e-02 3.41694383e-03 4.62072669e-04 -3.30950320e-03
    1.95345189e-02 -2.53932979e-02 -5.47109060e-02 1.68155245e-02
    4.76914793e-02 -3.04449815e-02 1.09166913e-02 -1.77779309e-02
    -5.09796198e-04 -3.12443357e-02 3.06903590e-02 -1.89534295e-02
    2.67875232e-02 9.58577245e-02 1.22288968e-02 1.86408851e-02
    1.14353914e-02 -5.39416587e-03 2.39551365e-02 1.40689425e-02
    -2.53464486e-02 4.35948893e-02 6.37812391e-02 3.04502491e-02
    1.63458288e-02 -1.44072587e-03 -1.03935534e-02 1.85959544e-02
    -1.52529473e-03 -1.58018284e-02 2.46244646e-03 4.28741276e-02
    -3.87054943e-02 -9.88940243e-03 5.44707756e-03 1.69971678e-02
    -3.68716829e-02 -6.00726809e-03 -2.27141269e-02 -2.61885151e-02
    5.24250679e-02 -1.82467755e-02 -3.33042592e-02 -4.50195037e-02
    -3.39627732e-04 -2.39065923e-02 3.18063982e-02 -2.54129712e-02
    1.48875397e-02 2.04432290e-02 -1.49023607e-02 -4.49968269e-03
    4.74029547e-03 8.71059112e-03 5.08275256e-03 2.84598842e-02
    -4.05454636e-02 -3.36981453e-02 8.47935677e-03 -1.19396057e-02
    9.63231828e-03 -1.11952180e-03 -7.49771716e-03 3.25348927e-03
    3.18699218e-02 5.13386587e-03 1.00037525e-03 3.09218504e-02
    -4.78407964e-02 -4.03640494e-02 -4.37268950e-02 1.44269066e-02
    3.42497639e-02 2.66335625e-02 1.06661273e-02 2.06117835e-02
    8.80380869e-02 -3.58392000e-02 -7.99935013e-02 -6.59564957e-02
    -1.22857345e-02 3.67397591e-02 4.46862541e-02 -3.24291340e-03
    -1.06522338e-02 4.75144945e-02 -4.70481999e-02 5.60010001e-02
    1.25834662e-02 -1.19269353e-04 7.14706909e-03 3.00752111e-02
    -8.73064622e-03 -2.30853409e-02 1.97480917e-02 -2.97344700e-02
    -1.44504523e-02 -5.34763634e-02 -3.12475972e-02 4.59865388e-03
    2.79524792e-02 3.89009714e-02 -1.25313038e-03 8.86452496e-02
    -2.22408399e-02 -5.39230965e-02 -1.68093108e-02 -1.39355613e-03
    7.32556917e-03 -5.67722460e-03 1.94476508e-02 -4.49095434e-03
    2.45639891e-03 -3.94440033e-02 -5.48926368e-03 -1.05807150e-03
    6.77223364e-03 -1.56826247e-02 1.74163450e-02 1.54589172e-02
    -5.53216902e-04 2.74848510e-02 -2.09423136e-02 2.73848837e-03
    1.77227389e-02 -2.33084240e-04 -1.84241775e-02 -1.40330102e-03
    -3.03800534e-02 -3.27673629e-02 1.65714920e-02 -1.04766963e-02
    -1.14966072e-02 1.90542694e-02 2.14006659e-02 -3.57829896e-03
    -1.54545261e-02 1.07925283e-02 4.86468412e-02 2.95977332e-02
    -2.63943858e-02 -3.63433324e-02 -1.04981745e-02 -1.18955346e-02
    -1.72630213e-02 -1.49902422e-02 1.52794058e-02 5.03468961e-02
    2.21831519e-02 -1.94951594e-02 7.05423281e-02 1.04497615e-02
    -3.58599261e-03 -2.01037452e-02 -3.23373615e-03 -2.50256583e-02
    -4.62516036e-04 2.68985163e-02 -2.34843511e-02 -4.33955975e-02
    2.10584002e-03 -1.83482643e-03 3.86925088e-03 -1.99730732e-02
    1.22314757e-02 4.40033413e-02 1.39710521e-02 -1.75031126e-02
    3.81074585e-02 -2.85035442e-03 -3.21084931e-02 -2.68218536e-02
    -3.97549197e-02 -2.27847509e-02 2.63416413e-02 2.76349131e-02
    2.34035738e-02 8.67054760e-02 4.42817993e-02 2.03659888e-02
    -4.37482968e-02 -2.67536491e-02 -5.52178686e-03 2.60766931e-02
    8.77005234e-03 -1.29333716e-02 1.79889742e-02 3.97078618e-02
    1.09557565e-02 -3.40771824e-02 -4.46932204e-02 -2.99288961e-03
    5.09658568e-02 2.82487702e-02 1.22515727e-02 8.53153840e-02
    2.97693722e-02 -3.30120139e-02 -5.48108816e-02 -2.85287332e-02
    -1.16252163e-02 3.12736072e-02 6.76354161e-03 -4.91164103e-02
    -5.96543308e-03 7.43534463e-03 4.11921972e-03 -2.80096754e-02
    1.25545748e-02 1.77893993e-02 3.93470004e-02 3.79870534e-02
    3.00035942e-02 1.57968644e-02 7.28566805e-03 -2.04365849e-02
    5.49975410e-03 4.69335094e-02 -9.86224506e-03 -3.62072662e-02
    -4.53368528e-03 1.90413129e-02 -4.63460758e-03 -1.52405221e-02
    -1.88831240e-02 2.79338118e-02 3.53256091e-02 -4.05553915e-03
    1.06344316e-02 5.26358187e-02 -3.07901520e-02 9.68036894e-03
    -1.07159633e-02 -6.79197256e-03 1.81676485e-02 5.67691289e-02
    -1.17315948e-02 -6.28489926e-02 -7.82126468e-03 -3.49511243e-02
    -5.92118427e-02 -4.22723331e-02 -1.69418938e-02 4.84472178e-02
    6.30602997e-04 -4.56165969e-02 -3.57541814e-02 6.44402206e-02
    4.28873636e-02 6.84255213e-02 1.54459095e-02 1.56070804e-02
    1.24584977e-02 -1.14256581e-02 -6.40178621e-02 -1.13104945e-02
    5.41347228e-02 1.12479553e-02 2.85668112e-02 1.43223740e-02
    1.62623860e-02 2.56387144e-03 3.13611776e-02 -2.67444048e-02
    -1.62529163e-02 3.44505645e-02 2.06101052e-02 1.67805254e-02
    -8.73945712e-04 4.59623523e-03 2.82859728e-02 -9.63022839e-03
    -4.99814115e-02 -1.44875906e-02 4.20786254e-02 1.70104932e-02
    -1.25272600e-02 2.65333559e-02 -5.68187656e-03 -9.31091048e-03
    -2.94303782e-02 -3.01572494e-02 3.97810340e-02 2.63987407e-02
    -3.31335925e-02 1.54984025e-02 4.49649729e-02 7.58930622e-03
    -3.23755555e-02 -1.18744513e-02 7.36075267e-03 1.33908754e-02
    -4.82011819e-03 2.96205971e-02 2.00063456e-02 4.72304933e-02
    -3.83088598e-03 -1.33356191e-02 -7.43871415e-03 -7.74692604e-03
    6.08728454e-03 4.47252467e-02 1.61232818e-02 3.52604166e-02
    2.11149082e-02 -2.04150937e-02 -3.07741445e-02 5.32206558e-02
    3.49927954e-02 2.41088122e-03 -2.65656449e-02 4.61379960e-02
    5.04913516e-02 2.90270038e-02 9.16092377e-03 5.57723977e-02
    -1.98864099e-02 -1.57552566e-02 -3.40836979e-02 -1.62582938e-02
    -3.95617597e-02 3.59553583e-02 3.38797569e-02 3.33090615e-03
    2.06855889e-02 -2.81414054e-02 -2.79275817e-03 -2.69740578e-02
    3.23647335e-02 -2.36083083e-02 3.67851928e-02 -1.34635018e-02
    -4.52820910e-03 -1.87447350e-02 4.32575727e-03 -2.54311110e-03
    -4.35797721e-02 -1.51061788e-02 -3.17359418e-02 2.56636515e-02
    3.08779888e-02 2.76924297e-02 5.54634444e-02 -5.30807127e-04
    4.68832860e-03 1.00853462e-02 6.10692315e-02 -1.03785461e-02
    4.20333333e-02 -6.60068169e-03 1.10194981e-02 -2.15342846e-02
    -4.50163856e-02 -1.22536505e-02 -1.87265445e-02 -5.42359753e-03
    -3.42705473e-02 8.73772148e-03 -1.59422103e-02 1.47601096e-02
    -1.18773505e-02 -4.50649597e-02 -6.05052477e-03 -3.81067842e-02
    -4.41498198e-02 2.98442859e-02 -2.39278227e-02 -4.14186902e-02
    4.61815344e-03 -2.65829023e-02 -2.84204297e-02 3.10095232e-02
    1.69833302e-02 5.52623533e-02 -4.26646061e-02 8.38569645e-03
    7.80320074e-03 3.86127345e-02 -2.35264208e-02 -1.56733510e-03
    1.98195335e-02 -2.27224994e-02 -5.34671452e-03 5.01857735e-02
    1.40644656e-02 2.30244739e-04 3.03441342e-02 -1.73014216e-02
    5.55017788e-04 1.02666381e-03 -4.18514609e-02 -4.35996465e-02
    -3.51545401e-02 -5.51144555e-02 -6.40464723e-02 5.29880123e-03
    -4.49822284e-03 2.40088720e-02 -1.87667869e-02 -2.46010665e-02
    4.20392975e-02 -4.22568107e-03 1.85215361e-02 -6.20888993e-02
    1.95825212e-02 1.51276756e-02 5.37281763e-03 3.25200781e-02
    -3.54905091e-02 -1.18957376e-02 1.57765404e-03 -3.39100068e-03
    -2.92360988e-02 7.18921842e-03 -1.77834220e-02 2.99450830e-02
    1.63872838e-02 -1.51371723e-03 4.41266336e-02 -1.08172335e-02
    2.35964321e-02 -2.57800948e-02 1.70817394e-02 3.01128756e-02
    2.34900159e-03 -3.00543625e-02 -2.93074455e-02 2.57824156e-02
    -2.44886447e-02 2.90538631e-02 -2.86981482e-02 1.90732889e-02
    1.12877144e-02 -9.78554133e-03 -1.13343578e-02 -2.04634406e-02
    6.06821701e-02 -1.39116484e-03 3.66696483e-03 -7.04925926e-03
    -5.12370002e-03 -1.06901582e-02 -2.63913125e-02 -3.56573351e-02
    -2.25512162e-02 1.36974351e-02 -1.71620697e-02 1.87771004e-02
    2.69321818e-03 3.63212861e-02 3.45540866e-02 -2.53607519e-02
    -4.49516624e-02 -1.75679419e-02 5.15058003e-02 2.76411092e-03
    -5.30125163e-02 1.02563277e-02 1.39838653e-02 2.41749901e-02
    2.68161646e-03 2.37197578e-02 -4.05527512e-03 4.33886126e-02
    -2.96130078e-03 3.31854238e-03 -2.14259736e-02 -3.73928547e-02
    -1.02336174e-02 -1.06803337e-02 -7.01454468e-03 -6.95471978e-03
    4.14090324e-03 -6.98977197e-03 -3.40147340e-03 -1.44398222e-02
    -9.36933421e-03 2.91762408e-03 4.18508686e-02 1.20536005e-02
    -2.10710540e-02 3.51649188e-02 2.60157324e-02 -2.58247945e-02
    2.19746283e-03 -1.67126339e-02 1.27949510e-02 1.48479678e-02
    1.87092572e-02 -2.36892272e-02 2.01613195e-02 -1.10811749e-02
    2.00121105e-02 -1.53813260e-02 -3.42469811e-02 -4.16296385e-02
    -2.44165640e-02 -2.47750618e-02 -5.45829860e-03 1.32826436e-02
    1.27172600e-02 6.47570118e-02 9.01185349e-03 -7.09477765e-03
    1.91643629e-02 2.49077752e-03 -2.25711875e-02 -6.09119702e-03
    5.25473356e-02 -2.27361787e-02 3.93043794e-02 1.11231068e-02
    -2.61722207e-02 1.38071831e-02 5.02098072e-03 -1.04810568e-02
    4.74103121e-03 3.45438309e-02 4.57575284e-02 8.28994438e-02
    1.70513801e-03 -1.79889817e-02 -2.23563053e-02 -4.84100950e-04
    -2.02575773e-02 -8.34264234e-03 5.52936122e-02 9.92364902e-03
    3.91437672e-02 6.83161896e-03 -1.63435433e-02 6.17742026e-03
    1.28963739e-02 -1.21662440e-02 1.73899829e-02 4.74161021e-02
    -5.53160198e-02 -1.51961436e-02 -1.84929930e-02 -1.23717608e-02
    3.38698998e-02 -6.81862049e-03 -2.14432226e-03 1.12424633e-02
    5.87866530e-02 -2.00864747e-02 -1.38009805e-02 -1.80054046e-02
    -1.47284260e-02 2.28558052e-02 -3.47263226e-03 -2.27071978e-02
    3.58416769e-03 4.59724814e-02 -2.52787471e-02 2.17472222e-02
    8.25681537e-03 1.66979767e-02 2.96324026e-02 1.55928708e-03
    -3.06331292e-02 -3.40701230e-02 6.11147918e-02 -9.04436980e-04
    1.91955194e-02 -1.91973038e-02 2.65895668e-02 1.67415477e-02
    5.21087553e-03 1.98534541e-02 3.37305851e-02 3.84914391e-02
    -2.09691245e-02 -2.79458780e-02 6.35404605e-03 2.57965103e-02
    -2.20968015e-03 1.14240656e-02 -9.26787034e-03 -2.60522142e-02
    -6.32239133e-03 -1.14157805e-02 2.26811343e-03 -1.28902374e-02
    -2.40227375e-02 -2.12945491e-02 2.41018645e-02 2.14441903e-02
    1.90313943e-02 2.79065222e-02 2.94959941e-03 -5.44210337e-03
    8.00798461e-03 5.49683906e-02 2.56366506e-02 1.87716968e-02
    -7.18495518e-04 -1.41327027e-02 -1.08683025e-02 -6.07107906e-03
    -8.58002284e-04 -2.91827638e-02 1.95853208e-04 1.05418395e-02
    3.94529961e-02 7.08541181e-03 -1.89873427e-02 1.91973615e-02
    -3.51235718e-02 3.53454389e-02 -1.58959236e-02 -1.84967872e-02
    -4.94489272e-04 8.89027305e-03 2.67655533e-02 -1.19992476e-02
    3.77416909e-02 -4.77454774e-02 -2.80776918e-02 -6.15780540e-02
    -4.00362425e-02 -1.54856555e-02 2.14603841e-02 1.75132789e-02
    -1.84846930e-02 1.38400830e-02 -9.90822259e-03 1.35311224e-02
    2.44282279e-03 -1.04863234e-02 1.40675837e-02 2.67885230e-03
    2.81191878e-02 -1.30778588e-02 -3.85542749e-03 -4.94158752e-02
    -5.39174303e-02 -2.57561449e-02 -3.04185785e-02 -1.81460194e-02
    -1.98405748e-03 2.66950596e-02 2.13372521e-02 4.09240536e-02
    -3.46129052e-02 -8.79192259e-03 -1.30759319e-02 -2.01970711e-02
    -3.94141935e-02 -2.06185617e-02 -1.03366310e-02 -4.11043642e-03
    3.31017077e-02 -2.29758471e-02 -4.57738340e-03 1.91003885e-02
    1.35865966e-02 -1.94513388e-02 -1.19630089e-02 6.68495055e-03
    -4.48735990e-03 -3.08209169e-03 -6.41282182e-03 -2.28778948e-03
    1.69054456e-02 -5.46877179e-03 -3.19255888e-02 -2.43535056e-03
    7.83361122e-03 5.46881780e-02 5.69136627e-02 -1.72501877e-02
    1.27831521e-02 1.76587272e-02 7.34948693e-03 -1.75094567e-02
    -3.78759429e-02 -7.48526398e-03 2.18881499e-02 2.03317888e-02
    -2.99477037e-02 -3.60694453e-02 -1.05355131e-02 4.37230151e-03
    -1.42492484e-02 -4.61028740e-02 -5.56629710e-03 1.77978948e-02
    -3.39514017e-02 -2.74749435e-02 1.53256915e-04 2.66345181e-02
    -1.58126233e-03 -3.72659089e-03 2.97337165e-03 3.03378459e-02
    4.34349403e-02 2.23311782e-02 -3.98798659e-02 -1.12497890e-02
    -4.11658874e-03 1.81601625e-02 4.88150306e-03 1.25391558e-02
    3.77012938e-02 7.41463795e-04 -7.22779259e-02 -4.50380929e-02
    -8.75383802e-03 2.34448891e-02 1.26379244e-02 -5.94798848e-03
    -6.01061843e-02 -1.01151492e-03 6.90913498e-02 3.07650678e-02
    4.26648334e-02 6.50958791e-02 5.21367677e-02 3.23588797e-03
    -5.63993156e-02 -5.75907119e-02 -1.47661828e-02 3.49352099e-02
    5.31750172e-03 -1.28238620e-02 2.59678029e-02 2.41935588e-02
    4.18216921e-02 -2.76459306e-02 -5.43284304e-02 -2.37058681e-02
    3.57841626e-02 -1.22635411e-02 -3.86300823e-03 2.14794055e-02
    -3.70838097e-03 -6.90653827e-03 -7.08782002e-02 -8.51550698e-02
    -3.37146968e-02 2.82877777e-02 1.30390050e-02 7.46524020e-04
    3.45300743e-03 2.54554562e-02 7.55449990e-03 -6.74291253e-02
    -1.18098576e-02 5.08592278e-03 1.30206905e-02 3.38148922e-02
    -2.43224967e-02 -1.41416071e-02 1.51218544e-03 2.06717681e-02
    1.28470818e-02 2.30694693e-02 8.40237364e-03 -3.20278332e-02
    1.52314845e-02 8.67767539e-03 -1.72504261e-02 -3.74590270e-02
    -1.95523053e-02 -1.74847466e-03 -2.01669093e-02 9.81316250e-03
    5.60919335e-03 6.37021498e-04 2.18388177e-02 -1.76785551e-02
    -7.30038015e-03 9.34175961e-03 -2.07494944e-02 3.13018672e-02
    1.18611897e-04 -5.82732670e-02 3.20904749e-03 5.69959879e-02
    -2.40743980e-02 -7.57044107e-02 -4.18342389e-02 1.75262745e-02
    2.53165122e-02 -3.24831121e-02 -1.76141933e-02 2.36515049e-02
    2.93797459e-02 4.31032293e-02 6.59706723e-03 6.87895343e-03
    2.44807615e-03 3.77293956e-03 -2.02040207e-02 5.43776387e-03
    2.01901160e-02 -4.05558059e-03 1.27236806e-02 5.29219694e-02
    1.47196874e-02 -1.15942294e-02 2.61434838e-02 -9.46046785e-03
    -4.68215309e-02 1.08055472e-02 6.81256950e-02 3.37231308e-02
    -3.10403518e-02 -2.22584307e-02 3.73544381e-03 -2.25971024e-02
    3.36791668e-03 5.30588850e-02 3.61333461e-03 -2.65996344e-03
    5.20853661e-02 6.16669990e-02 1.29316254e-02 -4.36682301e-03
    -5.78206871e-03 -4.00600070e-03 1.26091558e-02 -1.22076683e-02
    -2.96656601e-02 2.35370416e-02 3.41865830e-02 6.86461630e-04
    -2.44679991e-02 2.81918794e-02 3.31864972e-03 -1.77774988e-02
    -3.36122252e-02 5.57618625e-02 5.94347417e-02 3.34870368e-02
    8.69628601e-03 2.99068168e-02 -2.63329577e-02 2.81184558e-02
    9.59833935e-02 -2.83057913e-02 -2.93440726e-02 3.59762572e-02
    3.97054851e-02 -2.17288975e-02 -3.72329466e-02 -6.01244578e-03
    1.55528672e-02 6.31985068e-02 1.99671509e-03 4.52442393e-02
    6.23790659e-02 3.26702930e-02 -3.16322828e-03 -2.04672348e-02
    -4.75319801e-04 -2.62605529e-02 -4.82196659e-02 -5.22049107e-02
    -5.74725457e-02 -5.74225234e-03 1.98320728e-02 4.17613871e-02
    3.98215316e-02 -3.36823389e-02 -4.01008734e-03 9.52110626e-03
    -4.07428481e-03 -4.18274552e-02 -2.96690734e-03 2.71654152e-03
    5.47653511e-02 1.06066559e-02 4.93417075e-03 -1.82336345e-02
    -1.12762842e-02 -5.79510666e-02 -2.52605285e-02 -9.30182077e-03
    -4.17681597e-03 3.98741253e-02 2.02750470e-02 -1.19173322e-02
    8.88575707e-03 9.15878825e-03 -3.55232097e-02 -1.34679601e-02
    2.30798144e-02 1.22152213e-02 5.74612319e-02 3.83812003e-02
    -5.70168756e-02 1.58641506e-02 1.26039227e-02 1.28808916e-02
    -6.44399133e-03 -1.11846840e-02 8.76215938e-03 2.66389102e-02
    -1.37475561e-02 -4.30349037e-02 4.09362488e-04 -6.02387413e-02
    9.33854189e-03 3.01183686e-02 -2.97351796e-02 1.61853433e-02
    6.90524653e-03 -2.87931412e-02 -4.12085392e-02 1.82718765e-02
    9.68612824e-03 1.57869700e-02 -6.61384547e-03 3.61707844e-02
    4.87195402e-02 3.02066226e-02 3.73399816e-03 -4.42562066e-02
    -2.04402134e-02 -3.78091522e-02 -1.02725700e-02 1.60120707e-02
    2.21953075e-02 6.64791241e-02 -2.93843541e-03 -1.39988167e-03
    -1.78297143e-02 7.90378451e-03 -2.77916621e-02 2.88717658e-03
    -6.53775316e-03 -3.20641650e-03 7.45559344e-04 1.25149768e-02
    -4.09356318e-02 1.17301876e-02 2.34026536e-02 -1.24341547e-02
    5.45325093e-02 -2.73035970e-02 3.69172655e-02 1.44918710e-02
    2.27126107e-02 1.70083307e-02 -2.24373061e-02 -9.49379429e-03
    -1.95255857e-02 -3.26052401e-03 -2.58489102e-02 -5.23826014e-03
    5.61637804e-02 1.19823888e-02 -4.25446220e-03 5.20324660e-03
    -6.37843553e-03 -2.61313803e-02 6.54445514e-02 1.45496968e-02
    1.89844500e-02 3.51075009e-02 3.07057463e-02 -1.87622868e-02
    1.56879909e-02 -1.97101338e-03 -3.44170928e-02 -1.11283315e-02
    -6.83898106e-02 -1.78515092e-02 1.97342727e-02 4.35615368e-02
    3.52972448e-02 1.93051007e-02 -1.46470321e-02 -1.42811388e-02
    8.01346451e-03 -2.30394714e-02 -1.92970447e-02 2.30865683e-02
    2.58166585e-02 7.31209368e-02 3.04944105e-02 1.55848293e-02
    -4.38324884e-02 2.45634336e-02 -6.27217516e-02 -5.09098470e-02
    -2.50316295e-03 7.72211747e-03 4.44692932e-03 4.19892557e-02
    2.24807430e-02 -1.58560723e-02 8.17383546e-03 7.93589687e-04
    -6.99841464e-03 3.74125764e-02 -6.53719017e-03 4.09054235e-02
    9.38740186e-03 -2.25876831e-03 -1.89693850e-02 7.10679172e-03
    -8.76311120e-03 7.36682490e-03 6.84397947e-03 -2.01818440e-02
    1.58515275e-02 1.15371477e-02 1.07342200e-02 -2.04920489e-02
    -7.91949965e-03 -1.75441056e-02 3.00923758e-03 -7.20462436e-03
    -3.38807814e-02 -3.13751549e-02 2.26560459e-02 2.54423358e-03
    -1.17203901e-02 -1.40617499e-02 -1.31957317e-02 3.42316441e-02
    3.03318873e-02 -8.31381418e-03 1.80354808e-02 1.24169858e-02
    1.35530923e-02 -8.88708699e-03 -1.73819102e-02 3.52170411e-03
    3.19199413e-02 2.27447622e-03 -2.54557636e-02 1.38753857e-02
    2.55590994e-02 1.30744828e-02 1.71848070e-02 1.07811885e-02
    3.17659252e-03 2.83868564e-03 -1.74632166e-02 -1.46355219e-02
    1.06265014e-02 -2.08951999e-03 -2.06486415e-02 -5.44447917e-03
    8.22471746e-04 -2.27124076e-02 -2.00071409e-02 -1.13364495e-02
    -6.85625384e-03 3.64559609e-03 1.93492305e-02 3.19196396e-02
    2.10747477e-02 1.14931688e-02 5.63684211e-04 3.05985939e-02
    1.51276588e-02 -5.04952483e-03 3.83008644e-02 -8.33790470e-03
    1.57688428e-02 8.82390887e-03 2.41974276e-02 -3.77785228e-02
    -2.58471351e-02 1.08886175e-02 -2.16478342e-03 -6.75075501e-03
    -1.55262202e-02 -2.75171772e-02 1.52666252e-02 4.05669352e-03
    -4.08885181e-02 -1.20807048e-02 4.42660879e-03 7.53270090e-03
    6.48604752e-03 1.21551557e-02 -2.38647480e-02 -2.27865949e-02
    1.60052143e-02 4.43045311e-02 -1.63841189e-03 -2.36663874e-02
    -8.29338969e-05 2.25171889e-03 7.14462297e-03 2.49731727e-02
    4.09897752e-02 2.81811487e-02 -7.13681653e-02 -4.03230153e-02
    -1.99174020e-03 1.32167442e-02 1.31238613e-03 2.98733823e-03
    -1.12066800e-02 6.58438192e-04 1.60404462e-02 -4.30805655e-03
    -2.94948481e-02 -1.67281777e-02 6.01242390e-03 6.11971952e-02
    1.70113649e-02 2.49956418e-02 -1.30307041e-02 -1.46523742e-02
    3.96611206e-02 -1.97462668e-03 -2.19447678e-03 2.81242337e-02
    1.06495060e-02 -4.98478953e-03 -6.72113209e-04 -1.89318787e-02
    -5.05987108e-02 -3.20563056e-02 -3.47609147e-02 -2.58527324e-02
    7.13878917e-03 8.07533693e-03 3.57112288e-02 1.17556481e-02
    -9.55197960e-03 1.57060213e-02 1.50518203e-02 -2.02446003e-02
    -1.11313527e-02 2.52953544e-02 5.08247800e-02 -1.82291772e-02
    1.51523314e-02 1.07917069e-02 -2.11702827e-02 3.89102357e-03
    -3.50156911e-02 -5.41992746e-02 -3.61254811e-02 -1.36722717e-02
    1.30136972e-02 -6.23427937e-03 2.22548842e-02 2.15969812e-02
    -1.23257609e-02 9.75518208e-03 -1.78079796e-03 1.09442640e-02
    3.19374092e-02 5.08346222e-03 1.00781384e-03 1.06113898e-02
    -4.63149836e-03 -3.12988125e-02 -2.18615942e-02 7.94568565e-03
    9.14728362e-03 5.99106448e-03 6.59264275e-04 -2.46570632e-03
    1.22274272e-02 8.54144059e-03 3.91315622e-03 2.73231212e-02
    -1.40829897e-03 4.69885441e-03 2.18647569e-02 -2.11463496e-02
    -7.12979445e-03 -9.78335459e-03 -3.26190516e-02 -4.81379069e-02
    -1.05525656e-02 2.85718846e-03 1.83085315e-02 3.76525312e-03
    -2.35244315e-02 9.66049917e-03 2.61988379e-02 -4.34952183e-03
    -3.88717279e-02 -2.63261460e-02 1.36500634e-02 2.26247031e-02
    -2.16424540e-02 -1.42933335e-02 -1.32716983e-03 4.22330387e-02
    5.40771298e-02 -3.77480984e-02 1.31846042e-02 1.94368437e-02
    3.20871882e-02 -4.76666307e-03 -1.74225140e-02 -8.50107428e-03
    3.01770084e-02 3.08385547e-02 -2.22054236e-02 -8.20408203e-03
    2.93586440e-02 1.74130909e-02 -1.65753700e-02 5.21390047e-03
    -2.03888807e-02 -7.03886792e-04 3.57755125e-02 -4.35960516e-02
    1.31897535e-02 -2.58306600e-03 -1.05951037e-02 -3.24435011e-02
    5.83909638e-03 1.07809640e-02 4.36300188e-02 4.86047417e-02
    -4.03166190e-02 1.25446822e-02 -5.01930900e-03 9.26722120e-03
    2.03020051e-02 -1.74183329e-03 7.14135962e-03 3.44268582e-03
    -2.83155646e-02 -4.62212712e-02 4.63943463e-03 2.92097265e-03
    6.13403460e-03 -2.56024580e-02 4.57431227e-02 9.95684066e-04
    3.41953500e-03 2.50454131e-03 -4.10253555e-02 2.01397706e-02
    5.26474044e-03 6.57396216e-04 -1.18952878e-02 5.06371781e-02
    2.97222566e-02 -8.98480136e-03 -6.50463924e-02 -2.23305114e-02
    1.00762760e-02 -1.04799625e-02 -3.47991544e-03 -2.12819073e-02
    -3.83510068e-02 -1.92739982e-02 -4.57002036e-03 -3.76696000e-03
    2.26315521e-02 2.51343083e-02 4.07007560e-02 2.24419050e-02
    -4.82320487e-02 -4.75590080e-02 1.21987332e-02 4.72960807e-02
    4.50273929e-03 1.08375587e-02 1.70270819e-02 5.78406975e-02
    2.67206002e-02 -5.57416603e-02 -7.05000013e-02 2.03637853e-02
    1.68118216e-02 -3.39524413e-04 2.89968513e-02 1.74815990e-02
    1.61195267e-02 -1.87322311e-02 -8.73439461e-02 -6.70518577e-02
    3.16041186e-02 1.42605128e-02 1.74515452e-02 -1.87771465e-03
    -1.23286992e-02 2.46038809e-02 -1.18034869e-03 -9.99401063e-02
    -6.57894090e-03 1.50201824e-02 -1.64477695e-02 -1.05184689e-02
    2.63067577e-02 -1.73906591e-02 1.65508930e-02 3.92176472e-02
    7.29661528e-03 2.55060308e-02 6.03266672e-05 -7.61307552e-02
    -2.34729145e-02 2.42883191e-02 -2.73044687e-02 -5.39910756e-02
    3.96133214e-03 2.17821561e-02 1.67520647e-03 1.67627875e-02
    -1.30056767e-02 4.44879085e-02 2.34020548e-03 -1.34007428e-02
    -2.71789860e-02 2.63744574e-02 -1.85868163e-02 1.93103496e-02
    -1.99109036e-02 -5.19496687e-02 9.76051670e-03 -4.38898848e-03
    -3.34197432e-02 -7.54243284e-02 -6.93413895e-03 1.84393469e-02
    -6.55344455e-04 -2.11419966e-02 -5.73409684e-02 -4.76068771e-03
    5.37099279e-02 4.41333726e-02 2.09111557e-03 7.89285265e-03
    -4.76265186e-03 1.09739369e-02 -1.15316715e-02 2.33794805e-02
    6.64368179e-03 3.77919860e-02 6.83792010e-02 5.16831093e-02
    -5.84336137e-03 5.43405861e-03 6.64150750e-04 -5.69506362e-02
    -5.16274571e-02 7.35445414e-03 1.10294083e-02 2.14884616e-02
    4.48979530e-03 9.01786145e-03 2.22641286e-02 1.31731080e-02
    -1.79770160e-02 2.33537126e-02 6.60739988e-02 7.98692033e-02
    4.08854522e-02 3.52911204e-02 2.14550877e-03 2.11886559e-02
    -3.10350526e-02 -2.67027058e-02 3.91086265e-02 -2.45768521e-02
    -6.98263571e-03 2.90818978e-02 3.85124274e-02 -3.18048261e-02
    -2.77799498e-02 -1.53501565e-02 4.77549806e-03 1.45742577e-02
    1.12468349e-02 4.43988927e-02 2.89891660e-02 5.81664704e-02
    9.01718065e-03 1.87822562e-02 -1.13523891e-02 7.12150056e-03
    5.95946722e-02 7.33378902e-02 6.95368350e-02 -7.81160663e-04
    -2.13200543e-02 -6.69899955e-02 -2.34921090e-02 7.60364253e-03
    1.04831662e-02 4.34766449e-02 8.51902366e-02 4.65250686e-02
    4.25868435e-03 3.11885644e-02 9.25972499e-03 1.94453150e-02
    1.50368027e-02 4.19744896e-03 -2.74645966e-02 -4.97062840e-02
    -4.77880351e-02 -1.52997319e-02 1.82841253e-02 4.43967804e-02
    4.83780541e-02 1.62204111e-03 2.72036642e-02 -1.75949074e-02
    -2.33235918e-02 -2.76562497e-02 4.36857622e-03 -2.60139424e-02
    -4.91700834e-04 1.69607811e-02 2.17972584e-02 3.81399281e-02
    -1.46787213e-02 -2.12479811e-02 -8.32210407e-02 -2.24366970e-02
    3.92954610e-02 5.28059117e-02 4.66129892e-02 1.33950477e-02
    4.26400416e-02 2.06525326e-02 -7.48805748e-03 -6.80550486e-02
    3.25293443e-03 1.12454537e-02 -6.91219175e-04 5.38383890e-03
    -2.40425207e-02 3.37491781e-02 1.58534385e-02 1.67572778e-02
    -8.27842113e-03 1.02826878e-02 8.65629874e-03 -7.48329796e-03
    7.57556502e-03 1.43171311e-03 1.52977812e-03 3.41682782e-04
    -9.48386267e-03 -2.24142224e-02 2.78999545e-02 5.69928959e-02
    9.53536574e-03 5.13562979e-03 -1.07277296e-02 2.79557090e-02
    8.61649495e-03 1.88731365e-02 -1.89737715e-02 1.19902762e-02
    1.68385599e-02 2.06686612e-02 1.07673490e-02 8.22577451e-04
    1.55484751e-02 1.05644390e-02 -1.52645428e-02 -2.46858150e-02
    1.18151205e-02 2.73258761e-02 1.05431641e-03 2.12333892e-02
    1.30459946e-02 -1.69641357e-02 -6.51365845e-03 -5.03703905e-03
    -1.73668228e-02 7.15638138e-03 5.67482971e-02 3.18061635e-02
    2.34344825e-02 9.70801618e-03 -1.70297921e-02 -3.11227087e-02
    3.35850418e-02 1.40660657e-02 7.49225123e-03 2.90495753e-02
    6.74068555e-02 7.53109297e-03 -9.44572967e-03 -2.41487497e-03
    -1.23137925e-02 -1.99521352e-02 -3.36285606e-02 4.34980867e-03
    4.37385328e-02 1.90203730e-02 -4.77415975e-03 6.99484581e-03
    2.14222092e-02 -4.46886085e-02 1.72325280e-02 2.81194989e-02
    2.39257719e-02 2.98828259e-02 2.79743932e-02 -2.01150831e-02
    8.15598294e-03 -2.77634570e-03 -5.20222448e-02 2.38261167e-02
    -3.25582698e-02 -2.88715828e-02 8.95743724e-04 2.58364286e-02
    2.12980825e-02 2.39491779e-02 -2.67939363e-03 -2.63373032e-02
    1.33868679e-02 2.41359305e-02 8.91368184e-03 1.84777435e-02
    -1.47781055e-02 1.06836278e-02 3.66887660e-03 8.62197077e-04
    -6.47745356e-02 -5.10355597e-03 -4.73278062e-03 -6.47503231e-03
    -1.54066470e-03 3.35607193e-02 1.71519388e-02 2.87100766e-02
    -4.05154470e-03 -3.42601128e-02 1.60791900e-03 3.29869986e-02
    3.37848403e-02 3.01902704e-02 2.26445980e-02 1.36140166e-02
    2.85646617e-02 -2.95834746e-02 -1.94164440e-02 -7.20583461e-03
    -1.21726776e-02 1.91377457e-02 5.20524308e-02 1.19665137e-03
    1.68392751e-02 2.26228349e-02 -3.12505849e-02 -3.39401141e-02
    -5.77196898e-03 1.45232677e-02 4.34759520e-02 3.45435180e-02
    -2.04396695e-02 1.41635193e-02 3.86601221e-03 -1.44593269e-02
    -5.06263645e-03 -9.01365711e-04 -1.53110799e-04 8.80473573e-03
    3.34810875e-02 2.23137215e-02 -1.06088780e-02 -2.33469307e-02
    -5.52084893e-02 -2.74837986e-02 3.09701380e-03 -1.44892260e-02
    3.90838310e-02 2.59267818e-03 -4.83204611e-02 -2.38042008e-02
    6.57830853e-04 -1.74345933e-02 -6.61378773e-03 -2.72654332e-02
    -2.77178418e-02 2.80903392e-02 1.38287721e-02 1.72832108e-03
    3.08636371e-02 3.42960353e-03 -4.77370853e-03 -1.28047569e-02
    2.56560855e-02 -1.84265303e-03 -3.05739660e-02 -8.16980377e-03
    -2.94178165e-02 -4.34639072e-03 -1.14254244e-02 -2.37422474e-02
    -2.58681681e-02 -1.83007214e-02 -1.96381547e-02 4.21470366e-02
    1.92792211e-02 -3.66898291e-02 1.39267314e-02 -1.65970402e-03
    -3.17088924e-02 -7.49952421e-02 4.11572419e-02 1.65328383e-02
    -1.12226857e-02 -2.45715305e-02 -4.09235619e-02 1.39077855e-02
    1.28768943e-02 6.42920285e-03 1.62326545e-02 1.47504108e-02
    -1.24720531e-03 -2.22496130e-02 6.86005736e-03 1.34047372e-02
    1.45686166e-02 -3.64782736e-02 -6.14852495e-02 1.53462803e-02
    3.99636012e-03 3.85367796e-02 -1.29492842e-02 -1.49579216e-02
    1.70957241e-02 5.66856051e-03 4.71272320e-02 -3.06814276e-02
    -6.16880953e-02 1.29455458e-02 3.75207365e-02 -1.31682931e-02
    -2.48438232e-02 -2.96084601e-02 3.04723661e-02 5.11779357e-03
    -6.54503256e-02 -2.89245378e-02 -3.07811610e-02 2.87203435e-02
    -2.47213822e-02 -3.61599661e-02 -3.47865634e-02 9.23052803e-03
    1.16818268e-02 -1.63149536e-02 1.73616353e-02 2.50631180e-02
    2.62939539e-02 -4.80951965e-02 -5.25671467e-02 2.02491917e-02
    3.48289497e-02 -1.75644923e-02 -5.74072078e-03 3.94185260e-03
    -7.29349768e-03 2.63366438e-02 -3.85252424e-02 -7.05611333e-02
    -1.83006190e-02 -1.69164762e-02 2.51348279e-02 6.30928529e-03
    1.61464382e-02 -1.77401621e-02 -4.35347930e-02 -6.42025024e-02
    -6.31102175e-02 -4.42604907e-03 4.11112718e-02 7.45238969e-03
    -1.40881967e-02 5.68447914e-03 -3.16386409e-02 -4.17383164e-02
    -5.37024364e-02 -5.37371114e-02 1.86006408e-02 1.43487453e-02
    3.16841225e-03 -5.91438916e-03 2.28564199e-02 1.41845050e-03
    3.98891047e-02 1.77162979e-02 -2.02927906e-02 8.33018031e-03
    8.82270932e-03 -1.31113743e-02 -3.48199531e-03 -5.53649012e-03
    -4.52567227e-02 -3.66215110e-02 -1.25766275e-02 -2.77744625e-02
    -1.92199778e-02 -1.35310097e-02 1.97551157e-02 -2.57640798e-02
    4.08721715e-02 1.81475170e-02 4.15773736e-03 -1.24650234e-02
    -2.84269806e-02 4.19494249e-02 4.20894586e-02 -2.28213686e-02
    -4.91017997e-02 -2.53418065e-03 -2.97323614e-02 -3.21786590e-02
    -7.01031822e-05 -2.20822636e-02 6.76490832e-03 1.72602516e-02
    -3.53669212e-03 1.20737273e-02 -1.57518615e-03 -1.23366406e-02
    2.52961717e-03 -8.30326136e-03 -2.67250482e-02 -3.41473445e-02
    -1.77141856e-02 -1.79734454e-03 1.33347530e-02 2.60387752e-02
    3.40207592e-02 -2.70064529e-02 3.87639436e-03 -1.49655323e-02
    -3.40533033e-02 -3.81474607e-02 -1.19225914e-03 -4.90450347e-03
    1.71182342e-02 -1.12185180e-02 -1.08568575e-02 6.63733669e-03
    -8.32014252e-03 -1.08698532e-02 1.61897019e-03 3.28751747e-03
    3.44062410e-03 8.45266785e-03 8.57344735e-03 -5.70663437e-02
    -2.55407374e-02 -2.63487175e-02 -3.89741398e-02 -2.38315854e-02
    2.65559126e-02 2.60418095e-02 1.66266635e-02 -9.71484813e-04
    -1.74345262e-02 2.21027643e-03 -1.83455665e-02 -5.25788702e-02
    -4.07117344e-02 1.50339277e-02 3.96627709e-02 2.00319178e-02
    -7.70740071e-03 -2.03277376e-02 8.09964316e-04 -1.59415025e-02
    -4.57977057e-02 -4.67716008e-02 -5.26687875e-03 7.58064305e-03
    -2.40369560e-03 -1.83302257e-02 -1.86564419e-02 2.50367541e-02
    -1.51711432e-02 -5.01556247e-02 -3.59403640e-02 9.33509041e-03
    3.43257785e-02 3.03891823e-02 -3.65677918e-03 -1.19269090e-02
    1.56279448e-02 -1.22716492e-02 -1.35489469e-02 -1.87674034e-02
    -3.98399122e-02 2.09258273e-02 1.77243799e-02 1.39566399e-02
    1.39222518e-02 4.28063199e-02 2.51998007e-02 1.35763045e-02
    -5.78982607e-02 -1.86606776e-02 3.12293824e-02 2.07888465e-02
    9.46080592e-03 -2.74790712e-02 -1.30437640e-03 2.87981685e-02
    4.80140224e-02 -1.05033210e-02 -2.89896075e-02 -1.80563163e-02
    1.49916010e-02 4.52314392e-02 2.10904069e-02 3.05081792e-02
    4.10949998e-02 3.19470814e-03 -5.71636669e-02 -6.85014483e-03
    4.54724841e-02 4.02491167e-02 3.18827778e-02 -3.78793366e-02
    -4.58016507e-02 1.97684299e-03 -8.35189782e-03 -4.09327000e-02
    1.77380368e-02 3.35820392e-02 -1.77929911e-03 1.19046671e-02
    -1.09531749e-02 -1.62059553e-02 -1.01348935e-02 4.88795713e-03
    1.07767321e-02 3.44957672e-02 -6.42443728e-03 -3.20155099e-02
    2.75179814e-03 4.70036866e-05 3.27872224e-02 -3.07438094e-02
    -4.99212146e-02 3.14602815e-02 1.37742423e-02 3.42300162e-02
    2.00919695e-02 -8.45101289e-03 -5.13345413e-02 -4.95182537e-02
    -5.67442439e-02 -3.44989263e-02 -8.68721027e-03 4.16601375e-02
    -3.45324329e-03 1.30591979e-02 5.90863898e-02 -1.88205186e-02
    5.84408175e-03 -3.25098485e-02 -4.30214927e-02 1.00959912e-02
    1.09382793e-02 -4.79802862e-02 -3.76201347e-02 1.58340372e-02
    -2.15230845e-02 2.51257326e-02 5.90418000e-03 -2.07676962e-02
    1.88494269e-02 2.83252988e-02 -3.44693288e-02 1.79242957e-02
    3.25924233e-02 1.46101796e-04 1.05468871e-03 3.20875309e-02
    2.29191501e-02 5.32528386e-02 5.91021068e-02 -2.19689612e-03
    4.11490984e-02 8.19946080e-02 5.25138807e-03 2.40529235e-02
    4.14255960e-03 -3.17977020e-03 7.55300466e-03 2.72272956e-02
    7.42172403e-03 7.97385648e-02 7.00798556e-02 3.57874818e-02
    8.31237820e-04 1.11943018e-02 1.11870514e-02 4.65067215e-02
    -9.23446845e-03 -2.38330401e-02 2.36122794e-02 1.63608007e-02
    -9.77232214e-03 2.81601190e-03 1.04053959e-03 -2.10391153e-02
    3.85653824e-02 -3.02991201e-03 -2.11840682e-02 1.27915293e-02
    6.49094954e-02 2.96495296e-02 1.60525348e-02 7.41384178e-03
    1.37820970e-02 2.44999919e-02 -1.55570246e-02 8.64738133e-04
    4.31429446e-02 2.31634043e-02 3.20047811e-02 1.38132423e-02
    -2.01102942e-02 -5.68404421e-02 -1.37077505e-02 2.55544540e-02
    4.43513691e-02 6.40375391e-02 8.54837671e-02 8.07326436e-02
    4.54457514e-02 1.27384318e-02 -1.69973280e-02 -2.16608830e-02
    5.19423001e-03 1.05884708e-02 -2.06014384e-02 -1.49421701e-02
    -4.72767428e-02 2.36785226e-02 5.14836088e-02 4.82109115e-02
    3.43786925e-02 -2.26409268e-03 3.64171825e-02 -1.34711377e-02
    -1.15979845e-02 -2.27460656e-02 6.91069523e-03 3.21019813e-02
    5.02684973e-02 6.77025970e-03 3.08748055e-02 6.55390397e-02
    4.41530347e-03 8.91343784e-03 -3.62427197e-02 -1.39473584e-02
    9.43719316e-03 2.12904606e-02 -6.07055728e-04 3.90089415e-02
    7.18676522e-02 -5.37508028e-03 -1.48385838e-02 -6.43722042e-02
    -2.03284211e-02 1.88755943e-03 2.67914012e-02 -1.35085611e-02
    -3.96097973e-02 -2.14756131e-02 -2.15949602e-02 -3.14981234e-03
    1.80425588e-02 2.32248846e-02 2.81094406e-02 4.79507893e-02
    -4.93849115e-03 -1.43855698e-02 -1.45860473e-02 -2.31607277e-02
    -2.71129292e-02 -1.31821102e-02 7.31144287e-03 2.65320074e-02
    3.95954140e-02 -1.01519227e-02 -2.03004014e-03 5.12659401e-02
    3.53522338e-02 1.32153751e-02 -2.18660012e-03 1.16046807e-02
    9.45083704e-03 -1.20017342e-02 -2.49982141e-02 -1.22805871e-02
    1.76375099e-02 1.59253068e-02 -1.88370738e-02 3.63750681e-02
    2.95722652e-02 3.88539061e-02 -3.81106482e-04 -3.34922336e-02
    -1.76197570e-02 3.88791831e-03 -1.29835289e-02 5.59949689e-03
    1.35412365e-02 2.53744051e-02 2.62423325e-02 4.08923626e-02
    -1.43560506e-02 2.04584412e-02 3.18837091e-02 -2.77739875e-02
    1.31552853e-02 2.53810436e-02 3.04808319e-02 2.76504904e-02
    3.59764323e-02 -4.18918580e-03 -2.81483959e-02 1.14110913e-02
    7.10712839e-03 -1.73811428e-02 4.19062562e-02 3.96945514e-02
    5.65815791e-02 1.81242581e-02 -2.17330717e-02 6.15554117e-03
    -7.21521908e-04 -5.60927764e-03 3.23770791e-02 6.80814264e-03
    2.42217258e-02 1.50292711e-02 7.61472434e-02 -1.37746669e-02
    1.39709841e-02 9.27108061e-03 -4.62633036e-02 2.14728084e-03
    6.75630802e-03 -1.66931637e-02 -8.36804695e-03 5.98871820e-02
    4.69685160e-02 2.07009651e-02 6.03442604e-04 -2.75957529e-02
    -1.03204818e-02 3.74380536e-02 5.21841533e-02 2.26042848e-02
    3.41244712e-02 3.04675270e-02 -2.15237103e-02 9.37039126e-03
    -2.54353900e-02 1.39855677e-02 -6.92480663e-03 -4.42173891e-03
    -2.19755638e-02 7.35126063e-02 2.42997911e-02 -1.29021448e-03
    -3.90326226e-04 -2.25630794e-02 -5.37642464e-03 2.43138503e-02
    5.06098708e-03 -2.13433430e-02 3.74083444e-02 1.33602684e-02
    6.90473430e-03 3.27747390e-02 4.42447327e-02 -7.10895984e-03
    3.82723585e-02 2.20054388e-02 2.44328286e-02 2.29079612e-02
    2.01407429e-02 -1.45993734e-04 6.10906025e-03 4.12317440e-02
    6.51641341e-04 1.76908784e-02 1.58220995e-02 -1.99190769e-02
    -3.92804705e-02 -1.45941097e-02 -7.49672577e-03 2.71026511e-03
    -2.23174654e-02 -5.06764278e-02 2.27153152e-02 4.25578153e-04
    -2.82058604e-02 1.40765328e-02 1.49005996e-02 6.32621022e-03
    -1.15800081e-02 -4.66069812e-03 -4.43126559e-02 1.29896859e-02
    1.66780837e-02 -8.44305288e-03 -2.91792843e-02 1.29853105e-02
    9.99071263e-03 8.28102324e-03 1.69861596e-02 -3.28669734e-02
    -3.35120899e-03 3.03862188e-02 6.63893204e-03 -4.21227813e-02
    -4.17987257e-03 -6.30647689e-03 -1.76277198e-02 -3.38508375e-02
    1.53622264e-02 1.98597983e-02 -1.66779328e-02 -2.86576245e-02
    -6.33911863e-02 -2.15322003e-02 1.30380411e-02 1.98422167e-02
    1.36805335e-02 -3.27958129e-02 -2.15770956e-02 8.35560337e-02
    -1.64068560e-03 -2.96457056e-02 8.71096365e-03 -1.65031087e-02
    -2.13138387e-03 9.90319718e-03 2.05374639e-02 3.08927726e-02
    1.55629227e-02 3.02852783e-03 -3.57961506e-02 -9.46262293e-03
    5.53746857e-02 -1.69007201e-02 -2.19429731e-02 2.73392536e-02
    4.70269471e-02 -4.17782962e-02 -2.64947601e-02 -4.51354869e-02
    5.07735386e-02 1.31382672e-02 -4.78879549e-02 -1.64016453e-03
    1.49374001e-03 6.28467351e-02 -4.27818559e-02 -5.27559593e-03
    -4.57838662e-02 2.30547525e-02 5.10790460e-02 5.30052930e-04
    1.19337244e-02 2.79846378e-02 6.41324520e-02 -2.69994047e-02
    -3.47548462e-02 -6.86809644e-02 4.34890278e-02 4.38992046e-02
    -3.50531489e-02 1.32432487e-02 1.00802919e-02 2.83178687e-02
    -4.63191308e-02 -4.30488251e-02 -6.31510243e-02 3.79993618e-02
    2.96306089e-02 -1.85740646e-02 1.20469965e-02 -7.91061483e-03
    -9.78370477e-03 -6.54221103e-02 -2.39925459e-02 -1.83227751e-02
    2.75771692e-02 2.57406272e-02 -2.62509473e-03 1.42413871e-02
    -3.31631079e-02 -2.26859730e-02 -4.93336394e-02 -2.01050173e-02
    -1.27326008e-02 5.17831137e-03 1.56535339e-02 -9.55229532e-03
    5.47110662e-02 4.32904325e-02 -6.35480369e-03 -2.28885226e-02
    -2.67153867e-02 -9.45641100e-03 1.45983249e-02 -1.67609211e-02
    1.68169588e-02 9.12516192e-03 -1.89195387e-02 -1.45860091e-02
    -8.04975256e-03 -3.63507718e-02 -1.94763392e-02 -2.26987787e-02
    4.74449024e-02 1.51265720e-02 2.90432964e-02 -2.74120010e-02
    9.34642565e-04 -3.60373817e-02 2.66803009e-03 3.65847275e-02
    3.34464088e-02 -3.24539538e-03 -1.82022657e-02 1.26500195e-02
    -4.70002145e-02 -8.82081240e-02 -4.88871969e-02 1.75036956e-02
    1.88001283e-02 6.42252900e-03 3.18723870e-03 1.69911832e-02
    2.36430927e-03 -2.83839181e-02 6.56314660e-03 -2.88444222e-03
    -1.69317164e-02 -1.92306116e-02 -1.09993396e-02 -2.24685259e-02
    -5.32635022e-03 -9.59931128e-03 -5.47045618e-02 -3.94259989e-02
    -5.83063327e-02 -9.79100447e-03 -2.59291958e-02 -6.00268645e-03
    -8.81201494e-03 -1.77000519e-02 5.86766750e-02 -3.59911937e-03
    -4.72030193e-02 -1.44626684e-02 -8.09590705e-03 -1.50401536e-02
    1.30262738e-02 3.48742306e-02 -2.32283641e-02 -5.18018194e-03
    -9.29482747e-03 -5.51077649e-02 -5.16850576e-02 -3.05115208e-02
    -3.08748409e-02 1.37331113e-02 1.40990308e-02 6.66143838e-03
    7.23327603e-03 -3.39821423e-03 -4.55731079e-02 1.43711995e-02
    6.42436789e-03 -2.20331028e-02 -7.59087456e-03 3.47626545e-02
    -1.58756785e-02 -1.08043682e-02 -8.63551814e-03 -3.75575759e-02
    -1.35143204e-02 -2.13731993e-02 -2.62663830e-02 2.43481249e-03
    1.99372489e-02 2.24185316e-03 1.37264654e-02 -1.44803256e-03
    -5.19024134e-02 -1.45107759e-02 -2.91840527e-02 -4.74099107e-02
    -3.29605341e-02 1.27021549e-02 1.09670600e-02 7.14102527e-03
    -3.08525865e-03 -4.16005962e-02 4.41111252e-02 -1.05078844e-03
    -1.93068348e-02 -3.75344381e-02 1.13562131e-02 -1.70936231e-02
    2.83681136e-02 3.33465897e-02 -6.30161017e-02 -1.25358747e-02
    -3.81351542e-03 -1.36676328e-02 -2.58170161e-02 -3.87192448e-03
    9.60870925e-03 1.24466512e-02 5.53234629e-02 -9.95364878e-03
    5.81553243e-02 2.50569847e-03 -2.57911701e-02 3.43520800e-03
    -2.04401370e-02 -5.09869009e-02 -1.14336768e-02 1.04115522e-02
    2.21336093e-02 4.59673107e-02 7.22365230e-02 1.13479672e-02
    -3.00251078e-02 -1.03077311e-02 1.77742336e-02 4.62237149e-02
    1.13257403e-02 -1.35693662e-02 -2.25361940e-02 3.03999241e-02
    8.83172359e-03 -2.47549582e-02 -1.30521879e-02 -2.95782536e-02
    -9.05945897e-03 -2.58294232e-02 -3.31286117e-02 1.82494707e-02
    3.22740637e-02 -3.75226066e-02 -3.05818766e-02 -1.70496497e-02
    4.58726063e-02 4.04767133e-02 -1.07241338e-02 -1.51838334e-02
    -3.37264664e-03 9.42739379e-03 -3.85238081e-02 -6.55926317e-02
    -1.66005536e-03 2.32428182e-02 2.11605970e-02 4.28528758e-03
    -3.79034914e-02 -7.63031468e-02 -3.59185711e-02 -1.73618644e-02
    -1.11764474e-02 3.98924612e-02 -2.27948893e-02 1.59029718e-02
    5.50639480e-02 2.34914757e-03 -1.60236713e-02 -3.52583453e-02
    -3.67464833e-02 5.69091458e-03 -1.04193739e-03 9.16065765e-04
    2.12448854e-02 2.28868872e-02 -4.75813039e-02 -1.14627341e-02
    -1.30216777e-03 -4.49139765e-03 -3.02863270e-02 4.99074757e-02
    -1.64983552e-02 -1.03649274e-02 1.65021233e-02 -9.48333181e-03
    -2.80400217e-02 -1.17606129e-02 -1.94313508e-02 1.33061241e-02
    3.32928784e-02 -3.64842825e-02 -1.38417231e-02 -2.32732506e-04
    -4.07227222e-03 2.84948796e-02 2.56142821e-02 -6.01034286e-03
    2.63264962e-02 2.31985059e-02 -2.86588445e-02 3.72827500e-02
    1.58522502e-02 2.30148677e-02 -2.04628170e-03 1.92632545e-02
    1.60569828e-02 2.90354732e-02 5.99544086e-02 1.04384609e-02
    -4.13642451e-03 1.55782711e-03 2.82038283e-03 2.14953031e-02
    -7.95418397e-03 -1.48848509e-02 2.73210462e-02 1.51394773e-02
    1.67852305e-02 6.98949322e-02 3.32053863e-02 2.82044355e-02
    1.57991182e-02 3.35481577e-02 1.84482876e-02 4.10560379e-03
    7.92760774e-03 6.74774917e-03 1.48908570e-02 -6.27316581e-03
    -9.58379824e-03 6.31055189e-03 -7.01465691e-03 -1.91203207e-02
    2.09921319e-02 2.32649245e-03 2.04909425e-02 9.39122587e-03
    3.26814502e-02 4.57596444e-02 3.55992354e-02 1.18184891e-02
    -1.31008169e-03 1.96693018e-02 1.95778422e-02 -1.55852153e-03
    4.53523174e-02 4.49141301e-02 -3.67135537e-04 -1.69283170e-02
    -2.44972538e-02 -1.89416446e-02 1.03437556e-02 7.76130939e-04
    -2.95310859e-02 -5.33646718e-03 5.70131242e-02 1.59541927e-02
    3.76910120e-02 -2.00725961e-02 -3.74608114e-02 2.80385818e-02
    1.36331012e-02 2.28211489e-02 3.21641937e-03 2.73464620e-02
    6.17331453e-03 1.70093514e-02 3.30837481e-02 7.10003227e-02
    3.97378318e-02 -6.62754814e-04 1.06054498e-02 7.76725169e-03
    2.76459777e-03 -6.65483400e-02 -3.57929468e-02 2.91701797e-02
    3.10578253e-02 9.17920657e-03 6.65968657e-03 -3.31389089e-03
    -9.41147469e-03 1.69388782e-02 1.21976957e-02 3.68231386e-02
    4.69674729e-02 4.58767638e-02 4.00595106e-02 -5.53248264e-03
    1.60992760e-02 -2.50143204e-02 -9.18062590e-03 -3.13808508e-02
    -4.34793010e-02 1.03779035e-02 -2.61574686e-02 -2.81738266e-02
    -6.67671207e-03 1.99755337e-02 2.34569330e-02 3.24564017e-02
    6.08836906e-03 -1.39696253e-02 2.43894588e-02 -4.10657283e-03
    -1.20878881e-02 2.99901497e-02 2.91094910e-02 5.52082551e-04
    -1.94712821e-03 3.23193148e-02 1.17681012e-03 6.14667609e-02
    5.10382615e-02 2.24918453e-03 -2.28182767e-02 1.07683362e-02
    2.58315448e-03 2.58193742e-02 -2.59198025e-02 -7.61603415e-02
    -3.53964828e-02 -5.81667610e-02 -6.66079968e-02 -9.54949297e-03
    -4.86858469e-03 -7.43412133e-03 -8.39044806e-03 -1.05127355e-03
    1.21121341e-03 6.13377150e-03 1.19165808e-03 -4.11623120e-02
    1.61803719e-02 3.88944112e-02 -3.21615348e-03 -2.86673214e-02
    2.31140945e-02 -1.41118281e-02 4.26356494e-02 5.22053242e-02
    -1.82228617e-03 -2.31295987e-03 -9.89649072e-03 -1.71388742e-02
    1.34153273e-02 -2.83580041e-03 7.44658941e-03 3.05618886e-02
    7.07990006e-02 -1.33655441e-03 1.36711672e-02 -8.08890816e-03
    -6.61419891e-03 -4.74767983e-02 -1.81161799e-03 -2.55504604e-02
    -2.21145898e-02 1.95202641e-02 -2.97159255e-02 -1.17353322e-02
    -3.19454558e-02 4.57609585e-03 -3.03799678e-02 -1.19649125e-02
    -3.00871748e-02 -1.16125513e-02 1.92057341e-02 -2.95149107e-02
    -2.24048570e-02 -3.87734966e-03 5.63063938e-03 3.19847651e-02
    3.55520733e-02 1.45906042e-02 1.01115240e-03 6.81211799e-02
    1.47950351e-02 2.12803930e-02 1.44296596e-02 -7.29981391e-03
    2.36210506e-02 3.80879603e-02 -8.36013351e-03 -2.24981681e-02
    3.58585976e-02 2.50298157e-02 5.59893716e-03 -4.94570378e-03
    -5.32662868e-03 -1.85553338e-02 1.61044430e-02 -5.70389768e-03
    -2.64038127e-02 9.88195650e-03 2.65551656e-02 3.75167839e-02
    -2.80036423e-02 -5.10306694e-02 -6.56840065e-03 5.76514639e-02
    -1.82608925e-02 -2.99045108e-02 1.88155044e-02 2.27885153e-02
    -6.51003676e-04 1.65593270e-02 -2.27763094e-02 -1.89216193e-02
    -1.42327528e-02 -1.83803644e-02 -1.33897122e-02 3.42809670e-02
    5.60822338e-03 9.54181794e-03 2.26119556e-03 -3.22841748e-04
    -2.84243841e-02 1.09519474e-02 2.48995982e-02 1.54136186e-02
    1.28938267e-02 4.28044274e-02 2.06295382e-02 -3.39415739e-03
    -2.13467404e-02 1.60894403e-03 -1.03599392e-02 -3.03900708e-02
    -7.44417449e-03 6.78456761e-03 4.51428117e-03 1.70450453e-02
    -9.58420802e-03 1.61336493e-02 3.29004903e-03 9.07238387e-03
    3.13007198e-02 2.02198606e-02 -1.04522733e-02 5.36070392e-02
    -7.45372241e-03 -1.82998937e-03 -5.38005494e-03 -3.22373062e-02
    2.88109091e-04 4.23830114e-02 -1.37267420e-02 -6.23762608e-03
    2.77836807e-02 -4.73867394e-02 -3.18692811e-02 7.47826649e-03
    -8.00900103e-04 4.31128927e-02 1.62056740e-02 -2.24995725e-02
    -1.30571229e-02 1.14558255e-02 3.39925997e-02 2.29641031e-02
    -1.00389784e-02 -2.99071725e-02 -4.65150215e-02 1.19147524e-02
    -3.87210287e-02 -8.69254768e-03 3.39906327e-02 -1.98813546e-02
    3.22972401e-03 -6.96800463e-03 -1.25667965e-02 1.53706165e-03
    2.85149477e-02 -3.97903211e-02 -1.63151249e-02 -5.17081097e-03
    1.21537801e-02 5.54105313e-03 4.11290564e-02 8.43286142e-03
    5.07802814e-02 -7.26701226e-03 -9.63527430e-03 -1.09943394e-02
    4.77413461e-02 3.09104901e-02 -1.34363389e-02 2.93551795e-02
    -1.12322643e-02 1.51284542e-02 -2.17518508e-02 -3.60336131e-03
    -2.74234321e-02 5.58595285e-02 9.35228728e-03 1.22378627e-02
    2.62498539e-02 1.17468927e-02 5.41760288e-02 -1.18837901e-03
    -2.51896288e-02 -1.96706760e-03 2.27738600e-02 -9.59635805e-03
    2.65376666e-03 2.59278640e-02 7.95196090e-03 -2.72009391e-02
    -5.62016629e-02 -3.83570679e-02 -2.67290305e-02 9.08999983e-03
    2.29707509e-02 -1.19726732e-02 5.88610843e-02 -7.23798480e-03
    2.31011119e-02 2.24293442e-03 -8.46047048e-03 7.33253174e-03
    4.35711853e-02 -2.25149635e-02 -5.52647887e-03 5.67370420e-03
    -1.65090691e-02 5.59197553e-02 9.50386096e-03 -3.37539166e-02
    7.05892639e-03 4.78882808e-03 -2.48174779e-02 -2.12016515e-02
    2.01434959e-02 -3.31065729e-02 -1.34071251e-02 -8.05830583e-03
    -2.75193248e-02 2.22761952e-03 1.98591761e-02 -3.27512957e-02
    -1.62136126e-02 -2.27114428e-02 -3.24730091e-02 8.70974082e-03
    -3.75708891e-03 -4.95854579e-02 -2.33710855e-02 -2.09390353e-02
    1.80505589e-03 4.25626012e-03 1.07836695e-02 -1.79692935e-02
    2.15280652e-02 -6.49854820e-03 -4.05552126e-02 -1.58296525e-02
    -2.24195905e-02 3.18897106e-02 5.15800854e-03 -1.23193942e-03
    -4.04453240e-02 -3.43820155e-02 -2.57796347e-02 1.00223930e-03
    -2.21046689e-03 1.57035738e-02 1.56022357e-02 2.00668983e-02
    4.02753986e-02 -9.59673990e-03 -3.15631703e-02 -2.84412727e-02
    -2.28916481e-02 -3.40608433e-02 -3.52122635e-02 -2.08487082e-02
    1.72300767e-02 3.78269106e-02 -3.15607153e-02 -4.64484207e-02
    -6.83465600e-02 -5.94741385e-03 -1.72961950e-02 -3.60114835e-02
    5.22989221e-03 -3.04594939e-03 4.84600285e-04 1.37499941e-03
    -2.99770702e-02 7.11230980e-03 -1.05068914e-03 -1.30930031e-03
    2.07714252e-02 2.08879225e-02 -1.69922244e-02 -2.72259414e-02
    -2.39508767e-02 -5.55143543e-02 -3.83972377e-02 -1.97791904e-02
    -6.98218308e-03 -2.25830614e-03 -2.71120276e-02 2.08096653e-02
    2.65828539e-02 -2.93010604e-02 -3.99834886e-02 -3.30017805e-02
    -1.93982683e-02 7.12284018e-05 -2.64099278e-02 1.67913195e-02
    -1.26635116e-02 -6.07386138e-03 -3.35865617e-02 -7.70728663e-02
    -1.78649127e-02 -2.18208358e-02 -1.75027770e-03 -4.12775949e-03
    1.35146491e-02 3.87206930e-03 3.64484712e-02 3.30134407e-02
    -2.68413182e-02 -2.07458660e-02 -3.55330785e-03 -1.19197937e-02
    -2.31413194e-03 -9.73641500e-03 -1.28234215e-02 7.54400250e-03
    3.56572159e-02 1.47698140e-02 4.96402867e-02 4.33178246e-03
    -1.31273121e-02 -8.67308863e-03 9.01902840e-03 -1.16180647e-02
    -1.33149873e-03 1.99509710e-02 -7.71002471e-02 1.53032923e-02
    -2.76484364e-03 -3.05197593e-02 -5.59070660e-03 -2.22967584e-02
    -2.08862536e-02 -2.96896212e-02 -2.35673250e-03 2.53097108e-03
    5.41986190e-02 -5.18278452e-04 -3.03647704e-02 -2.18354519e-02
    -2.17540078e-02 -1.43754892e-02 -2.23045871e-02 -3.45052965e-02
    -2.09222622e-02 8.65986664e-03 -2.00833064e-02 -4.02966812e-02
    -2.53794808e-02 -2.44853217e-02 1.92465894e-02 3.17466743e-02
    1.35203218e-03 -1.14091777e-03 4.28939313e-02 4.87180986e-02
    2.39715707e-02 -3.58528532e-02 -1.78319942e-02 -1.50279077e-02
    8.22553504e-03 -1.40708163e-02 -2.30472870e-02 -2.06901114e-02
    -2.05710717e-03 -1.92380678e-02 -2.49899421e-02 -1.72245223e-02
    -1.04821688e-02 2.46323999e-02 2.71520540e-02 1.99593953e-03
    -5.76549070e-03 1.97866503e-02 -1.84149742e-02 -6.26936853e-02
    -2.48593576e-02 -1.16794473e-02 3.89729924e-02 2.10385919e-02
    -5.07028252e-02 -1.56114288e-02 1.54037410e-02 1.46280946e-02
    -2.47873757e-02 3.63169163e-02 -1.11845406e-02 6.31312095e-03
    2.19818708e-02 -1.76166482e-02 -1.06006414e-02 -1.02909263e-02
    1.36991567e-03 1.32521223e-02 -1.55242691e-02 -4.06082049e-02
    2.83417571e-02 -7.74767017e-03 -6.05877154e-02 -3.35787833e-02
    -4.25601332e-03 -2.52353232e-02 -4.03637551e-02 4.15413268e-02
    -6.32214267e-03 2.93175615e-02 3.25824879e-02 -1.62727647e-02
    7.27749197e-03 -5.21918992e-03 -3.50513868e-02 2.14219391e-02
    4.55252863e-02 -8.31413362e-03 -8.97623692e-03 1.12236114e-02
    3.20094405e-03 1.85145456e-02 2.37974292e-03 1.82552426e-03
    1.85402688e-02 3.27512361e-02 8.13532341e-03 5.09127975e-02
    2.02727020e-02 1.37043865e-02 2.90591773e-02 3.66638079e-02
    2.00654455e-02 -1.67043728e-03 2.69926414e-02 2.53328658e-03
    -8.66678171e-03 1.70577615e-02 -9.33960732e-03 2.28160433e-02
    -4.37178202e-02 -3.92114893e-02 1.31241512e-02 4.25602607e-02
    1.86128896e-02 6.71609044e-02 3.00423596e-02 2.60522645e-02
    2.35614479e-02 2.00660471e-02 -1.40633741e-02 1.94955692e-02
    4.33427468e-03 -1.73593331e-02 6.27938285e-02 4.20669876e-02
    -1.27485236e-02 1.89723503e-02 2.22834069e-02 -3.16695217e-03
    1.68407988e-02 -1.36111807e-02 -2.61616372e-02 -3.85588710e-03
    5.38468100e-02 1.84917077e-02 4.13370728e-02 7.43184472e-03
    -1.42824678e-02 2.23057549e-02 1.46546364e-02 2.13491656e-02
    7.33445361e-02 1.82320252e-02 -2.57027335e-02 1.07322857e-02
    1.02375550e-02 -1.42875854e-02 1.34015912e-02 3.83826718e-03
    3.88502493e-03 9.97400004e-03 3.85963023e-02 1.98084326e-03
    2.49269083e-02 -7.71063613e-03 -2.82085408e-02 2.24386118e-02
    -4.28716140e-03 1.97420008e-02 -2.03846209e-02 1.22862542e-02
    -1.22295730e-02 2.56308448e-02 6.94771707e-02 6.57798499e-02
    4.87537906e-02 -3.25422792e-04 2.00579148e-02 -2.54421197e-02
    1.11079728e-03 -2.42506135e-02 -2.12200806e-02 1.56976245e-02
    1.37897171e-02 3.10732774e-03 2.73963660e-02 3.97428460e-02
    -2.17411593e-02 9.34083387e-03 -2.97625456e-02 -1.73489247e-02
    2.97344346e-02 3.66055518e-02 2.00485159e-02 1.99091155e-02
    1.09892404e-02 -1.30766798e-02 -1.32388463e-02 -3.61022130e-02
    -1.55205280e-02 1.20406784e-02 1.20183341e-02 -8.23090225e-03
    -4.60157804e-02 -5.30820712e-03 4.25585220e-03 5.08425385e-02
    2.51975236e-03 -2.75193714e-02 2.66068988e-03 -2.02518608e-02
    -6.02795519e-02 -2.57762726e-02 2.24767695e-03 -4.98473310e-05
    1.61394794e-02 -2.90260408e-02 -3.58943398e-05 3.16177495e-03
    1.30183529e-02 -2.84955483e-02 -9.99219995e-03 -1.78927928e-02
    -5.29559180e-02 4.32049017e-03 -2.60010473e-02 -1.82621274e-02
    2.74377386e-03 2.70980690e-02 -1.44470427e-02 5.36198448e-03
    -2.26697791e-03 -3.30145434e-02 1.73843503e-02 -5.60405292e-02
    -4.26267795e-02 -3.13141122e-02 -5.96345123e-03 2.88679190e-02
    6.35609729e-03 -1.74352657e-02 2.42415573e-02 1.97655358e-03
    -2.59093493e-02 -3.24833766e-02 -9.97267570e-03 4.85183373e-02
    -1.78568568e-02 -2.14557536e-02 -1.56498570e-02 1.50407506e-02
    -4.48379666e-03 2.33082995e-02 -1.80682782e-02 4.83385399e-02
    4.37515639e-02 -3.86330113e-02 -1.37094520e-02 -5.14891138e-03
    6.52185781e-03 6.39700098e-04 -4.79806997e-02 -4.18963060e-02
    4.36311401e-03 3.64401825e-02 4.08219285e-02 -3.33219431e-02
    -2.02495721e-03 -3.49596329e-02 1.09869912e-02 -1.04996376e-02
    -2.46829167e-02 2.80879904e-03 3.36553752e-02 -1.50168762e-02
    -2.66697165e-02 1.07137840e-02 -1.49267120e-02 6.33079000e-03
    3.54820564e-02 1.22908521e-02 2.22735759e-02 5.77658080e-02
    -3.03885230e-04 9.63950064e-03 -6.07512239e-03 -3.01434901e-02
    1.92600712e-02 2.81386357e-02 9.48594359e-04 -6.52749976e-03
    5.80133907e-02 1.51079260e-02 -3.06982007e-02 2.41618324e-02
    -1.29099805e-02 1.36336479e-02 1.82007602e-03 1.56712476e-02
    -5.51641732e-03 2.06700377e-02 -5.68829961e-02 1.67691465e-02
    2.29782183e-02 1.16775911e-02 1.62322838e-02 -1.68990400e-02
    -8.50683451e-03 2.38931831e-03 4.35913317e-02 -2.20307764e-02
    -5.96055295e-04 -2.87019126e-02 -2.14179326e-02 2.28971452e-03
    -1.67558193e-02 -1.94676686e-02 -3.10926512e-02 -1.65769272e-02
    -6.57791132e-03 -4.35327459e-03 -1.23708870e-03 4.75885440e-03
    -9.02520865e-03 5.37150986e-02 7.02883303e-02 1.00604976e-02
    -2.64249351e-02 2.58410405e-02 1.16315316e-02 1.99822104e-03
    -1.99071746e-02 -2.15440709e-02 -2.99067833e-02 -7.04771280e-02
    -3.43806520e-02 7.47408578e-03 1.60672870e-02 1.47490148e-02
    -1.21726943e-02 -2.95095928e-02 -1.29974904e-02 4.05589864e-02
    1.30831664e-02 -4.84339483e-02 -1.07938591e-02 8.52657575e-03
    1.29159272e-03 4.33162823e-02 9.79488716e-03 -3.77783515e-02
    1.48377204e-02 5.30496463e-02 2.50280951e-03 1.02432605e-04
    3.86696719e-02 -1.44728981e-02 1.62015725e-02 3.98710333e-02
    -1.52400846e-03 -9.41978768e-03 3.72369438e-02 -7.68742641e-04
    8.19105934e-03 -8.03363416e-03 -1.14826132e-02 -1.08164456e-02
    -3.38873118e-02 -2.56901886e-02 6.54161256e-03 2.54349411e-02
    -3.04254014e-02 -6.55928766e-03 7.23033352e-03 9.65912454e-03
    1.49770118e-02 7.46759074e-03 -1.70611460e-02 -2.73931469e-03
    -1.48757640e-02 -1.58861391e-02 -2.56400127e-02 1.88109616e-03
    2.78980099e-03 3.08557767e-02 5.05220443e-02 3.53215565e-03
    2.49467511e-02 -1.06684370e-02 -8.84750951e-03 1.07423291e-02
    -1.03056394e-02 -1.51686491e-02 6.79666409e-04 3.99536602e-02
    2.78016999e-02 5.55485394e-03 -2.54637226e-02 -7.57445255e-03
    1.99822262e-02 2.75678672e-02 2.77835689e-02 4.44126278e-02
    3.93657237e-02 2.89730495e-03 4.57160501e-03 -3.35373767e-02
    -9.54719633e-03 -2.21537556e-02 -3.04867188e-03 1.08628459e-02
    1.37957255e-03 1.78379063e-02 8.39078240e-03 1.38573814e-02
    4.34125587e-03 3.06761911e-04 -4.51081851e-03 2.56593432e-02
    -2.37964895e-02 2.26716362e-02 6.78258687e-02 2.71717738e-02
    3.07948254e-02 -1.42199555e-02 -2.76758196e-03 3.07256412e-02
    3.66774946e-02 -2.27968469e-02 8.95902794e-03 -4.31462284e-03
    -1.39165288e-02 3.95792387e-02 4.49853949e-03 -2.28616986e-02
    -5.34553360e-03 -3.04484647e-02 4.10476550e-02 2.48538535e-02
    1.30558778e-02 -1.49940457e-02 1.58524532e-02 -9.87246074e-03
    -2.26009730e-02 3.74460034e-03 3.84930521e-02 -2.58324090e-02
    -1.64343622e-02 -6.58263788e-02 -6.73877299e-02 6.97136670e-03
    -2.52290908e-02 -5.68282604e-02 -3.42423059e-02 -2.71833818e-02
    4.47085053e-02 2.96026468e-02 3.02071683e-02 -4.87488322e-03
    2.74561346e-03 -2.49412861e-02 -5.46580413e-03 -1.66166425e-02
    -2.59341244e-02 -1.93737522e-02 -8.10860004e-03 3.44632976e-02
    -1.62484962e-02 -1.53716234e-02 -3.48838307e-02 1.12698935e-02
    3.89733305e-03 -2.29307003e-02 1.40257385e-02 -2.38458756e-02
    -4.86733802e-02 -4.34936620e-02 -5.20379022e-02 -2.91232318e-02
    -4.46654297e-02 -2.67217066e-02 -1.57203265e-02 -3.05362642e-02
    -6.20519742e-02 -4.13149036e-03 -8.63565225e-03 -5.01990281e-02
    -2.71239467e-02 -2.39630751e-02 -4.96605970e-03 1.16994942e-03
    -1.39801428e-02 -9.86370631e-03 3.38400230e-02 -6.08233809e-02
    -3.90061294e-03 -7.88848940e-03 -2.39601042e-02 1.00318510e-02
    2.49223341e-03 1.68004651e-02 -7.27252383e-03 -9.25426465e-03
    -1.76105108e-02 -4.49065492e-02 5.14087919e-03 -3.41543369e-03
    4.01353231e-03 9.93746333e-03 -2.91559473e-02 -4.18674573e-02
    -3.81750520e-03 -5.42233028e-02 -1.91586651e-02 -5.50526753e-03
    -6.42710458e-03 4.06561606e-02 1.76072251e-02 -1.87845379e-02
    -2.96898149e-02 -4.71861884e-02 -5.18031865e-02 -6.15113489e-02
    -3.22083421e-02 -2.00843401e-02 -2.14208588e-02 -2.15431396e-02
    2.61021033e-02 1.13485130e-02 3.29198837e-02 3.12791541e-02
    -4.72334512e-02 3.19281663e-03 -1.57500915e-02 -2.84167361e-02
    4.02269233e-03 -2.46087159e-03 -1.07073411e-02 -2.46728640e-02
    2.31239349e-02 5.20064589e-03 5.07067107e-02 -3.38318720e-02
    -3.00331805e-02 -1.99467409e-02 2.55561359e-02 5.22652082e-03
    -9.68126347e-04 -3.81859578e-02 -6.67002648e-02 -1.38337407e-02
    -2.10143835e-03 -3.33968252e-02 -2.27075983e-02 -2.14607380e-02
    -3.38487215e-02 -2.76527964e-02 -5.13437837e-02 -6.00755401e-02
    2.74738409e-02 4.04493418e-03 2.45058513e-03 -3.13704051e-02
    -3.50451618e-02 -1.87891778e-02 1.25433533e-02 2.52040755e-03
    -2.16195520e-04 2.51712860e-04 4.59456211e-03 -5.34097292e-03
    -4.24177349e-02 -1.93527341e-02 -3.98051430e-04 3.98316868e-02
    2.39031464e-02 1.69331133e-02 -4.25113784e-03 5.14090853e-03
    -2.04757862e-02 -4.80035096e-02 -3.00608613e-02 -1.60144735e-02
    -5.89661812e-03 -8.39791354e-03 6.25784602e-03 3.43544632e-02
    4.31939885e-02 1.34658162e-02 -4.11754213e-02 -2.63835378e-02
    -2.31035315e-02 4.48194705e-03 4.27412195e-03 6.75377343e-03
    2.92150280e-03 5.85768409e-02 -1.87928583e-02 -4.32160571e-02
    3.27292308e-02 2.73866244e-02 1.36654424e-02 -4.39703763e-02
    -7.12417364e-02 -3.35924607e-03 1.85413174e-02 -2.23110523e-02
    -1.38469199e-02 6.77474663e-02 -2.88690906e-03 7.70996697e-03
    -5.39642060e-05 -4.07137945e-02 4.65886481e-02 4.10857163e-02
    -2.44861301e-02 3.74344923e-02 1.81847345e-02 -3.75580089e-03
    -2.19083559e-02 -2.12516226e-02 -6.31110966e-02 -1.33821173e-02
    2.25832406e-02 -1.42894648e-02 -7.14423647e-03 7.60108754e-02
    -2.59138085e-02 -2.39575058e-02 -1.54917790e-02 -4.86343838e-02
    8.56725872e-03 5.14974119e-03 -3.31239402e-02 2.83851326e-02
    5.51513247e-02 -1.48713561e-02 -6.52995752e-03 2.21011955e-02
    3.02651571e-03 4.21490557e-02 -1.57834776e-02 -1.86008140e-02
    3.93951349e-02 3.99168283e-02 1.56723987e-02 4.83463220e-02
    3.24168205e-02 2.61235107e-02 4.08266149e-02 1.10695679e-02
    -7.71646341e-03 8.71582329e-03 5.49711771e-02 -1.77552886e-02
    2.66643427e-02 3.73825990e-02 -2.56984215e-02 3.07167787e-02
    -1.00216838e-02 -2.21813116e-02 1.67568401e-02 3.44864316e-02
    -2.20610620e-03 3.41099761e-02 5.62767535e-02 3.87522439e-03
    3.22145373e-02 2.02415679e-02 -2.79332325e-02 -1.81826837e-02
    6.70524547e-03 2.99510024e-02 5.69010302e-02 3.06342710e-02
    1.15176365e-02 3.75493132e-02 3.40393223e-02 4.38171998e-03
    -2.76146294e-03 -1.61771514e-02 2.82485504e-02 3.19044515e-02
    4.00836989e-02 3.12774815e-02 1.88411847e-02 2.11484339e-02
    1.13715408e-02 -2.00143433e-03 2.21300870e-02 3.21448483e-02
    2.28535868e-02 1.67513210e-02 -3.24301906e-02 2.24573873e-02
    1.84578095e-02 -3.76847573e-02 -1.25802364e-02 -2.61675362e-02
    7.18970923e-03 -2.75741424e-03 5.23372134e-03 -1.97260343e-02
    -3.28601105e-03 6.08890224e-03 -2.29845028e-02 -4.26933952e-02
    -2.99695879e-02 2.32420545e-02 2.24547032e-02 4.73583192e-02
    5.38016995e-03 -3.27869318e-03 2.91919131e-02 2.09002122e-02
    -1.66879278e-02 -6.48052171e-02 3.52614140e-03 2.04851273e-02
    3.80594544e-02 -5.95374405e-03 -2.63857860e-02 1.78890750e-02
    3.73382606e-02 -3.88845131e-02 -4.29274403e-02 2.66394243e-02
    1.12018529e-02 4.65059467e-02 8.51237588e-03 -1.09916180e-02
    4.95702308e-03 3.19371279e-03 -3.76968719e-02 -3.34847458e-02
    -1.44772217e-04 -8.22481327e-03 3.25227827e-02 4.90727043e-03
    -3.82491201e-02 -3.46751790e-03 1.25810802e-02 -2.30739601e-02
    -1.30425431e-02 3.69138690e-03 -3.20445448e-02 2.78328601e-02
    1.50737464e-02 -3.39582078e-02 2.83322502e-02 4.88131270e-02
    -4.67487127e-02 1.48560693e-02 1.63169997e-03 -2.28038747e-02
    3.86587009e-02 2.44162735e-02 -2.77936962e-02 -8.80983379e-03
    -2.71960394e-03 -7.08395382e-03 5.89676062e-03 1.03610298e-02
    -4.37472910e-02 -5.75683033e-03 -3.61524038e-02 -5.22853807e-02
    -1.56023668e-03 5.55764278e-03 -2.62386817e-02 -1.20090149e-07
    -2.24484671e-02 -5.37052117e-02 2.78740935e-02 2.22993661e-02
    -1.50136417e-02 -1.29529359e-02 -9.67874099e-03 -9.50545445e-03
    -3.56853157e-02 -1.03041865e-02 1.83950749e-03 1.95373371e-02
    -2.92541552e-02 -3.61772999e-02 -9.83566977e-03 2.13368963e-02
    -9.04244895e-04 -5.87694682e-02 -2.12581251e-02 -3.41610089e-02
    1.69661995e-02 -7.32828304e-02 1.91089581e-04 -1.07078012e-02
    5.52371480e-02 -2.29965094e-02 -1.21958237e-02 1.46169793e-02
    -2.74908673e-02 1.58559885e-02 2.65154848e-03 -2.03674715e-02
    -2.43059602e-02 -5.11779916e-03 -3.35140564e-02 -2.94986684e-02
    2.35079899e-02 -4.19527628e-02 -1.87510101e-03 -3.61477882e-02
    2.02765781e-02 -2.60170102e-02 1.72666591e-02 -1.37391305e-02
    -3.19455266e-02 6.77067274e-03 -3.24358195e-02 3.20770591e-02
    -1.75170209e-02 1.34039158e-02 -1.00089712e-02 4.28530648e-02
    -2.17070021e-02 8.04156251e-03 1.54570611e-02 1.04615958e-02
    4.85582203e-02 -5.31441113e-03 -1.30643267e-02 2.36663576e-02
    5.12189902e-02 -4.27116500e-03 -1.45991342e-02 -7.56097864e-03
    -6.38449118e-02 2.49623954e-02 -1.78192575e-02 -2.28224024e-02
    -3.47343609e-02 2.09500939e-02 -4.59667202e-03 1.23303868e-02
    1.01363948e-02 -3.78673477e-03 3.98173332e-02 -7.75472401e-03
    -7.22448975e-02 -7.54260877e-03 1.45874191e-02 -6.51249476e-03
    -2.38220189e-02 -5.62480092e-03 2.84715672e-04 1.98250078e-02
    -1.17157158e-02 -4.53053191e-02 -6.79293228e-03 3.91076393e-02
    1.00786705e-02 -3.09224501e-02 8.51873122e-03 -1.41181378e-02
    1.35303270e-02 7.02997521e-02 1.93021148e-02 -2.30926760e-02
    1.68076362e-02 1.65696256e-02 -2.62175017e-04 1.87238958e-02
    -3.86325456e-02 -1.95884109e-02 -3.98015082e-02 -6.13214672e-02
    2.87094410e-03 2.96849869e-02 2.71331612e-03 1.05824228e-02
    -2.14656442e-02 -5.78477979e-02 -2.64776452e-03 -7.31733395e-03
    3.86253744e-03 8.24225415e-03 1.97590385e-02 9.67000891e-03
    -3.00563388e-02 3.18161747e-03 -2.34659552e-03 -7.84991682e-03
    5.82810603e-02 1.93173122e-02 -3.42415832e-02 -8.31161335e-04
    1.53918266e-02 8.38515442e-03 -1.76548995e-02 -1.49912396e-02
    -9.45600588e-03 1.49495900e-02 3.06264311e-03 1.98649708e-03
    2.17744987e-02 1.58550516e-02 1.07016647e-02 -1.31914038e-02
    -3.34167220e-02 -1.91634465e-02 9.90393292e-03 -6.08080346e-03
    -3.52021717e-02 -2.15473603e-02 1.70204211e-02 -6.84941793e-03
    -3.04552093e-02 -3.62890810e-02 1.72657873e-02 -1.28671452e-02
    9.29297041e-03 -1.56974979e-02 4.10920605e-02 3.18181217e-02
    7.81058625e-05 1.94269717e-02 3.75668332e-02 4.52211201e-02
    4.81114276e-02 -2.52479073e-02 1.64114740e-02 4.03932575e-03
    -2.22621318e-02 6.59294939e-03 3.76844630e-02 3.29965763e-02
    2.64681298e-02 5.37816100e-02 1.47393579e-02 -1.62680726e-02
    -1.49412761e-02 -1.65168568e-02 1.07585434e-02 1.93983745e-02
    4.40162010e-02 5.64117096e-02 4.91266921e-02 -1.90537106e-02
    -1.66706443e-02 2.42358893e-02 4.64467052e-03 -2.82434165e-03
    -1.61959673e-03 -1.37246994e-03 2.20135376e-02 2.67894808e-02
    -1.73159204e-02 -4.59017605e-02 -1.37164695e-02 -2.88418289e-02
    2.93449294e-02 4.56465594e-02 6.41830824e-03 -2.36012265e-02
    7.08721131e-02 -4.26630024e-03 -8.60568043e-03 2.82433163e-02
    7.57919066e-03 -2.52544358e-02 6.91163912e-03 -4.10073586e-02
    -6.67555779e-02 5.54354303e-02 -1.67306066e-02 -1.93307903e-02
    -8.76896840e-04 -3.87265645e-02 6.16650854e-04 3.73585336e-02
    1.49399890e-02 -1.37683582e-02 4.38274741e-02 -2.00631432e-02
    -2.78478954e-02 1.42051242e-02 -3.58736552e-02 -2.25642137e-02
    1.11499261e-02 8.07934254e-03 -5.65136075e-02 -1.35605009e-02
    -2.94979196e-02 -2.44147331e-02 2.05914006e-02 -3.59770395e-02
    -1.10621182e-02 -9.34831798e-03 -4.33771499e-02 -6.87945485e-02
    3.00339167e-03 -1.65636539e-02 -2.25246437e-02 1.79669987e-02
    -2.26272661e-02 -2.41192784e-02 -1.99316768e-03 8.47875699e-03
    -2.01997254e-02 -2.12892443e-02 -9.30401031e-03 7.85990711e-03
    2.36588754e-02 -1.39596034e-02 -1.31634595e-02 -1.77758280e-02
    -1.52830267e-02 -4.35017720e-02 -2.08714232e-02 4.98836488e-03
    -1.28646782e-02 5.27863763e-02 3.66230309e-02 -5.00015058e-02
    -3.71174589e-02 2.12740083e-03 -5.11289015e-02 -3.64593528e-02
    -3.30191329e-02 -4.80451994e-02 1.97754428e-02 -1.19465003e-02
    -6.36651441e-02 -1.23753762e-02 3.80753204e-02 -4.11502831e-03
    8.42005573e-03 -3.36225121e-03 -7.27955368e-04 3.29091661e-02
    -2.70405803e-02 -1.07060242e-02 -1.35998642e-02 -3.47654386e-05
    6.80954987e-03 -2.13180371e-02 -5.47078019e-03 2.99609429e-03
    -9.10648704e-03 -5.96302468e-03 -6.08000234e-02 -3.71912457e-02
    2.54696049e-02 8.69747531e-03 -1.28930593e-02 -4.74575302e-03
    -3.95552665e-02 5.10718068e-03 -3.27732041e-02 -2.06353478e-02
    -6.88836649e-02 -2.11643111e-02 -5.03207510e-03 -1.59147289e-02
    8.38769658e-04 -7.49098836e-05 -1.62172392e-02 -5.36880514e-04
    1.19925698e-03 -3.32035497e-03 2.21580006e-02 2.54097655e-02
    -2.29217689e-02 -1.49709592e-02 -2.12096367e-02 -3.00784148e-02
    -7.62031414e-03 -1.82150546e-02 -4.79379296e-02 1.43597573e-02
    -4.48032189e-03 -2.81162020e-02 2.88899187e-02 1.89731084e-02
    -1.00404052e-02 -2.66696159e-02 -1.98003668e-02 -5.64150028e-02
    2.24896744e-02 1.50288800e-02 -1.50290215e-02 6.20819721e-03
    1.50518958e-02 2.15488602e-03 -8.65468103e-03 -2.26461831e-02
    -4.83425371e-02 -1.26702460e-02 -5.69465384e-03 -1.68075021e-02
    4.39975373e-02 1.81348750e-03 -7.75928982e-03 -3.70253883e-02
    -2.54838262e-02 -3.51383016e-02 -2.61786692e-02 4.33495175e-03
    3.77542563e-02 6.77814186e-02 4.83689792e-02 -2.18302142e-02
    -4.51211855e-02 -2.84270495e-02 -5.52398972e-02 -1.24467658e-02
    1.81833748e-02 -1.15505848e-02 2.62933914e-02 8.15567896e-02
    -2.68725271e-04 -1.75053868e-02 2.89757233e-02 -2.07467563e-03
    -1.60412528e-02 9.75689106e-03 -1.63278682e-03 2.24705692e-02
    -6.34356216e-03 -4.01642770e-02 -2.95961369e-02 3.39298951e-03
    -3.54095735e-02 -4.59046364e-02 4.99690126e-04 -6.41919151e-02
    2.40627006e-02 3.44984531e-02 -6.39396207e-03 -2.73365825e-02
    1.05123129e-02 -3.44148576e-02 -2.39802767e-02 2.04256712e-03
    -3.51854451e-02 -7.52214016e-03 5.56047112e-02 1.17003955e-02
    3.01531162e-02 6.16892651e-02 -3.32851857e-02 -3.48759852e-02
    2.60074958e-02 -2.03520022e-02 2.56038234e-02 -1.40599525e-02
    -6.37603831e-03 6.45980537e-02 1.80772282e-02 -4.29620259e-02
    -3.39409076e-02 1.74821690e-02 -3.45516615e-02 -2.26771925e-02
    1.28192808e-02 3.46923470e-02 5.66782337e-03 2.15871558e-02
    -6.15044236e-02 -3.43641751e-02 -3.34600196e-03 -9.67824832e-03
    2.36387923e-02 -1.12793008e-02 -7.93414749e-03 2.11385004e-02
    3.91613841e-02 -2.97394674e-02 1.04228249e-02 5.39082475e-02
    3.54410312e-03 7.23334476e-02 3.03215142e-02 1.87635459e-02
    3.27322111e-02 2.86991820e-02 -3.61791858e-03 2.42638011e-02
    6.74011484e-02 3.53276506e-02 9.01013687e-02 6.26803637e-02
    1.14277359e-02 8.61943408e-04 3.11853923e-03 -2.49837916e-02
    4.32948989e-04 5.56677170e-02 1.79279689e-02 9.24941003e-02
    -2.53352225e-02 -8.29106942e-02 -3.91645804e-02 -3.89185967e-03
    -5.66934748e-03 1.14583625e-02 2.81695146e-02 -6.21010596e-03
    6.10730946e-02 2.71123797e-02 -5.73292002e-02 -2.45428160e-02
    1.75144915e-02 1.36180362e-02 9.80571005e-03 3.65528725e-02
    8.82767927e-05 7.03073815e-02 6.82716742e-02 7.56141637e-03
    -1.85308896e-03 -5.60511323e-03 -8.31338484e-03 -5.73920505e-03
    4.37404737e-02 1.27035808e-02 1.55634619e-02 2.81619299e-02
    1.30609861e-02 -2.02063248e-02 -9.58958827e-03 -1.67027139e-03
    -1.47225372e-02 -7.82928662e-04 -2.96579860e-02 5.69953099e-02
    2.63858214e-02 -4.59894128e-02 -2.74575222e-02 2.25754268e-03
    -3.41712162e-02 -5.68876006e-02 3.66202369e-02 -1.51805542e-02
    3.93331274e-02 -1.05004879e-02 -4.17684503e-02 -2.17680912e-02
    -5.73138893e-03 3.43965106e-02 2.53243633e-02 5.51538281e-02
    1.45207681e-02 -6.12063054e-03 2.15484705e-02 1.53596876e-02
    -2.22165068e-03 9.95254144e-03 1.48361921e-03 5.66602452e-03
    3.29488106e-02 -7.96192698e-03 -7.47694075e-03 4.48098108e-02
    4.10485864e-02 8.18066532e-04 8.59669410e-04 -5.47800539e-03
    -2.26835236e-02 1.48941837e-02 -1.74789056e-02 -1.35841519e-02
    -2.31200457e-02 -2.82163247e-02 -5.32804616e-03 -1.22868987e-02
    -4.09941338e-02 -3.76294255e-02 2.77656922e-03 -8.61455202e-02
    -1.25447698e-02 2.61251368e-02 -4.12761839e-03 -1.80716626e-02
    3.03628948e-02 1.79395359e-03 -4.48701791e-02 5.17967064e-03
    -3.68156208e-04 -9.34460666e-03 4.03053872e-02 8.95005837e-03
    -1.22251501e-02 2.97045317e-02 1.29955923e-02 -3.59286331e-02
    3.77704650e-02 7.96386451e-02 1.47426492e-02 6.97564613e-03
    8.91123246e-03 -1.65603217e-03 3.39932851e-02 -3.31816338e-02
    -6.29679188e-02 3.07781156e-03 -6.61762282e-02 -3.18524726e-02
    5.73268207e-03 2.42276257e-03 7.46489782e-03 3.64594422e-02
    -1.81812067e-02 -6.73854798e-02 2.22367868e-02 -9.12185200e-03
    -2.63816910e-03 8.80882517e-03 3.85356471e-02 2.72168815e-02
    -8.91182106e-03 1.69803742e-02 -3.39585170e-02 3.90755897e-03
    1.89999957e-02 -1.00636743e-02 1.82109349e-03 3.10279727e-02
    -1.30280685e-02 -3.42446901e-02 1.61039699e-02 -3.01384255e-02
    8.67566373e-03 2.89003234e-02 1.66885201e-02 -1.38991410e-02
    4.12805416e-02 -2.85668038e-02 -1.43137323e-02 -9.82207945e-04
    -3.60705294e-02 -8.81148875e-03 -5.81388660e-02 -4.02684510e-02
    7.10771373e-03 6.82346746e-02 1.80006251e-02 -6.13198392e-02
    -3.31067480e-02 -3.08305491e-02 1.98378712e-02 -3.74504142e-02
    -3.02755237e-02 5.67125017e-03 6.72165900e-02 -1.59754828e-02
    -2.55296212e-02 4.88149887e-03 -2.32912563e-02 2.45608930e-02
    3.11121102e-02 1.94607172e-02 -7.57682929e-03 3.10195256e-02
    -4.21964675e-02 -3.09963506e-02 3.00127584e-02 -3.49264173e-03
    5.43562993e-02 -9.13866796e-03 -1.16281891e-02 9.06439032e-03
    1.50855929e-02 -2.95985024e-02 -3.04481909e-02 -5.07899262e-02
    -4.77446914e-02 2.74814330e-02 1.30602960e-02 9.74863023e-03
    1.62681658e-02 4.74252403e-02 -1.58518814e-02 -3.14842314e-02
    -3.32783908e-02 -1.15801357e-02 3.94721106e-02 -1.73163619e-02
    -7.96115492e-03 -3.41620669e-02 2.23318543e-02 -3.63782607e-02
    -2.80953478e-02 3.14243771e-02 -1.52244493e-02 3.04751936e-02
    6.33276626e-03 -1.99670326e-02 2.04704199e-02 4.82680723e-02
    -1.33066485e-02 3.56863253e-03 1.33389970e-02 -2.63745207e-02
    4.05120589e-02 2.90358979e-02 4.91769649e-02 3.73193286e-02
    6.91020787e-02 1.29171200e-02 -3.75098325e-02 -2.46007461e-02
    -2.33228784e-02 1.30552333e-02 -4.67406726e-03 -1.07929129e-02
    -1.62410066e-02 1.95200220e-02 -1.45646157e-02 -2.83332169e-02
    -1.72650311e-02 -7.43633956e-02 6.31756708e-02 5.06834351e-02
    3.02343201e-02 -2.87667941e-02 4.53694761e-02 -5.79155935e-03
    2.45642066e-02 -3.22679803e-03 -4.62276898e-02 1.22377425e-02
    5.17164208e-02 8.92683398e-03 -5.24884742e-03 2.24924311e-02
    1.53552108e-02 1.59383528e-02 -3.23584527e-02 -4.20147516e-02
    2.74728518e-02 3.39737162e-02 2.45336667e-02 -6.88134460e-03
    2.47048810e-02 3.23826447e-02 7.55205518e-03 -2.44516041e-03
    -5.93865402e-02 6.33107917e-03 4.64160815e-02 -9.83568560e-03
    -7.21245483e-02 -9.89050325e-03 1.11295888e-02 1.70376583e-03
    -2.43551675e-02 -2.67781653e-02 8.50784257e-02 7.28293508e-02
    2.74897479e-02 -4.21163067e-02 -2.08286904e-02 2.52868943e-02
    2.78926790e-02 -4.02326323e-03 2.17393995e-03 2.32046191e-02
    6.23255558e-02 -8.97084642e-03 -6.95697498e-03 1.47884833e-02
    3.44477892e-02 9.52227600e-03 -2.88002063e-02 -3.11052985e-02
    -5.92668075e-03 2.56005675e-02 -2.91086175e-03 -2.15617735e-02
    3.27680819e-03 1.27138421e-02 8.75430461e-03 -2.73060147e-02
    -2.03707591e-02 5.81949651e-02 9.00255740e-02 -2.26281527e-02
    -3.95603217e-02 -8.19917594e-04 1.45853115e-02 -2.54157130e-02
    -3.64928916e-02 -5.26587591e-02 4.45620194e-02 5.40361851e-02
    3.27691659e-02 -2.85903364e-02 -1.85715910e-02 2.56125182e-02
    -1.58686731e-02 2.12544110e-02 -1.04601160e-02 -2.65826974e-02
    2.40712743e-02 -1.63372252e-02 -2.71327142e-02 -9.88414884e-03
    -3.00903041e-02 -2.92356568e-03 1.28755914e-02 2.18897834e-02
    -2.37203240e-02 -9.98204481e-03 -1.78063083e-02 -1.28933163e-02
    2.30572950e-02 -1.25078410e-02 -9.78574739e-04 2.79245805e-02
    -1.23992879e-02 1.34829497e-02 3.76366749e-02 3.18113220e-04
    -3.83327343e-02 -3.25960368e-02 7.21755531e-03 -1.89107228e-02
    1.72757898e-02 -1.50261458e-03 -1.33937411e-02 1.36389202e-02
    -2.00152607e-03 -3.84557843e-02 -5.89365698e-03 -1.94834433e-02
    -2.75397953e-02 -2.12671384e-02 1.00811431e-02 7.87435472e-03
    2.74008829e-02 8.79592355e-03 -2.51628868e-02 3.92995067e-02
    9.83771635e-04 -5.24391942e-02 -2.07358431e-02 3.22532579e-02
    -2.75283251e-02 -2.81365085e-02 -2.20812913e-02 -5.14864586e-02
    1.42111664e-03 -2.34390255e-02 -1.02071755e-03 1.07873715e-02
    1.19444719e-02 7.47796800e-03 2.59628929e-02 7.37539493e-03
    -4.37234752e-02 -1.62092913e-02 -1.25176357e-02 -2.11190991e-02
    2.99150627e-02 5.67082465e-02 -2.48613674e-02 -4.05774526e-02
    -3.75403129e-02 -4.63495813e-02 -3.90322097e-02 -3.47879007e-02
    -5.03006056e-02 -2.08914019e-02 3.57011855e-02 1.48547953e-02
    1.12583553e-02 -5.83274756e-04 -3.03932950e-02 -5.57014905e-03
    -1.06891571e-03 -2.90940423e-02 -5.48954718e-02 -4.19415869e-02
    -1.46140177e-02 -6.19788021e-02 4.67052534e-02 -3.35810590e-03
    4.50254651e-03 -1.23039575e-03 -1.75561849e-02 2.19618920e-02
    4.42269482e-02 2.15029623e-02 7.02260435e-03 -1.13090770e-02
    -1.48418341e-02 3.99058126e-03 -1.10465633e-02 -3.72693315e-02
    -4.81462553e-02 -4.36171852e-02 7.43072340e-03 -7.04756901e-02
    3.95513102e-02 9.55396146e-03 2.45599105e-04 -1.87916588e-02
    -1.55785726e-02 -2.73916405e-02 9.05087963e-03 -9.07824188e-03
    -2.36067604e-02 2.41356976e-02 1.39553770e-02 6.64919848e-03
    -2.36236807e-02 -1.76097546e-02 -1.45536037e-02 3.48909013e-02
    7.95472786e-03 2.06342079e-02 1.20240524e-02 -3.42580723e-03
    -1.14207724e-02 -6.49107695e-02 -2.88262740e-02 -4.48836274e-02
    -7.83365779e-03 -2.35365275e-02 -2.58161295e-02 2.33464711e-03
    9.47428984e-04 6.70455769e-03 -1.01773329e-02 -7.49823675e-02
    -5.04801013e-02 1.81930214e-02 1.28957285e-02 -1.01905931e-02
    -3.01457569e-02 -3.02847549e-02 -2.53908765e-02 -4.31040786e-02
    -4.93082672e-01</SVMDetector></HOG_SVM>
</opencv_storage>
